-0.623565738673928
-0.9165425673599334
0.9208178390103794
0.1864503103620383
0.9750251994472587
0.7568009249239982
-0.46973916929416615
-0.9027977004915753
-0.5392132796679607
0.06940710905163994
-0.029868715833452963
-0.7510376496502971
0.7366639658840546
-0.4092783481659681
0.551244105094197
-0.20346569420074023
0.006406090586742019
0.3408119169272481
0.3030452786688307
-0.6820033933367731
-0.7850004421577306
-0.5688510847582298
0.5349978871087671
0.589276105948501
-0.7476863575757537
-0.953355212190139
0.14318508231114468
0.11162395723021135
0.676563448011402
-0.9325192037784718
0.6385595132687307
-0.47394804683076774
-0.13500681372308176
0.7226719334302611
-0.2245471556633447
-0.5554321263994855
0.9563994191678666
-0.9723496210798857
-0.28552823099129787
-0.6567585537405065
0.5165314568604162
-0.2545673088642397
0.5279305936963543
0.9912135097489538
-0.5809895234649121
0.17030160037082864
0.025135296737687662
0.0879825775553873
-0.8258065431762782
0.7190845047756542
-0.936011208642779
-0.9865636041353048
-0.9632463815999308
0.11755455580434804
0.3277308695002472
0.5998972784856742
0.6228210347731944
0.6595221540697247
-0.4253771789989653
-0.21479534226952723
0.6432142999530475
0.3356558488450059
-0.043166882793091776
-0.26849595865909315
-0.9761510568355016
-0.7931064993259429
0.03438760818492903
0.937301230916544
-0.9541239524700189
-0.4783889683340239
-0.3753047115692101
-0.354931074405628
0.15122588006034432
0.8230693618965501
-0.857858749859723
-0.20238821829622644
-0.8640069763776537
-0.46607321297260396
0.6929394107315534
0.516780771682954
-0.11723136581099292
0.2662988428203279
-0.16241932397766057
-0.4709520205109996
-0.46153899596442094
0.7855927425473961
0.9850288560587201
-0.4237773318628819
-0.770106821515733
-0.9123950958912725
0.7265618249117742
-0.42290287138513993
-0.8876010050244838
0.2658200794225336
-0.11111170751132038
-0.3490586624102634
0.414856437181254
-0.15475593090608397
-0.4215523787775062
0.60782874951432
-0.07223142874894406
-0.040158459149272074
0.4670392076324663
-0.8963070093787555
-0.27646501663821654
-0.469033199744771
-0.9659382214080798
0.43882679277250847
-0.1120960537301916
-0.7884388165626774
0.17448278472014378
0.6331307967170554
-0.6406094489049043
-0.1452104040342681
0.12909927097596663
0.6623104579823396
0.36081006774606883
0.372960908692205
-0.6892023498133943
0.527592280358357
0.11369235461291671
0.9481465297464464
-0.27127653075442737
-0.3629054990463618
-0.5749725142128339
0.6558608180723793
0.28084812646755397
-0.546022752957182
0.20414058852256933
-0.9184759587974836
0.18151784147200933
0.32777482395004975
-0.31112664975742343
-0.8561056098023652
-0.265475003454019
-0.12938200648467868
0.9640307603396032
-0.3452182572030167
0.598713430415102
-0.7760705120576756
0.7935667284946728
-0.49637879307083255
-0.10781202616752994
-0.6568958914748984
0.6726038756328714
0.7851768628403768
-0.4360900853441767
0.5429919467193787
0.30087073280310994
0.6952781290387686
-0.6065640812358106
0.29477807472252504
-0.3310083872188303
-0.3133029735875983
0.0976586437814575
-0.5436075176546407
0.40765731124383087
0.6733297009446659
-0.19245274247380717
0.19286845565557997
-0.37853523705712555
0.9990758866723388
-0.5988488071424061
0.9499952178560507
0.04432866374170463
0.9792154359523475
-0.9031244268482079
0.15284823605484532
0.9793421003858331
0.21274570467566156
-0.43121393038830025
0.12660205441047956
-0.13983312741290255
0.04230112169738498
-0.4570778675750333
0.7780410253286847
-0.6807584665862718
-0.7374683704704539
-0.895457129539543
-0.09949643138927389
-0.2650932271937565
0.9260878213054704
0.266346320236339
0.2655478192932368
0.9002696550356633
0.3208474434440034
-0.9827242667239517
0.16691191584641651
-0.4296495061262131
0.7968606580220714
-0.9307821410382426
-0.4236374159072547
-0.96337943314455
0.9092124179900427
0.8794990453493137
0.3577626805955614
-0.05959633901577144
-0.8684348600531198
0.09654125064603525
-0.004277012467808872
0.3174601364024088
0.24346552155640944
0.6907897136150614
0.42398941557679204
0.21736018922702516
0.24997246229231362
-0.22601518787390074
0.8132701664650575
-0.09319280201471924
0.21634108606767066
-0.17834365933743235
0.10500206697049164
-0.15253966042196576
-0.32809204263314173
0.7300353806311217
-0.9305379798899795
0.728687478246554
-0.5732783154838164
0.8792735007844186
-0.10530703596564761
0.7720692431016971
-0.5456110443876854
-0.545105801987928
-0.13586417394450012
-0.35032094484067233
0.5163713520683795
0.7302872234622626
-0.6591695599010359
-0.1685327156663774
0.938376063945048
0.4408887491278948
-0.6547534525125303
-0.40748309817334993
-0.6777229747590217
-0.4604130597947218
-0.682928545160093
0.6740578672187396
-0.7186863610460648
0.23413929936242783
0.8969822112824568
-0.9594016807132031
-0.05268211432202041
-0.12514601323058305
0.3844477026529354
-0.11939333880353642
-0.9676788140811416
0.6818937014365098
0.3182882234987652
0.04054724071139715
-0.44162798036558093
-0.9289476381199011
0.2595931685827848
0.09507409237484032
0.4650240492713813
0.5905241801041319
-0.840920231799926
0.1009669562619202
0.9699156773988107
-0.6350763136091406
-0.7946059207306324
0.6160267141948901
-0.5042977376550617
-0.0912171519991154
0.6492940725116125
0.8713621369641305
-0.8434085763569361
0.9858570600909256
-0.140389906262127
-0.031304010788892
0.7155495666829499
0.6724893304269475
0.5372372932394434
-0.35295309473002656
-0.14891484763580753
-0.3999285705288793
0.20192142096759214
0.3333498982074945
0.15349404035889713
0.5961143940724352
-0.6504799753949084
-0.8399121825177962
-0.7084545927809258
-0.6794797832601607
-0.05408631397075059
0.3258509153277658
-0.6176254578043872
0.3712226620666057
0.049194806057162754
0.7739737060493124
-0.3643838791401801
-0.34664038688559873
0.31829946605805515
-0.6984341945958839
-0.2928366251420278
0.7409340152665636
0.39235974266837625
-0.729794288228713
-0.004385989935068446
0.3874479289429287
-0.5042791381593714
0.2292531080881861
-0.2614988804553353
0.3512441260095158
-0.5986958193482117
-0.3767833721183238
-0.6949278899345477
-0.05907909774561948
0.1463360041642714
-0.6789074741715846
-0.5074704175450755
-0.6306176321004406
0.6944593691438452
0.8744620445259135
0.34829961828015965
-0.3442079590355498
-0.10462291805600898
-0.21535406618153474
0.6472716473882911
-0.028675804806484795
-0.2685110585671613
-0.6492521052331555
0.35527637385687383
0.32879860463001487
-0.25951476307894716
0.9886865514220244
-0.4354152353670515
-0.04728401366421253
0.203379219740091
0.348259940018252
0.10909821726358682
-0.42432922160401887
-0.3355670794124115
-0.4312124913353055
0.01683087121425708
0.5295479552260562
-0.47137548537870666
-0.6721942883590346
-0.5882788556985248
0.7414442052997252
-0.5298390731289113
0.798565501745153
-0.760440814880631
0.6667816105682762
-0.2794741150608686
0.10977623825409677
0.45088766962794313
0.845961424354994
0.5426516179664245
0.028048451270219488
-0.7954362382436524
-0.9467604557042046
0.8298048725616609
0.35617219592226257
0.8891332316513931
0.9799338259325685
0.38504152026514227
-0.43853973628583187
-0.10522148262595254
0.37072361496297246
0.9194049083068772
0.6728375360265846
0.028528268892848097
-0.13608139077852566
0.21089901344064832
-0.14505693228522376
-0.2604847876377079
0.8242461663023
-0.8299822336884699
0.7764914954344884
0.5414752303826369
0.9751289474119438
-0.15597238689185056
0.42807854749401675
0.640220123752594
0.5597398088222023
-0.19694876525427252
0.24295208896122533
0.08862656697535898
0.5792976918735151
0.22326943147929845
0.9783368364783984
0.6021767176771107
0.8449671874439271
0.3191541189541236
-0.8405188926419502
-0.31343357852390796
-0.7513294397399513
0.3772789585173433
-0.5928902691122793
-0.10589935028535713
-0.2932663099081565
-0.9659573905894925
0.1935892522239726
-0.8514297445341772
0.6270269571272653
-0.1968523465830916
-0.16708061815421682
0.4904298398695912
0.7579333820166296
0.7131208827796105
-0.6191590620230698
-0.36267587335326024
0.23005492288682317
-0.07756089892540041
-0.5393473027435927
0.44439295213520635
0.7071806968526579
-0.1726139130456319
0.5041621011053852
0.046441016317308126
0.8122591134078345
0.9242554945171435
-0.05968927657609413
-0.7645250263417138
0.17536785508671127
0.1648103913246508
0.17519939831381537
0.41575893623367066
0.676917883460106
-0.4223898481116828
0.6396806143451828
-0.8501019273694779
-0.5824188077504449
-0.7626481544823436
-0.7570468519530211
-0.4499147629712672
-0.37386280854497134
0.2531122083818975
-0.971052571837077
-0.4710764975304076
0.33379113370648095
-0.1568844608806319
-0.46720253553704527
-0.9663005970026248
0.4180653672016359
0.18881615412414554
-0.22345448188871653
0.3972329066621094
-0.4796024967019734
-0.43323340015997025
0.9267939237521878
0.6153727053339293
0.11734883290948983
-0.474517018610372
-0.07999226224347855
0.4253583103886984
0.5531512782305461
0.7200881475931364
-0.7145583988307562
0.6797438506040951
-0.9329126514072064
0.49753035677851254
0.6361884867114149
-0.30330251683414233
0.3863453021843106
0.2533270168229391
-0.9871867475771903
0.42338498725882623
0.21902338026385837
-0.5573312001093949
-0.9211773400251348
-0.7833294372315571
-0.9823835013354487
0.6913527949891123
-0.8398602997552962
-0.9709075765527759
0.1429250151254673
0.90728465981249
0.029644877425740512
-0.6481659191082956
-0.003971391731405038
0.15645913455416016
-0.4020310358777699
0.08773802409837739
0.12822974768276496
0.23480438006334658
0.7817151700131988
0.4028131715176695
-0.05060232838118317
-0.2548208834172738
0.4555463618559441
-0.46635919285668126
-0.5385661573920331
0.11804097807785419
-0.13540664195329755
-0.07329656426512932
-0.2663794722069881
-0.22776256650623172
-0.0625168431513099
0.01771932891617256
-0.25463878186053335
-0.695997657945183
-0.6808144772897051
0.3958649425770133
0.7504423815563195
0.8452429272351076
0.8351900009243753
-0.1763623010880664
-0.4957261097614176
-0.007040118251342875
-0.14390075543099123
-0.7440949793306748
0.49433289459320995
-0.23059692332024295
-0.8615533920807461
-0.7408470677621046
-0.9089576431241098
-0.5038778785801115
0.5057151650676648
-0.6639521324052293
-0.26413762523871887
0.09626132509460628
0.15025279895854005
0.1304295833668716
0.4373929325721284
-0.45598932871096465
-0.8960816972175356
-0.01226766515828226
0.8303727677156405
-0.13229775329577587
-0.2548556607090753
-0.6338453461665801
-0.3293549959504365
0.44215078941549035
0.43820461092032104
0.9361151589545431
-0.45111358096515675
0.23482077862752937
0.02118629915404524
0.17181144934485149
0.527190426257272
0.7453178894621948
-0.5545996909689563
-0.31282988720939375
-0.45587244977934516
0.18633655958206452
-0.09130989200172523
0.3302114256326236
-0.39270125667414457
0.9430208763574286
-0.9142064937042369
0.41319844342020984
-0.44196575812855277
-0.8633149268383542
-0.07441589583157016
0.42475771637119997
0.6090979575920794
0.8742303488226848
0.35766901959598263
0.04896346589992251
-0.8194257555866333
-0.47092417507759343
-0.4232192586905761
0.48688077203216906
-0.4452961318217932
0.21251393470416224
-0.579792326556219
-0.08684854295335565
0.9685410779646606
0.8159456840550467
0.2678848229083417
-0.39921378205560787
0.18670988071373107
-0.9564632077915032
-0.34686775671482284
0.9250137776343301
-0.19556869299804758
0.09440992306107421
0.29683320885972186
0.12578428617216186
-0.7642858903458523
-0.06730663952417193
-0.9040720724429134
-0.2462932581187247
0.15318529998135721
-0.16414322716533336
0.8486439359664468
0.1589382756195299
-0.6828626400142159
-0.48901528429006547
0.8650312148176094
-0.9702361791495724
-0.5351137756524265
-0.5131919967382372
0.15935829349224329
-0.7431040676827809
0.6199294686006753
0.7950240693103539
-0.9507768990811931
-0.6601264386364141
-0.18516182590785757
0.8460864547218676
-0.22111317375647332
0.48152750734695604
-0.620052988045712
0.05881285261088709
-0.17701329363358043
0.5538477214308763
0.35043107174830235
-0.26052008541631233
-0.26536032868547954
0.505292182970533
-0.5560179284321152
-0.25681962586831175
-0.8071175250444105
-0.5829919827869099
0.025078313639579353
-0.4297600970285045
0.8051356358394461
0.4766269954803857
0.27597968940406736
-0.12049242899810575
-0.6529701107811583
-0.5207341227633975
-0.884236998614186
-0.8279299670227223
0.9588622409626195
0.3085333098835068
-0.5752361329145805
-0.16832581936458535
-0.7119078502968323
0.5567886808250051
0.5073862826084601
0.26817465642884564
0.6460378592531151
-0.6630164406163017
-0.5105198152064931
0.604138452739994
0.4841539555838994
0.6379344822085382
-0.1435269512256634
-0.6414449484096427
-0.686189308804928
0.4666288570117356
0.20640935539780325
-0.4320112687933051
0.019256175888438642
-0.43312416224433004
0.6215717701594512
0.0679426442776343
0.7680151433172084
0.04638324446639608
0.04027561782070843
0.015852944503578437
-0.26414163481489705
-0.6576400277261216
-0.4612052694807178
0.5399169658211049
0.8345474849651309
0.5415207757638816
-0.7162281673262185
-0.8474227417068849
0.10525771375894499
0.9517820829483252
-0.2490176458404081
-0.24403093460527336
0.3101606887887509
-0.3627692353084526
-0.6310713859753756
0.6903614857073852
-0.8092415164794955
-0.5767684804287836
-0.98597630731126
-0.5904576889760802
0.2315022485434588
-0.26048522120813655
-0.84264311558916
-0.5645497655093279
-0.5723379522636338
0.6313598125985547
0.3832458625670996
0.8031652667054008
0.9863453116556042
-0.008219198721452381
0.5542475528242565
-0.4586991330202135
-0.9712320550226041
-0.534809365746973
-0.08301016335692113
-0.5423245645770995
0.3113728048167872
-0.6616461114545691
-0.652289530542159
0.12643676779348278
-0.8670990237954721
0.651689508471573
0.09397453719475735
-0.9252676676981542
0.7066089342320592
-0.34373765276656454
-0.36845832709654247
-0.7899173272248046
0.812366553052132
0.7135490478763278
0.36021562175702004
0.07596520089213188
-0.05391213344946455
0.9121263352633915
-0.5016052684837053
-0.757440142015467
0.44877154393250773
0.7183554527717464
-0.5253878960596339
0.9285508722253508
0.7220362178518276
0.24115766410359152
0.9934015355665884
0.699647506149065
-0.03214071158726406
0.8993652274929678
-0.3760533239023709
0.40585484337086486
-0.5379773512210497
-0.829425291269023
0.3972561258918288
0.3825719958879261
0.4728060104071792
-0.8779705799792585
0.403354689584583
0.433280795139116
0.7403040788302648
-0.16722914353606022
0.18939131073533177
-0.0004581320014647172
0.7588898005168656
0.8084123555279412
-0.07495377474079712
0.4813518611447498
-0.3583058977204039
-0.3536326774633183
0.16416157714342838
0.6553366117476946
0.867165842305968
0.48968348331820866
0.08113252188872577
0.5170363539327905
-0.6710242405784119
0.25489166346604564
-0.5678833815049584
0.4596318444969343
-0.5479277796280164
0.9813527522356142
0.9880523852986585
0.8646201976293262
-0.05183646202111403
0.1793975969578563
-0.8697271741838857
-0.38909257283808163
-0.7291656430993096
-0.934857610940119
-0.687699773988077
-0.02151666010521014
-0.4893824687413555
-0.8563912571750791
0.3454180656606938
0.4110474041785537
-0.10192714667569303
0.4707594479328929
-0.7310426851389449
0.4773738076347147
-0.8255425520204118
-0.9755001278071938
0.5737260684233685
0.745337439767243
-0.8498437466460358
-0.40693694734394126
0.8892311330514331
0.9153063472243355
-0.8795641393075326
0.29140786500961235
-0.718887056918257
-0.5927510022187266
0.8451639064880703
-0.45536034858151186
0.30109410348636745
-0.5676549342024579
-0.2707981596628539
-0.3305042787183117
0.4162333049671978
-0.24615702572062848
-0.580625119250066
-0.8991412334056785
0.2108942321498819
-0.4064761638076626
0.44730298692438963
-0.9603432210351752
0.4215228825895492
-0.9062638158651786
0.2680292751332567
-0.5557799341346616
-0.3981643030825266
-0.7552627762820288
0.4871010178944406
0.4042847751888139
-0.9871142967551874
-0.6939718773863235
-0.34222146021857003
-0.7306142442988617
-0.4215536782097191
0.6738470097412892
-0.6969131960923485
0.07563750661823843
-0.0957884441663448
0.3467275549321225
0.471536121056789
0.0958846786526395
-0.04654082403686188
-0.07136036596738271
-0.4130424742433869
-0.5390343388610743
0.3223040734289897
-0.09361300940336448
-0.0005704033086508797
0.7768177285395708
0.6447484254692666
0.08944576164558304
0.027827486334719653
-0.33772844801272717
0.5482339206744677
-0.6359074086991172
-0.5554333152286457
-0.26108981611248017
-0.6936733133609589
0.8408939754917184
0.04023293386262372
0.7017517931885007
-0.09927876133310565
-0.2945641535470245
0.6438502033522473
0.38932601013531154
-0.33077913772656786
-0.10457419698952108
0.24375802711221728
-0.08783249934935089
-0.36605860396373924
0.008461373221182678
0.4129828397589004
0.09989703592706967
0.317757528254901
-0.15791166452170313
-0.5270091481376571
-0.41078792777783835
-0.5054634427384526
-0.8712995653880671
-0.5975822762543852
-0.1030724729564736
-0.09423682821092094
0.7589542645865868
-0.15963845036939506
0.5623497649643887
-0.9459563788954917
-0.3258336505959962
-0.8861856484583903
0.6245789054546049
-0.07075267501573812
-0.8452830151154707
0.8816868330213954
-0.7506827893530106
-0.7166966333049369
0.8931502948151306
0.96825930215326
0.7100930663426173
-0.9730137708690292
-0.95733524942971
-0.41914924666098874
-0.9468515284799486
0.2316939014804329
-0.5584545947283774
0.6761136536253964
0.06727182246050867
0.24433957455692012
0.6289398952267522
-0.7067840608610185
-0.4993458984889645
-0.0316604183122573
-0.15564431774279042
0.9462402180922111
-0.12246217770735579
-0.03137632625421105
0.96957631485153
-0.3993143196258466
-0.5724861880502199
0.7658748151560366
0.12208482638579232
-0.8789654035328929
0.3451259042012458
0.0945838951180431
-0.08392474400000904
0.47822673387561054
0.9218695976927167
0.6954648344485566
0.2999903881478745
0.7898349036504324
-0.8289999865217703
0.24736460753757306
-0.5525362272896917
0.5551524945880733
-0.4328360181128179
0.8927289214907768
0.3688608164850291
-0.27463282804066247
-0.8644806070756987
-0.8271703865813691
-0.16646410256827737
-0.8268948326099235
0.9190428224480287
0.305658913430769
0.5568777133921246
0.6865757799053089
-0.4556411091414634
-0.9810963786663389
-0.5966990047121521
-0.04815400942853709
0.8085252639203186
-0.45425225079552356
-0.7732868938084179
0.7125272538313774
0.0367921699566125
0.645657478111064
0.6865612948899114
0.15978552151193215
0.899100372866213
-0.19832912035279415
-0.20375259752704178
-0.08666398584753843
0.2362966835151561
-0.8801619783438623
0.2290792610602561
0.23578622035155727
0.2602371201132161
0.2714692182772762
0.37465717515874375
0.4198613651842502
-0.3163818877659781
0.8122736998139817
0.37472373334690134
0.3501952638297827
0.5177739251671538
-0.08663787328768868
-0.08953478896560974
-0.5250311764890856
0.9140964743208977
0.20816143113298224
0.6407766716698635
0.12666772005189708
-0.9551822433393415
0.2484875673033471
0.08162071079607092
-0.08390330000755197
0.2508877342701037
-0.1920640368122004
-0.9387174658143345
0.7055334466129124
-0.2479219510029389
0.4027605400648966
0.10340797239306299
-0.8991012521144559
-0.3678494815940001
-0.5975626511050662
-0.07759694955786678
-0.7881768230694923
0.9893716139028901
-0.5075759176486847
0.45441785797759904
-0.4683651213617763
-0.20854608170574473
-0.40839823976305856
0.4559011578433574
-0.3527400122268083
-0.6655748960034895
0.15022737937740205
-0.5641275021000576
-0.17756116648518017
-0.7592119918998264
0.2984621128595357
0.8065895132679697
-0.35644918612185705
0.3919615922390136
-0.7800146207539229
-0.3014902049533592
-0.31981389113794223
-0.36531995857843946
-0.5160517061199257
-0.10556930248964513
-0.13149166165958937
-0.1276287472633657
0.9298539918253501
-0.9673177083920281
0.6476335566863431
-0.6681415787104621
-0.4345293489127693
0.5228935521845519
0.6844816184337272
0.5433211320564517
0.3215946744686917
-0.10250224889144155
-0.5567531011203202
-0.31770568346371597
0.09693335806482262
0.567498802283785
-0.272970986902882
-0.4327024425774899
-0.08901153485446134
-0.6221322986046673
0.10963229681344733
0.021011509435651776
0.19496964403649142
-0.9814011187420639
0.8616181695155123
-0.029534200752321604
0.912782576230704
0.7504409403961065
-0.1777399213473363
0.18849716980722175
0.455636515800492
-0.1826991225136254
0.9249882101126938
0.5017630130423272
0.7384035480713924
0.9887317754456988
0.2427698521739281
-0.8439398224612462
0.47927056623495146
0.034193714983917545

-0.8311123575866226
-0.7858725936700917
-0.07858480599089512
0.9474598340403142
-0.38887933927089136
-0.6235253276766684
-0.2332593037303945
-0.5157398742820976
0.029192016244214747
0.08453467698095563
-0.3789766519472477
0.01286438655238542
0.4110962116639716
0.48755100070172164
0.8339206311863472
0.12051435530713306
-0.24439854070244071
0.6951917281110946
-0.12495358948172086
-0.42496007463219176
0.10595832340428468
0.229934903061219
0.6349891618239636
0.34773876272460424
0.15662943424830256
-0.7670934648478029
0.8407293365025115
0.43833558446344556
-0.5072913093018823
0.24843004453468542
-0.42308280873639315
-0.8425535581451575
0.7508009382975207
0.9446168204587011
-0.7221209630138239
0.8637622559798985
-0.8856493140452377
-0.17716287713540324
-0.7632882775268937
0.4006375675782161
0.9140190189435644
0.9697274306307015
0.6540801945953736
-0.016919392161037772
-0.878172855025185
-0.63352168374886
0.6036026195925472
-0.05928337574382825
-0.73097396249559
-0.35189596778270626
-0.5755600998672679
0.9858774205950906
0.3293413318971632
0.7455668624436398
0.7024215470591346
-0.5424551610093156
0.8645395445851289
0.2958233432690516
0.693663769925319
0.3961323007845341
-0.6464052496416142
0.020614230578720028
-0.3205006306019169
0.15996416886730258
-0.09997612988838078
-0.7394768381350332
-0.3170885506136416
0.13574614766648274
-0.3263729049453472
-0.05401815916539898
-0.9834231604785244
0.16027498730181278
0.4268857560951178
0.07167632355616949
-0.4027558513726075
0.3935061571426308
0.07023028673675014
-0.10575382467009131
0.9608729499436266
0.08049485790185162
0.04273580743737937
-0.9748982369004515
-0.5140379114078288
0.0170226532469
-0.7311852145623767
-0.9221084617771838
0.7399778013763514
0.724750633750082
0.6679659563943439
-0.582746252337512
-0.8447566727609384
-0.42447821510295647
-0.10716975928753647
-0.6848428165234441
-0.7994657206794675
-0.7196712358049056
0.6274425964632331
0.9787204760416404
0.898485926949852
0.5310987966675904
0.33326685152991264
-0.49845033279274453
0.3263588262406045
0.7630399986919909
0.0662973249551646
-0.4893417132433695
0.25060341722200596
-0.620994148753288
-0.4904959969010776
-0.9157003047090984
0.8966001522766092
0.954719278642916
0.8762594225956701
-0.835403455178539
0.270506488271691
0.7559644693769971
0.7718213308941024
-0.8228789995833656
0.9270916701702616
0.12935277936990808
-0.11808875010860276
0.1968389374631654
-0.3234609442847969
0.3335140974307136
-0.1553288548113858
0.20231465738097998
0.5344233827604128
0.323755982313781
-0.8202211993978221
0.41148430632146726
-0.07474671279258249
0.39890304541512034
-0.23891865280466718
0.082311946510369
-0.022506237610625313
0.1575144331517806
0.6887103632284886
-0.10483358361770212
-0.8566079838436329
0.768951226317413
0.6675570754998079
-0.35108490052399133
-0.49113494103165056
-0.951676390241647
0.6046765381034549
0.5863852210813694
-0.03488532522414256
0.5596738226483973
-0.9887077574046854
-0.09910972728924383
0.3580372731829684
-0.12525896729345098
-0.2608125081248809
0.9064631981563573
0.04645696978191127
0.9113534103473553
0.8516201265434555
0.11153347797648538
-0.1491709680998874
0.6417897758025928
-0.7087707575161533
0.12817025980747854
-0.3691444291674961
-0.7843282874328366
0.24893988252061683
0.9803872107643126
0.5623080541747918
-0.22181895445106048
-0.02160037678972815
-0.8901014441561854
0.9590581736730337
-0.9139281257841811
-0.7215730440907882
-0.6562147596343801
-0.5629077570785697
-0.9439338487036537
-0.3229851105225392
0.9480636458886267
-0.38639034116002624
0.48975042602914365
0.3939981157493351
0.163256625808061
-0.9171908408197513
0.25086986584939863
-0.035574575028800126
-0.9432021420655619
-0.18472603542105492
-0.29265792478132924
0.5701469660299576
-0.8373510297890459
-0.6376634535861891
-0.7947716301832728
0.39413738449620306
0.7007728232763588
-0.07111355975277411
-0.9910781923037797
-0.2529771983793465
-0.08180622239014412
-0.27364631188528543
-0.8109215257878848
0.43440294327924334
-0.98810051803946
0.48566216026916265
0.9376969722828665
0.9994791858788121
0.16369073379869725
0.47702452756822944
0.07862971022756526
-0.3590098123370107
0.2732874191595158
0.031179383699532437
0.7146306849666189
0.5029043429608908
-0.376465673408245
-0.3117563219107766
0.18748701973018833
0.137052739162157
-0.07160183570105194
-0.9767051880945519
-0.4344494480104433
-0.9010908568006348
0.43978291975081696
0.4940848692789359
0.8619695462994383
0.3066697271961436
-0.3795610496207469
-0.033460616454348724
0.4382577007800672
-0.8730722909311981
-0.6516101532021645
0.7715320965172361
0.9838755655484814
0.5698968854620172
0.7419922374108019
-0.965697872072204
-0.8006714307382832
-0.6958642775262345
0.6909240605788405
0.8299256105484638
0.0825526347443315
0.8834120376246282
0.36492945031227575
-0.9721080446852262
-0.899003104634821
-0.47771469170230696
-0.14306584359455998
0.2748530639693183
0.5172659142605203
-0.5087805720036171
-0.0008753131662264657
-0.6048910051184573
0.36780167356696203
0.9684950920869857
-0.7954282385941849
0.9020724353115566
-0.7189987670283011
-0.28016463789433277
-0.24156996319002944
0.2861752734231291
-0.7376811730951238
0.7680018713706795
-0.5112467765288566
0.3140639143613113
0.7860284911890487
0.838710710621072
-0.0005262598545725528
-0.15995501296430814
-0.6723296107140395
0.1608130357197921
-0.4163098057407064
-0.5997085560920314
-0.33210095463628564
0.9695002134186479
-0.20622103142956716
-0.3112718284992866
0.2560184264459544
-0.05189340380635854
-0.2963262988481663
0.6412797529440029
0.20385150449741563
-0.5888113768716254
-0.12303169619881382
-0.4644381646111717
-0.7433550584341149
0.026938585401474757
-0.14253908306030105
-0.10380043176220077
0.06872208862915685
-0.2569485223062975
-0.2524468823309811
-0.22757054968269874
0.5894009638960926
-0.34305887985827477
-0.8733271165336358
0.794143108567384
0.8375779048491401
0.9719613355129464
-0.8571891389284012
0.0630789364893185
0.9640318514080743
-0.9305234134805007
0.8026906134737786
-0.4278287684874611
-0.24411420633378
-0.44831871960892733
-0.3246266566300047
0.28858611527482037
-0.7628617646979554
0.38801417330837884
-0.119742559624338
0.6531302985864305
0.2799858975000884
0.4755011681227508
-0.05128515438072556
0.19131948955657974
0.33377929510300874
0.7174926995124689
-0.7031155528564093
0.1308646877785895
0.8241619074441817
0.07070649335862789
-0.05727496363966034
-0.43985904260804465
-0.6921874360762779
-0.14963311065108487
0.921772712438846
-0.4560075201206166
-0.8980860244988902
0.6344341037707888
0.5997894290175219
0.29893832177126534
0.8778208718010723
-0.21653145493460846
-0.25939727613600283
0.44312708159686753
0.18937628935066808
-0.40063377934257605
-0.40501995186341677
-0.8922023501858103
-0.22973449004248492
0.966686388505432
-0.2608643911064592
0.5007732959499576
-0.4295136489730642
-0.2509821565578845
-0.41239402737152164
-0.656621561977111
-0.706090128658948
0.05292343714036818
0.8057770216392581
0.7791899399361208
0.061535865106510546
-0.02296033437030287
0.716296182951059
-0.23955008483149265
0.5696208102259783
0.8912642033324798
0.6578293704159497
-0.01716482627972571
-0.9218835915643806
-0.16681000221652753
0.6941308418819487
-0.8357129110308861
0.6267989317032896
0.011290202798869498
-0.49660516919185693
-0.7900345987625101
-0.0745401510209247
0.06864558519271857
0.16775505087298104
-0.32921287516180264
0.6654768133626541
0.29277418089714735
0.45771926994256984
-0.09882817532952326
0.3914456848421253
-0.1404549194187703
0.6935029933485215
-0.8004004142855359
-0.7663744411636029
-0.7715998574758647
0.4100169854398803
0.8997599786826149
-0.7457043349820769
-0.07643737564584385
0.6236897658957934
-0.6417549656474824
-0.9156081139061276
0.45119451731517457
-0.746152475399084
-0.07774057073117246
-0.821307349390223
0.7524861973179786
0.9787207287761286
0.0021328748333422354
0.7036166178628405
-0.7993405851390949
0.21621720289375768
-0.2613752770592841
-0.7412861526492933
0.665565690684568
-0.9072977593286164
0.5514496987571575
0.5067222649745393
0.48788764648432004
-0.44816794974766094
0.8177604586443985
-0.7531312530691014
-0.4747971612980133
-0.21409156802385
-0.3009262720161707
-0.36454598209276257
-0.5095961652024086
-0.9792822330169535
-0.46813003470120873
0.8056690061550817
-0.43255113365480846
-0.8094563454308412
-0.9076062056659173
0.6062589360309532
-0.07393822723745269
0.12141002049704053
0.7880549111398041
0.3404170693924571
0.8738976509600853
0.9915540283675077
0.14455987505714196
0.7945064635581995
0.526354385633127
-0.5359486649580896
0.5098646271655003
-0.9071343743260685
-0.18076954714936555
-0.25752488699934606
-0.440957398201405
0.1686996149788671
0.1908277434038419
-0.6043225772092227
-0.9341174639723713
-0.5962542010236076
0.8186421532755088
0.22194246050192512
0.1551912950908081
-0.1860859668560586
-0.03263398935856077
-0.8939714536341239
0.34832004464920474
0.2601401615151744
-0.429582690735242
0.29918041647014704
0.7892545221316378
0.6534480866776675
-0.7739693647405979
-0.3981049093986606
0.9440827411811641
-0.697237240434101
-0.534248691811068
-0.2573721045360875
-0.841509024840364
-0.624214337173755
-0.5306327317895081
0.3690558504568493
0.9611855156534512
-0.2206821263544454
0.6682679097501458
0.051095538417784025
0.0850973637924477
-0.019472099624734396
-0.57095688970633
-0.6442471736481257
-0.4226551400061249
-0.8231757014798389
-0.6350086185330521
0.16698544253040581
0.15442569057393873
0.7020386823021998
0.9665280497707449
-0.670348980057466
-0.738735325606535
0.4033715521105752
0.3432688223085274
0.2542528473589287
-0.586332018658746
0.8652783138284574
0.22229301030579607
-0.9586618796583901
0.33201574805309897
0.47760115706481265
-0.1149816754798032
0.35134128020962185
0.9656078070484133
0.9081045682742956
-0.4371016349294601
0.44450534279103615
0.12344241949221457
0.8685252101624013
0.7911092059489906
0.8986696973162198
0.7709094052501422
0.4742335377422735
0.08012394281197843
0.4944027605842982
-0.9738916607297474
-0.11580598918864671
0.5338144481532323
0.700983072528699
0.2737193694038218
0.5041603279823457
0.0033187482139351854
-0.8860523401761027
-0.15942745688890692
0.5839142231626426
0.05472862401519207
0.6222484460171185
-0.23475083091269666
-0.7852678507260147
-0.26619742366786303
0.5824098596070555
-0.7786475440173948
0.2556278613767107
-0.03623463059164389
-0.7859248255757343
-0.08629039142666195
0.9131900477841894
0.20872396397624438
0.9289026006307601
0.47108353227755906
0.6025582943276095
0.6779961455817292
-0.19465430457811594
0.8022777243936441
-0.5699389776224768
-0.5438141383348714
-0.8550903446915761
0.6678928923174088
0.6976525382137653
-0.5099002382556515
-0.5905553281438445
0.22146798338863283
0.24224126411273628
-0.27875850444994543
0.869946074363426
0.029385100377713025
-0.33662254832672955
0.978501080542248
0.9588767474048709
-0.18811044062199245
0.980121072656484
0.28824661759147063
-0.12197395579106551
0.8749806634690029
-0.4299476770062747
0.5539061373436531
0.5331431443772345
0.9147786297603255
-0.989584742638602
-0.5674666708037337
0.30057837008247734
0.3728920031393501
0.83746708044051
-0.16424812306473635
-0.3440805350917604
-0.6163145670464125
-0.16798638695969115
-0.216458434086362
0.9915802278356065
-0.005908204054913213
-0.8017616473202516
0.13958941564668903
-0.06283565020982329
0.6479312521851188
0.34193565161342754
0.6380105263635893
-0.2818581565066043
-0.3258417930234909
-0.18841672383856078
-0.17648642435099382
-0.5396952924772147
-0.7409300465260871
0.9932271896635554
-0.5745492519947626
-0.8590194712026666
0.40838396725569304
-0.3572307001259529
-0.4026992376091345
0.15746245383998958
-0.03249277641845816
0.760679510916396
-0.335054172524589
0.9252826667521801
0.9660770242332735
-0.5163949760456801
-0.7301095264815127
-0.14862306871670516
-0.4288486626207386
0.11324736281067604
-0.12572411450012422
-0.39745979203127213
0.8327162997087771
-0.8961195663740655
0.34546031757270823
-0.3069728442577606
0.9683414009121032
0.3292054617384801
-0.2003570504400447
0.8558806014512101
-0.890152076531773
-0.4057969054965973
0.4291670002466601
-0.6213092209269997
0.5929152179629444
0.3317576826145763
-0.6633493738560641
-0.49644075313834235
0.6206096862256967
-0.7138350055355376
-0.15089698461572953
0.08383895781889472
0.46177665481660624
0.8954982791017554
-0.9689798506468954
0.39318134363534685
0.5373876371347803
-0.45644619893391214
-0.7967740808713217
0.39011760575201415
0.48222774414006553
-0.7534812278063334
0.5319535219053582
0.9350449768348583
-0.7057063502306438
0.8611353322477064
0.5721979334093661
0.8217142776931132
-0.956023620758643
0.6209284898599372
0.5364482210465562
0.4376202695558824
0.03481752907458824
0.001071922332858799
-0.9433235822857455
-0.0158497824595627
-0.29341467125075615
-0.24524859741582872
0.41005432225798955
0.5187833369104666
-0.6870976255839805
-0.581665216348767
-0.6538680459006587
-0.14101260795138115
-0.09976335982944495
-0.009734702040400611
0.5941547412314157
0.7468003110079244
0.6619686258762603
0.6228898362705808
0.4802603293578529
0.2188986476012773
-0.5453649912825338
0.18587395894083203
-0.7498458584672671
0.2803543840365623
0.7439187612852887
-0.8609972459437587
0.10361383052124595
0.35669001641589815
0.36559071928419273
0.986635814803283
-0.662162452553053
0.9099718677913831
0.35223160400868814
0.33520014362718453
0.2294128161420148
-0.3422183634492242
-0.13246228138550298
-0.8377587366242663
-0.37193781408735194
-0.1190326767385872
-0.9255758892528159
0.5099001622001582
-0.044079654889316755
0.3227879044960458
-0.26649028689108856
-0.5034545166837023
-0.8884680068477635
-0.8639350794489642
0.6462622315697517
-0.9216442962962288
0.6403599977121237
-0.8796030114867852
0.287317170927504
0.22255188813033389
0.5231058000196118
-0.3568241455714518
0.8127057365800832
0.8035223812801644
-0.31964251851911896
-0.11655803922828079
0.6094292633629279
-0.8503609971563448
0.4279366350034406
-0.6963689554413361
-0.8463539492635108
0.7008940539652873
-0.22634127606055388
0.7559572442220461
0.6210727706451109
0.8872102595206695
0.7924583065787809
0.012437713163729214
0.6028906522581765
-0.406315416083336
0.9971961330170276
0.43459187834463586
0.22391200790892074
0.04382103391944825
0.6561992280466702
0.6923405034733361
0.48117763383151435
0.3642952748601427
0.11873560668493788
-0.11592969156482757
-0.8757878666023455
0.29459392234106896
0.3561059753674205
0.9108867373673095
0.28574251565769404
-0.025009675344827453
-0.992670279551968
-0.2108642539653638
0.665844891345782
-0.5191652230770967
-0.5361513263079929
-0.6675653212525718
-0.6792161247282731
-0.32816908624286567
0.7561846652169826
-0.985655167397965
0.3146262330084175
-0.9799433714398904
-0.7506103165415481
0.6042686445278669
0.5176805359300307
-0.5441985635855884
-0.5573709526532833
-0.5315200574274341
0.6662521619574886
0.729591715476281
0.7364496313708764
-0.815855784511718
0.4857046158636722
0.6700924521606979
-0.05812543975753992
-0.34351663319391235
-0.20071047761162464
0.5940324602893179
0.12691334776930718
-0.19007704892466215
-0.5829047402253766
0.9352740678748266
-0.5105119732784118
0.10567213303869183
-0.4151250476445245
0.42420367551605653
-0.02358130973234074
0.6270982866730215
0.7392748477263988
-0.42800194436928507
0.22148191270288686
0.017434782459545772
-0.3160918152977503
0.15553652057061274
0.11719165897253836
-0.4433607916960365
-0.8575644558118449
-0.315948112899211
-0.9022364462183758
-0.4200550158841081
0.7258995042949112
-0.563561048159342
0.8341263712278795
0.7738432588489152
-0.4155413403080197
-0.13115872053931987
-0.20750178295501964
0.02263794398448682
0.5255543980668478
-0.2960543362262438
-0.5816116923429495
-0.8431425617229618
0.8776500604133728
0.7464826198365975
-0.003793531587308774
0.24358730008305862
0.017684291942473118
-0.6024423607020406
-0.41022362063417095
-0.19189045862217569
-0.9554021051250785
-0.001337127488983736
-0.16541243762147118
0.1217201414884388
0.30346292365528216
-0.09927015692259755
0.7120235005108773
0.7884675338341631
-0.8279249174721248
0.05297223406704088
-0.36476396721498383
0.43529575958730393
0.6439401331253374
0.7900650232740898
0.671319597236925
0.12584374355090633
-0.5639117897419466
-0.5131381965593687
0.8286924639000894
-0.679108048315979
-0.7527361506734933
0.6130034675910612
0.6046546341837515
-0.6681366020314212
0.8318964651068592
0.691093704830904
0.3498859516077262
0.6842546544583612
0.07278678792432358
-0.17452956724065372
0.5719243452325025
-0.2763386577438707
-0.11548743603879652
0.9945658143290326
-0.9527568024239716
0.6567672055033331
-0.9188517708466124
0.027617176057715964
-0.2752420546113068
0.46806853204497956
-0.42307213202373517
0.10830206249569807
-0.8782952301351776
0.1508090331200438
0.06695014770582497
0.66884817278521
-0.08932086025037278
-0.6118074183772371
0.17411482059898953
-0.3689497578645793
-0.3903414616453309
0.6255942235288081
-0.97153360446009
0.8645912853146536
0.23461933271858104
0.4907083213793977
0.972563255898798
-0.3597213272286184
-0.10600683671099587
-0.18181682636422503
-0.5607179344108897
0.7396890159014802
-0.21414757976712373
0.4418762268004499
-0.5797592932540252
0.5407834652570793
-0.29925975618810274
0.19565807185518502
0.9912042291899761
-0.35890244582086983
0.34577287911619337
-0.6510705842887126
0.5194745196838328
-0.6108608398941628
-0.6450854101340462
0.8387067055666304
0.7392754465320328
-0.8541659773342334
-0.06074932057906701
0.8969433670158915
-0.4969796326201372
0.6747406068442707
0.2506698356828856
0.024586827135937295
-0.04759136850586665
0.5514857309061103
-0.171020709319347
-0.055527397008530155
0.6195485441103707
0.05836617154003321
-0.4466022796161584
0.3193927360416411
-0.5135022336340753
-0.9747648707414205
0.28672212843096245
0.023842242083588205
0.8646524931195652
0.04942643565450355
-0.15178767430218176
-0.6428439192231732
0.035387884501971945
0.6568312139917802
0.8390553265416789
0.9166745592763703
-0.8130569603697035
-0.4294463067582184
0.9149297203760574
0.9818901219077756
-0.46598301288312194
-0.5176719869826758
0.8103946852376733
0.8002011487983793
-0.19953469185915873
-0.2820371782351212
0.9946397026112683
0.6148473157803418
0.23085584599464504
0.23758483830636923
0.8923395514410091
-0.3950761567662149
-0.3312193927189564
0.6488696253654855
0.7721799405136756
0.5163981528257215
0.3928763858682147
-0.9611096053927541
0.2552628335479499
-0.08011318449693294
-0.26140902715680303
-0.34723489280063724
-0.8702741276940971
0.8233140209871592
-0.006862602804353024
0.6045789315169019
0.9914457345739462
0.1250650296578204
0.9726172882958097
-0.6048160372768259
-0.9939431629940949
0.4883515117125641
-0.939848429285032
-0.7277500973649154
-0.9306068472740017
0.14214077099680456
-0.03557564605732799
-0.6221963088295752
0.4669587507840165
-0.21637149111501652
0.9666342831961894
0.6114809165890376
0.9217756923915519
0.8468673218728691
-0.4397015876746351
-0.3917444366181293
-0.791545492494135
0.4287818084569113
-0.20571144898117377
0.9771340604165868
-0.34160148154104886
-0.8099407930676337
0.06257717734228141
-0.8819907546581776
-0.9334568886218577
0.03018372489124732
0.45207171296854787
0.5850135463110009
-0.038653565203565554
-0.4315794604158911
0.21485029398118938
-0.5832151460639285
-0.7532229908561943
-0.5357189063858736
-0.5668398559993635
-0.5017012067422959
0.3914306595007
0.29561615100601557
0.809107013799689
-0.4307801082411029
-0.6635928989348558
-0.351479490242367
0.4390415224485489
0.009143140399883398
-0.40764257835492046
-0.08716619922093471
-0.5613840750808436
0.8037518726239863
-0.3572354019071897
-0.22414531203965016
-0.47193544813622834
0.8420797086037375
0.673682357234795
-0.4054670383829895
-0.5341677808842056
-0.5848278760778589
-0.38104901023713134
0.46233571970240717
0.5741915424562387
-0.2802334888375986
0.5070228729950936
0.3960985056470072
0.7822087891241061
-0.08780688381642876
-0.8711515998195247
0.42277355334072797
0.6780598826017319
0.6435366616216478
-0.46801923458389005
-0.6701748395010547
0.594306178592642
-0.45863049637719633
0.013941294798279102
-0.09368239731587802
0.23396614507846314
-0.7529384554478857
0.4195971599920765
0.20554185668236324
-0.9076570024927442
-0.21619613181211084
0.37193111756997177
0.8721523084258775
0.5358349330726488
0.060084229914021625
-0.11831874990882874
0.14456908454482909
0.22112941800210195
0.4066667634050538

0.1686698258447652
0.007427674851127497
0.09177728147589148
0.6433680930252341
-0.9989253189639675
0.8661499684576894
-0.11310339491346721
0.5604456088962366
0.3499577494671766
0.26315013915164154
-0.002338874666871771
-0.39545401995529383
0.3324547568268752
-0.232321342929662
-0.1345688502202027
0.3956910151018773
0.6145589332745083
0.5165091674977993
0.10732086063031887
-0.8344001450353462
0.3466280399479045
0.21732525570519057
0.9531718306017807
0.9271439431920154
0.3734296216989359
0.4451057200275097

