-0.7946190895086511
0.9131372876000063
-0.7371212920859596
-0.2481698264526464
0.3935439084080028
-0.6328512281116825
0.41537211156188536
0.3614244259479924
0.0970079814491489
0.8744355133929065
0.6453496008705386
0.6904158465939971
0.5317406019083428
0.10090672827480973
-0.8779639120003724
-0.9272965075971644
0.7267482353067332
-0.45076575666966723
-0.08198928616484813
0.4558969321611017
0.16146147084181472
0.033874487980606105
0.13106500083621908
-0.9997787664111177
-0.9329180834442821
0.10532260786253689
0.522243584879424
0.47952970539131634
0.49338742163686766
-0.9446988150426712
0.4483329151960802
-0.8115161768059542
-0.9383567378333422
0.6128037242715867
-0.008309037474761416
-0.16374026998819935
-0.5771675863791503
-0.5270403835073068
-0.04988087101864935
-0.9645825036742657
-0.7021613334114791
-0.9808427725513571
-0.6067133105064597
-0.9538756849134968
-0.8277318503905049

0.5489870137328434
0.9231955724923198
-0.2660816516371889
0.0016766064829796257
-0.6924561276955439
-0.9979151633686894
0.7002469855747233
-0.9880621998552717
-0.059441378140860035
-0.11474519713214915
0.4732152306016315
-0.020338024885801165
-0.8408949413658806
-0.6374524526351366
-0.7828129855094614
-0.6479304949666305
-0.4765972602688866
0.9317950998639866
0.6413904207420038
-0.3055967932464567
0.4252734696911442
-0.27842520943675697
-0.9457221103771469
0.16385537383269866
-0.034746507382079184
-0.021662108931806534
0.9019675179351141
-0.052035169199232234
-0.9844097186335794
0.5577596141091108
-0.10681965059490772
0.11415043186683804
0.8428629063782718
-0.13776452234627068
-0.18686814901033255
0.8837275454643372
0.1700631106508499
-0.834709994969294
-0.879534802249007
0.32974312830314934
0.5579428266630033
-0.09608564578929091
0.024824244131052886
-0.8691375814774227
-0.7486058194623553

0.557203200321988
-0.3303136460262224
0.8696540838586371
-0.45499962446570685
0.1492196036767266
0.13285180653979078
-0.9140409383768597
0.9751184980577559
-0.48227193801917445
0.0487752379254105
-0.8409148886350044
-0.2617028942666959
0.27654654368492926
-0.9418748191880102
-0.817886579873428
0.4609835865611043
-0.19659894836827219
-0.5173328463413238
-0.37031649720245463
-0.31312156842394945
-0.5573831099592845
-0.406979890880377
0.18699885126411186
0.5743466397246988
-0.4524299956497164
-0.755788417962518

