0.8122207241783095
-0.026593980768270464
0.7792662858826458
0.4762382298948904
-0.9092664581216627
-0.5697273030191421
0.951904649718194
-0.6417779232785916
0.7870075862872423
-0.6379793314069444
0.6978551439942722
-0.5607091567366582
-0.3417154142624259
-0.1348002340150385
0.5161917774869582
-0.07206845378731108
-0.2559811267448828
0.41533622562122074
-0.5188080628069485
0.8294542726138336
0.6793267598918482
-0.8768331198583179
0.9873343285739542
0.8302712195595114
0.8378737838869812
0.7429582802407015
-0.3891147193134403
-0.14434459026710678
0.6589567798210778
-0.9187508991367601
-0.3570804451671683
0.8123440446822245
-0.36011423985500945
0.45409554682483666
-0.30309698918781747
0.9281016966587214
-0.9265564016427059
-0.9178015123815677
-0.05660702716990129
-0.37109969673254106
0.579385106802637
-0.6541692237131127
0.5796435065006207
0.8235955080023936
0.33693083041704597
-0.2540413184913708
0.8322591977974043
0.990457888368157
-0.30690921602157806
-0.3666939113347738
-0.49592545413378164
-0.6594079377176865
-0.8993632146829784
-0.19309886833577328
0.7038227688998182
-0.8326067156046528
0.888720921029583
0.6549644123003222
-0.01122076002680017
-0.16067278790561113
-0.4621525384280267
-0.04565620480781529
-0.221078490128233
-0.1804832626504025
0.898158321801102
0.7241953100464362
0.42049301087246227
0.7186287503884703
0.0931914970335701
0.7890401877269986
0.7130959285321867
-0.014552621812514266
-0.995852486729399
0.20704059588653667
0.08048591145381323
0.7997310501456494
-0.36850055631660683
-0.77395157831492
-0.7728370878746464
0.3227659988602942
0.7579417518447753
0.3629013717709251
0.3387874744806221
-0.4567520470530111
0.015472826451284893
-0.8082797991016832
0.5649535684069491
-0.08553050102346105
-0.01310379075414625
0.5164429545845759
-0.020951145696753715
0.18364105489949578
-0.6293148853695267
0.7691752904793832
0.09156909301515981
-0.33733339276589125
-0.522668747663775
0.5137446950718294
0.034305096840216986
-0.6324763756582148
-0.655578763908649
0.0874250746827816
-0.532069514309681
0.3334613393650374
0.9705272890892465
0.6929263138766903
-0.8237013545475804
0.6484911876155
0.186593417481691
0.09681998267174774
0.6729123581401539
0.7980190561100902
-0.023791205886106948
-0.3305254854950097
-0.05999704576159859
0.010615528633989513
0.7313117986485729
-0.35024852411537255
-0.7600286897487061
-0.46732532508916425
0.36379711349741384
0.46147000693321627
0.38877281238790506
0.9631154871569576
0.2097123508835883
-0.7490452578722693
0.20943863634798676
0.46301724479075834
-0.1581669159533392
0.9118750617452258
0.174420253209558
-0.9069287087749642
-0.825338579415851
-0.20354904726179668
0.9921197156394586
-0.01827191695699626
0.6951339973235291
-0.20303418989752053
0.08356532658176108
-0.788593305248704
-0.6987227879237867
0.5971826105122502
0.6092039299575278
-0.45267743503895597
-0.4761433076082904
0.6476584214840895
-0.936576809334684
-0.434382824995043
0.6213215487477974
0.04328483427082519
0.21990511044302274
-0.23638518070685022
0.8341703775532712
-0.8418605872807314
0.10302354848521467
-0.7184388749268042
-0.6686902815258091
0.06364596583687732
0.04903164912689273
0.23202287796833465
-0.47381836220512685
0.1033414034069966
-0.7480426489133283
-0.3100182072259412
0.634760302558226
0.6960247634350993
-0.4078093796973026
0.6127728853979129
0.7162039590040039
0.8822460429712959
0.42570871534715815
0.11306752613380877
0.7616781132748094
0.7053177540488695
0.9011648944855573
-0.9561785254761617
0.7845235442445759
-0.03760377713648899
0.8638728236780377
-0.5379402044257775
-0.21098221176601473
-0.5472872601143848
-0.38810043031003905
-0.8142132430334956
-0.8478272120645669
0.7429524243520607
0.37109520186488165
-0.11352811612708313
0.009421252961699045
0.6039137433959849
0.09464960055724059
0.8561437654027413
0.778649215899508
0.9114515909215315
0.20956472831097583
0.21976079563317596
-0.5834482718395173
0.4434678744585838
-0.26732248078897203
0.9336918566524095
-0.6728041657033743
-0.8809683340995986
-0.8951025497460108
-0.9459872848899815
0.5035622573596297
-0.8646184884309109
-0.2858322920095544
0.7248543003065393
-0.30833132712208844
-0.6394248370047089
0.4481481571431809
0.15548331832653473
-0.45003141192949125
0.6910072263318214
0.4808832300914465
0.9446110830106855
0.2783983726653061
-0.3475012179625556
-0.27001579472535964
0.5964990308161329
-0.06348969314044228
0.33775275428871465
0.44387256399981556
-0.09348334086922883
0.2608293345174906
0.9926821353181372
-0.31148993178991913
-0.13795202493787717
0.3798874124408915
0.39701922370802323
-0.713448916838539
0.4923317724252101
0.9597501465674252
-0.6495975319101326
0.6182843206128097
0.8590663974281256
-0.2945076455514546
0.3308706255848084
0.4494027903177269
0.9810118275578934
-0.2761054685857056
0.7747179766729337
0.031719294481358906
0.8248354938419764
-0.5453045534467917
0.9655071371007966
-0.2576891796113012
-0.41253998305365625
0.975763939843814
0.277345463512201
-0.43973462867282986
-0.10953603682713564
-0.9718266980542383
-0.05649195607178936
0.35769888888524703
-0.7190371365576282

-0.5336432062357019

