-0.10622652546868261,0.09401230032790753,0.07404571276257074,0.08951405509207304,0.13423417171584145,-0.06905599143034717,0.07193497135936718,-0.20256617024270743,0.01535048965096357,-0.05501358468726539,-0.08463861416437927,-0.22012148137366724,-0.011066271328239065,-0.15635194651097734,-0.11138551721643056,0.04614535873350812,0.05577949734711226,0.022872002144109366,0.1658425209303923,-0.146659841320911,-0.188253736336276,-0.12998529504978906,-0.03326159398799967,0.016490634647777194,-0.10468969886966206,0.020270363061514664,0.017879290029442337,-0.0059395725286966045,-0.07432503885251351,0.03138716738470102,0.01990020435855325,-0.1756850652981652,0.08322754525014868,0.19517044948221574,0.15856705051729875,0.20691297670245312,0.3168313245368254,0.08414161291957348,0.05438647247637925,0.030926651082032446,-0.14943196442755935,-0.3634632097411031,-0.227346008086944,-0.1092382394541082,0.11471583512468893,-0.0917551239509831,-0.011484780217848286,-0.041042861946178504,0.1054654082781895,0.15019896496061802,0.293137068805811,0.17117201314853733,0.3358999454482697,0.2036372977095152,-0.21692191512984416,-0.18150779280700502,-0.11596873576744825,-0.34509674448940664,-0.5121158700396132,-0.3540726998892751,-0.20592754621875106,-0.017188681568969428,-0.21811204322148134,-0.08695004211891685,0.21538837782523795,0.13471192393148398,0.17144126316820676,0.1368186564405595,-0.12534689225286016,0.08176821623880288,-0.06563997513272374,-0.27024911997501144,-0.38054817954472514,0.09044985354729891,0.09282849331225465,-0.24606800599641054,-0.5321989642062629,-0.3724066143352367,-0.127928857255084,-0.09432066455348,0.19427109158869157,0.2442842997711818,0.12260780031717576,0.21513520946923662,-0.10210215968775885,0.004094655570267168,0.13407763535410702,0.0006440177485813131,-0.11034683319295431,-0.08497829218986871,0.25712794210916445,-0.013162190303621717,-0.33766141241038977,-0.41680475471835543,-0.07850994036114559,-0.06815534146919339,0.06985451059635087,0.13456375550360283,0.2414460618799294,0.4334099598880657,0.513137233919759,0.39363224006861236,0.30627736108468406,0.16717857965598398,0.3520085304198949,0.16405020365217332,-0.02974959545101116,-0.3598372668799402,-0.4632454857052821,-0.42477786956975766,-0.2212506564540602,-0.09881783996217086,0.05702681334272776,0.2334944171825227,0.19935295996697597,0.24837983297789357,0.8689227133451273,0.4141525783377216,0.23670735241389368,0.09795083373487211,0.13746726558742123,-0.10905206260112643,-0.4201755189117676,-0.5541709686360102,-0.6449275200493206,-0.4234398153555373,-0.2868513471002805,-0.1654358058972501,0.06415244548564154,0.12927512436075922,0.5092723282829185,0.2870374803599702,0.17542301929007656,-0.08770734073986677,-0.4380806157546536,-0.2048906172857971,-0.14878188276641663,-0.12934342680434596,-0.721958432608646,-0.814695066949742,-0.771782524019782,-0.31453295165705536,-0.21986582157367116,-0.09741622464110036,0.22026946456694602,0.043164257847498715,0.17088969616603478,0.13762431475360076,-0.25719314372906915,-0.5289493919559541,-0.8052090034496693,-0.18613623620063885,-0.1381092210566269,-0.10084727359551923,-0.2947228415671987,-0.8317596855241925,-0.33490047591859234,-0.3025561894331833,-0.05564817098845027,-0.12152781117418945,0.09749927664336078,0.0877008522259573,-0.03428611873071274,-0.14680040371015612,-0.5718728610493926,-0.3321254806369829,-0.1427303520794127,-0.03384569533152983,0.09432778778047059,-0.3973371480317798,-0.734342804803045,-0.300416027797817,-0.1502071797341522,0.020198614736104348,-0.1588515883240243,-0.013825458611349485,-4.490524139435869e-05,-0.100898782363535,-0.09835204050371167,0.01564696243316496,-0.21846614311378246,-0.10737037557258938,0.20222690958310308,0.04481094909235337,-0.1230662946167641,-0.29079149545934646,-0.3613252102770708,-0.12505607542063724,0.16276705212337048,-0.17483639070060644,-0.09895452189746126,0.019227323077101705,-0.02240727040055206,0.07861891441048184,-0.01114531436133974,-0.006720284777252095,-0.1555131471328173,0.06555003190393016,0.10765779564228771,-0.01667659255981899,-0.08013007881010804,-0.19615294945981346,0.09852407944607525,0.15523984793719783,-0.28112480028389075,-0.33425412216341166,0.006679635568027015,0.09978701093459696,-0.03671748180184869,0.24635639984488078,0.23015141987020854,-0.04882495397688306,-0.142239824902002,-0.12320826609997555,0.03477003925198554,0.021286776823908712,-0.017624457990617643,0.33892770590654914,0.13498014984919823,-0.3373146530872925,-0.3340436490703144,-0.1362927943502166,0.08452395207914157,0.14434658445720755,0.09270001757004794,0.04670940977138046,0.05531165201544353,0.11700772516822333,0.15983523363324095,0.051636798334163375,0.004998606352929183,-0.1282390409711901,-0.07101622510956708,-0.05241170452985624,-0.08344168376335923,-0.38562101521445497,-0.1897019108150623,0.2936235923430374,0.22803637552306016,0.054268080719699435,0.1305850724556271,0.028713437582182637,-0.20221273523208014,-0.13463274413384377,0.0416847888388502,0.09854848638372757,0.10884809752276688,0.15738894110163795,0.08356008492962778,-0.078895683323815,-0.1634032257313077,-0.043947862259564534,0.23459432218063872,0.2996025185886509,0.09015160803187963,0.015339043228209946,0.10537887199184162,0.15461632692394756,-0.019366513543271766,-0.03222740356695103,-0.03882864280569535,-0.22547518502911026,-0.07164660617727665,-0.15079070039928744,0.05744355466145393,-0.15507171831283098,-0.106497048139306,-0.16871030617939836,0.021957572335527586,-0.038294682053108584,0.08256744839098717,0.05787827594444557,0.14028549728712444,0.09582831253562918,0.34754529814125623,0.2738267250430658,0.12169405345394385,-0.0069575832352454505,-0.2572290962638987,-0.09503097693708931,-0.1868467375138717,-0.2749882090890798,-0.24107714663457683,-0.20936084084514714,-0.23670815704605572,-0.08664874801601623,-0.027592535786039266,-0.046347922801458316,0.10361613995885076,0.1280781663683084,0.20954150510925823,0.23539994055700866,0.12686559096261696,-0.10959066906213402,-0.04631346590056215,-0.14743291072897008,-0.08232542654212652,0.18233503134970935,0.18019448421396703,-0.14895315862699793,-0.1246267843019415,-0.32530043152414895,-0.17539095294224155,-0.03715605244488077,0.08483885767384046,0.06409817478443047,0.2959932036792113,0.15446661117139887,-0.14531153057939464,-0.2671650691168952,-0.1743679885965377,-0.25503149243055545,-0.3193384065704152,-0.22759873172338355,-0.11114575955706894,0.1100255272154548,-0.035696106577484524,-0.032716850372643,-0.09036265028827957,-0.09687062764545087,0.0022989503685927762,0.1442569489478431,0.2591951703282294,0.314422375181748,0.3460556187451189,0.18223543182694643,-0.1897461998855486,-0.3559754891562219,-0.4119505367295972,-0.5312022212784678,-0.6873921522197315,-0.4006185422096719,-0.029022734990694278,0.0694536380234086,-0.08546475516798589,-0.1103213641038405,0.08889128483092254,0.13928454696006703,0.21052871150902389,0.44981178129540805,0.6679927539146134,0.4218356997744502,0.013946322548246275,0.18193089616492755,0.1859498733310936,-0.41664200672552615,-0.7566225208896512,-0.7774896607781505,-0.25651607683820304,-0.11405272271752638,-0.14744659176378272,-0.09475506681284784,0.18454879363607155,0.1477982123615855,0.30167311336135727,0.23092914808527212,0.39671554501914563,0.4308192238470595,0.45942329949395494,0.5456624970833228,0.22963833941321146,0.112486138926123,-0.24705875227481386,-0.714077899890632,-0.4524816272365953,-0.30372744809373636,-0.08690914485197816,-0.07182230235336828,0.14230396744662244,0.2449802230897546,0.16607266423542968,0.24642189291840533,0.1847293395715821,-0.19744511771980094,0.25600087133700555,0.03487198458814473,0.11211146828489536,0.3203522843112217,-0.1015020789029596,-0.4432349856042663,-0.49608733748712314,-0.34674478143264725,-0.0977865566647904,-0.06335156694417299,0.14976049069259817,0.12715584569542193,0.08645660473146724,0.028025648825295287,-0.4123222807865121,-0.10713678223535326,0.019011535189956394,-0.1131115605171635,0.07915754110659179,-0.07986681030269425,-0.3958285290412575,-0.4438772420975096,-0.6218941280089808,-0.4189545401593066,-0.26710891630198014,-0.05179834944959054,0.06562021721778738,-0.01232255274960155,-0.08459449577506008,-0.15948709593674024,-0.04559406989337083,0.11715692188821149,-0.1358731131713492,-0.05670948037065873,-0.35168321766638294,-0.4156055273075131,-0.34055466411532,-0.5270652562778712,-0.4517285946336103,-0.6623887604349935,-0.07474951114988623,-0.18575553752111348,-0.06426614935387917,0.06672238926840206,0.06008964698986523,-0.009929055275845887,-0.03998917239315981,-0.2652920571581716,-0.36120645148408087,-0.3865758086372901,-0.27675026347971404,-0.018630988864268325,-0.041729989744317776,-0.09863673474443632,-0.80200435513904,-0.34275413632738033,-0.08718069608156431,-0.09872601542469468,0.049558707334361324,0.17449720490496268,0.054902773584323224,-0.07346118155033461,-0.050566220995377824,-0.2610464882699916,-0.35885397802994146,-0.19688013683027458,0.053753079763307975,0.1950052324056612,0.28700131882084384,-0.34111516786108526,-0.44209967291049396,-0.11640725064811991,-0.02581565529921526,-0.07857281615398938,0.03979818972149619,0.1442318349098288,0.027415315986884507,0.12535648362019058,0.15218252803892948,0.06082911290016233,-0.17026681228994783,-0.006573179005416873,-0.05533578320448358,-0.1358910352952484,-0.09815768396709475,-0.39556548018662874,-0.05063548346139665,0.17860493289158022,-0.08599887294016716,-0.10915654568007338,0.10789301251938012,-0.018003101846464933,-0.18953933459523428,0.08332412516203193,0.16107014113632281,0.13371969589486662,0.19053655192702118,0.07865877898930641,-0.12470170863612617,-0.08242824122514233,-0.46540761150833454,0.019106423948384334,0.4192444573702761,-0.11090658300515305,-0.17375486309609098,0.037014426749388284,0.11236298496169642,-0.09685118596502819,0.0876702173486209,-0.03392329923405602,-0.1972805301473003,0.042140059489749956,0.09795407262347551,0.06110983378517875,0.2323406582777321,-0.29299340435884746,-0.04462517161914548,0.45810981204729073,-0.15176323112394247,-0.26416130425699125,0.13891152106168583,0.07853912651468845,-0.07705453697815065,0.15209946449838208,0.2334353682090927,-0.07116673386470034,-0.0625799499829709,0.035494400750107735,0.048445567950182136,0.204457494953183,-0.030376558664534554,0.03256396941737188,0.28024509930642555,-0.17836844834825658,-0.22543259575268035,0.07958979215205621,0.09715153878807235,0.1380362653301418,0.1185428053846405,0.00880143810241809,0.1328644117516566,-0.12546214456203217,0.09894487549264587,-0.09000940582501124,-0.09183114359249635,-0.10655950233022644,-0.02843307143147092,-0.18613533139049204,0.04227282706880902,-0.22968225946502857,0.08808220896460765,-0.14917826740628987,0.061363420727659525,-0.005577777490810286,0.13503878239463704,-0.009233180949204297,0.2126338179993797,-0.14076660167929042,0.24243214545324748,-0.17436040927723076,-0.050952895012445404,-0.08506069446520603,-0.11881191052772663,-0.22012959825423686,0.035446182646975924,-0.3521645450644435,0.12830638422094331,-0.25711593170107755,0.016026179372883153,0.008409713204302243,0.17370234153847872,-0.07890413980064999,0.42106268751110365,-0.05838070273513044,0.29875913074261706,0.07264860803924571,-0.06577840024803437,0.03522148365815595,-0.12409186148053232,-0.08694344692594504,-0.003333392678843881,-0.24003761893292463,0.032023397247490204,-0.17554444656988066,-0.06763266618301614,-0.030633474310219393,0.15372493368959844,0.009053546988968474,0.3669302364735905,-0.03892051502294173,0.10928049793049739,0.0696709834811747,-0.20296012708976655,-0.16805265018637341,-0.3406419245467999,-0.1551586484123247,-0.1657021154883298,-0.3020062054782466,-0.02327915989961762,-0.16992141621614235,-0.1150787152580757,0.044118867941068673,0.10983413698920826,0.09783652523153512,0.2918271768895794,0.0942541845596636,0.04816370754241779,0.15703605325584635,-0.21848821263699675,-0.16889691282036381,-0.28695994690889337,-0.3431373463225788,-0.25350578862189604,-0.3482336525294923,-0.12938963418973148,-0.23397158684082428,-0.1574217367353762,0.030341647698533498,0.062111476704978894,0.2056864143634455,0.27381205496054484,0.20007484863478697,0.22396557750026877,0.2029741136735001,0.1427514277211741,0.13519393992661077,-0.055197856844357664,-0.2928520912271587,-0.13016562199619403,-0.39466109049412684,-0.07208625923417002,-0.46090332447274845,-0.13022172036505364,0.017534499935776916,0.030403122221483087,0.28564284544728724,0.2781514384030493,0.20760000649922833,0.5748122297688345,0.09717858059463451,0.5589930052957017,0.37594957136664053,0.2554458273632348,-0.15514254055913962,-0.09436563118563161,-0.28756119491649873,-0.08135300592465634,-0.6465294425437441,-0.1972125572664989,0.017304088082442354,0.046393860849442296,0.18201910027199564,0.42631239196167825,0.10016856672533156,0.3964356922579291,0.0450815080629955,0.40165565641428724,0.1185607334812397,0.08485745419058277,-0.12022142414159882,-0.39858841337639384,-0.22295843488916947,-0.18141768572931843,-0.6911852864836273,-0.25083748328231575,-0.00948208826308119,0.14658808598440176,0.03778028868704761,0.353192633236424,-0.04453651897823292,-0.025348822752154367,0.02565037858966845,-0.10996386226519783,-0.12635996076744857,-0.24191651395810984,-0.3014962376355707,-0.6018852232122971,-0.34550399084103145,-0.25778770609227836,-0.7750760212705432,-0.17381425817602744,-0.09443017863068787,0.15419524125140918,-0.09065718572263222,0.1983918659709512,-0.06558739573209078,-0.47644763254106887,0.17456034323644531,-0.43584294202922325,-0.23900849301712684,-0.25759090527173106,-0.32593225259088515,-0.5474552509808123,-0.2504120401256861,-0.3334369027275003,-0.6221225826057382,-0.054579790374829934,-0.15139488674851906,0.1272914201137965,-0.03660282350323623,-0.04381652303838011,-0.04933207849305337,-0.46971978439435114,0.11021982707401798,-0.3898216618022385,-0.23017016216121286,-0.16425150998887125,-0.25578485639439735,-0.24891398937151193,-0.3093650663317613,-0.16501077165534409,-0.3708878187392244,0.015743902051364365,-0.16707489809116294,0.02163626491364304,0.105039169274937,-0.21456263715202936,0.1268410998948862,-0.30069215584581893,0.07084436758706357,-0.10531106869807465,-0.2227425696911842,0.022224701037619685,-0.0687488195451427,-0.08419716553334201,-0.2309848223487718,-0.07887601695552854,-0.05713908594822135,-0.12997659860720712,-0.11155299342334128,0.012904918743622436,0.17761679248152004,-0.20007922019439597,0.2873735452933656,-0.09635145859582209,-0.0003341983941639335,0.03880709268089886,-0.14196170385248041,-0.07139170187454476,0.06895733045799328,-0.12257853759094622,-0.3729733384205128,0.23542585368420743,-0.09095264306624258,-0.22513748921238513,0.03463588712026819,0.07807335229800406,0.037971017026720746,-0.13412677032442744,0.28086608653086176,-0.043047135017760266,-0.0010900584444934166,0.11016553679546759,-0.028960336225463033,0.05954139195506931,0.03085093116592995,-0.1526258730594117,-0.2129404406394099,0.15412201154756575,-0.10694697066798221,-0.16677591847873946,0.11430312362624777,0.097980090263719,-0.03473509789979383,-0.013964001630728086,0.1500619822288798,-0.0197940501015293,-0.04000552028371824,0.10345954308752685,0.013156554808716879,-0.024828271039970002,-0.05597948260629317,-0.06982104488379638,-0.10830082389719396,0.11354524118468988,-0.016946816166484312,-0.06735364057680797,0.16450867251946757,0.10609582836500915,-0.04647584313129412,0.010337791657374662,0.07173642226840223,0.0192421778877726,-0.027085388454389455,0.0863747877442867,0.1006714749657839,0.012200570167657555,-0.05122978903625347,0.11169033659686839,0.009309314627561483,0.004648083281888224,0.10615059204989041,0.0332523666087326,0.12640713819715216,0.036162117825369926,0.025434350968931468,0.2122348414379986,0.4005568136195651,0.635273953284349,0.7761781318939451,0.7295279325600749,0.7426617408590935,0.566600448527316,0.3850326688987949,0.056573007493176085,-0.14437099200294953,-0.2610528132817715,-0.2750412584116213,-0.21343581497783393,-0.10474875629190408,0.02624328523193601,0.0816923736430583,0.08318991944429109,-0.05465444110578748,-0.21719956626121906,-0.34592291947945325,-0.2644832753554082,-0.277964734194483,-0.16952643760593922,-0.1274449308840239,0.05470941305504612,0.08156775395077026,0.20610901834940873,0.1547727861780965,0.10448544159973791,0.001565499514956314,0.1431987901133165,0.128550585393814,0.2404225661900428,0.1361117263770524,-0.043254639388477685,-0.29821825729210816,-0.5097739157442014,-0.550273314421789,-0.5651234657973958,-0.41809908164479187,-0.2586326372290962,-0.11833665480804448,-0.16226502715371177,-0.13403950045759397,-0.09733797045044215,-0.007940203644816844,0.040333100241404844,0.1374679779871845,0.19558152857766747,0.21532934711096155,0.13976082779936497,0.042398230125298884,0.004817998909639094,0.01957829489657948,-0.16547233929314903,-0.4150060226145175,-0.6007644744172527,-0.573785582900679,-0.33358804289491933,-0.20884359437469988,-0.10804908372041076,-0.09318922964293064,0.11541954190261419,0.12021746216274071,0.1994720053813103,0.32096747312778917,0.5323806443099073,0.601091337459788,0.5028836111858578,0.31338843296673424,0.3394572953178673,0.4012784419240837,0.29972096656347114,-0.09355717617930878,-0.20443255696047535,-0.22038185757166026,-0.14266686217200225,-0.11810120073796192,0.17898608422107745,0.1994099758827246,0.24579605983791292,0.19339576127996025,0.07787022374244594,-0.13815154600682442,-0.18206727911768966,-0.13422295484489757,-0.14584543956942464,-0.21354895863932608,-0.2452306079733835,-0.20116641510908248,-0.1235869555562028,-0.098448733657416,-0.08039861916411727,-0.05032995597638671,0.09577866474352019,0.18695231832679704,0.27428927081817206,0.35419646666534804,0.32603242737369387,0.14372810960742297,0.02754880300978226,-0.109203595238783,-0.19339864752507543,-0.35592935621992705,-0.6170542490073117,-0.8620523490730919,-0.7833146058364808,-0.5155997792446267,-0.266632851566755,-0.12662197650973298,0.13878653629168844,0.04802719515708219,0.12453195479761633,0.25224674621307636,0.2893074794003638,0.17919695520406298,-0.14638966804861117,-0.22349455076666178,-0.1864795087917771,-0.11377850351081371,-0.21694942688336746,-0.4201863720446061,-0.376972134228753,-0.22659964428020057,-0.09305278358089406,-0.08903200162858503,0.15438696109770117,0.23990051317978286,0.19791140027595253,0.005459653573312278,-0.17575116945151847,-0.1691872465077321,0.12388633921671763,0.4304651060331349,0.5313157070235263,0.2648334658949055,-0.20326165959384232,-0.6352665971621849,-0.5509794280896463,-0.3875927909905862,-0.0863811790902964,-0.05665096262870957,0.01663504065541358,-0.03986123321765792,0.004147478717705244,0.1999556597967373,0.27729980642818486,0.2068917777264677,0.068317409588425,-0.01481985018216821,-0.02094412481874617,-0.08436437440480951,-0.2492869104890029,-0.3172198647749561,-0.4612774806162697,-0.2772877995049404,-0.2248404080540138,-0.09089619690481253,0.11605207444019146,0.17189338142077168,0.19425728436631,0.013322405791672891,-0.2620726832210613,-0.4588186958880866,-0.6105828755446341,-0.6003719685196821,-0.6058901789226177,-0.5591767302786139,-0.45302564067324425,-0.5036127305022503,-0.33399279518281794,-0.3717518198907545,-0.13055569413138773,-0.07847526230384932,0.03480929417104839,0.05033856025800963,0.01403047570834805,0.013921421553514845,-0.14959181936660806,-0.09687614221493773,-0.031104257427596458,0.15638262140707462,0.27373779658428354,0.2587507251862874,0.041881807986183905,-0.1476315818306819,-0.30516756999001093,-0.16218792992137784,-0.053093796887865585,0.0025905570286735035,0.022907310257046867,0.016427035067226356,-0.05616314288359523,-0.07552559430454182,-0.003613322299074436,0.09571044324045097,0.11644661536598462,0.07311808919521885,-0.10579476941310219,-0.24779329821724422,-0.3201724576132292,-0.342078638365512,-0.29529379573101416,-0.1482597961981655,0.021401272653950167,0.03104968366183139,0.06891772519105416,0.09162914668701266,-0.01995882817884735,-0.18200256293805958,-0.3068220219746809,-0.19856725674815598,-0.1115647766891666,-0.09218241971023343,-0.007901156918138679,-0.09760196023847777,-0.060410563650090274,-0.02491826311382813,0.05885386024684325,0.0838318494488105,0.01118321053747762,0.003677567061935333,0.01887189950907155,0.14704641390725956,0.23899280853975885,0.35879027391039336,0.28204770142516034,0.1079032361526861,-0.08961168613265849,-0.11841792004451752,-0.19100539559713875,-0.033786369822200485,0.13560858510474202,0.14531272609865867,0.07606260403867002,0.0272572354922889,0.12690740157480676,0.12199308249189679,-0.010633685250276775,-0.0652977487683577,-0.15283287987986294,-0.15565689534172888,0.014460578678652265,0.3047546223813875,0.5489104175836512,0.5106087006642892,0.386304177107085,0.19984266210100657,-0.02038854927025047,-0.1865892672508332,-0.2151729427192195,-0.10534201427372822,-0.04958115364729191,-0.04264901194410913
-0.013835478715588824,-0.03786666931330969,-0.1895519956126105,-0.42993684629435386,0.2361497691271789,0.6981035688425841,0.5690563097350113,0.39571998702783934,0.2881496762207542,0.3422783593917408,0.24026671068667008,0.30586356411607385,0.22808823379674995,0.3471601345975537,0.13092619268667566,0.06053455219507801,0.029468642296321772,-0.148812959911698,0.24461803768613144,0.3536672185750513,-0.10668520629099063,-0.1691510023536592,-0.0983585209292624,-0.03113297257016724,0.33181714310279786,0.4087633797375294,0.2571146244433714,0.129694412686285,0.22498236305403435,0.20005235933800908,0.19708875150964358,0.03328503289070999,0.15794696226461116,0.017387827537458104,-0.05019824362091976,0.045390106846617574,-0.09227769727023247,-1.1393977563815079,-0.5824475607759413,-0.17470167365048597,0.4380825563037075,0.7021095923164407,0.5674289601221989,0.1733780526925423,0.23522660423276923,0.15652758878324344,0.10850591681072529,-0.002120194490681168,0.17277084435358275,0.08192733351364759,-0.375818755352356,-0.978458924080427,-0.6947328857055257,-0.2906402993816844,-0.7679156486076663,0.3823579215350569,0.7884972253487066,0.6697541236780576,0.8181883553214068,0.4195955301871147,0.20992953541452047,0.19982683962936404,0.05606265286041987,0.09455850971190399,0.10284108048889486,0.021824968742178746,-0.5092038090737,-0.4821972364806072,-0.9936861508223825,-0.24993933653113384,0.14557635772193642,0.3376041822718751,0.824640172120371,0.6328398998138863,0.37803594767443754,0.45394025785161457,0.2505666124600395,0.10147768860854611,0.18554136462267914,0.19452510338677514,0.15003054118376183,-0.005830047997812181,-0.3651121207532008,-0.4802096107269364,-0.1259035583197335,-0.7544380517398215,0.31427222363233065,0.1875589296300962,0.318298534723178,0.4055459653723209,0.1158650887747569,0.1956306733788888,0.29650644855856123,0.2792043875438255,0.24632168112368746,0.20727960807960583,0.22472514563173707,0.04232594533921316,0.04660847878002223,-0.601293816186719,-0.5580743910189728,-0.6164928573955378,-0.6292476980824558,0.5089954703499914,-0.15904242495717358,-0.20283185476087653,-0.02332537024061779,0.1547424913572828,0.37864665536498227,0.12392585836477472,0.21722991874046757,0.12425706451368759,0.13659726105108175,0.14001932050435287,-0.1581791728538412,-0.07813537047456783,-1.0741884829703232,-0.6535279903843046,-0.7935111928174133,-0.4087190628023041,0.12640906182269504,-0.10842203480212587,-0.08376481197542729,-0.08382004661003328,-0.2151932668488288,0.258097105053021,0.087303182928722,-0.014735400228845553,0.1250423839534018,0.060086118716768486,-0.18162700203000628,-0.28240215270387936,-0.6065661369080635,-0.955229521251912,-0.20263845213692896,-0.4793355222285208,-0.20256158017862927,-0.11751044474954488,-0.18781100380259266,-0.23471565428841054,-0.05660605667803829,-0.11865302976885658,0.1544433425489289,-0.3394270591174486,0.1474981407652183,-0.04122746932002965,-0.030995891094564774,-0.3954713093573392,-0.3030160628396549,-0.8704588819836175,-0.0032375222310295944,0.08207247433549507,-0.684602550318032,0.49607906974149946,0.43856010319693817,-0.6196535942840997,-0.32195880995972914,0.4384488065272735,-0.3455284682181926,-0.3328747329685479,0.1288944587464938,0.11642855709557796,0.04368272691389145,-0.509007476506107,-0.048780500712893256,0.30672281797996265,-0.379012719874483,0.2428895883882172,0.2703205656125325,-0.09742343229327442,-0.17735403615782835,0.19144123670207228,-0.38576617157735005,-0.2527763637141253,-0.14937067835413306,-0.3594305278482061,0.17625015644614106,0.1385664051267848,0.13576058628513782,-0.5486348680504326,-0.15945498363841212,1.1638306404513648,0.18091504289856042,-0.26168497486697895,0.546296586929956,0.07613138420936551,-0.6828192614149039,-0.8003648019429701,0.456022498534534,-0.4271424027341805,-0.4248052573125637,-0.14906552556543207,-0.06810126916931714,0.07295088796857581,0.0767863182095205,0.16340807905219693,-0.33659749126834615,0.5969067973625609,0.7114557817327897,-0.010734240048999356,-0.5475654525585643,-0.9374671322687611,-0.862095397051831,0.04647159865694904,-0.3014778034042116,-0.11026481439394538,-0.4219445219562492,-0.134091132658172,0.19094114725117198,0.19787044347904328,-0.21855970217394205,0.38103445609156084,0.2723918793418899,-0.010254737452160368,-0.5020840224185922,-0.3187365282127522,-0.3726264125804813,-1.2372685325202049,-0.7830190496078276,0.09592019359671632,0.2207228658395949,-0.5927151037908461,-0.5308961837532873,-0.35074080830185506,0.11342060766186582,0.2872072194523426,0.16017647817279587,-0.21450105854362297,0.581018635423703,-0.31238358206442446,-0.8204696957084446,-1.762178456434231,-0.6178732071729419,-0.08187477979799034,-0.6768263032221742,-0.4682813692454501,-0.10869977915942376,-0.47334209558800056,-0.3655304121878235,-0.07547927430991071,0.23201902184047724,-0.16214651949566078,0.08095753574702556,0.058787942732400254,-0.2218871847322517,-0.679521046553216,-0.8328414725527116,-0.700695832158974,-1.3330605193781668,-0.442688681676996,-0.2031634757546609,-0.27555423391465717,-0.9385254320965597,-0.3124350805897201,-0.1486464359285129,0.318338998358025,0.09027020567681872,-0.23807196191643257,0.26927748233045834,-0.18215503263270488,-0.04305688437006685,0.4060197884346804,0.058562010767406865,0.3598198723679995,0.3103698434503329,0.32980800506795027,0.2683777438152498,0.38670186335242773,0.30141073419427383,0.43545274333437745,0.26244116855641875,0.15037453765008063,0.1370816924401501,0.10479830961463964,-0.5740167232351349,-1.0369230458701832,0.03250785834766062,0.28034362396195234,0.45906402102934984,0.7241311507057734,0.3257092716734229,0.13735367867379975,0.12340763680181588,0.19197185682333537,0.28193883241543677,0.23734436466003464,0.2311851412466363,0.14320643115251433,0.17301570372821243,-0.017130986077931985,-0.7746955510640131,-0.9825621443952631,-0.7166719486836126,-0.1126843551018776,1.2135344633826992,0.4814133725233011,0.5353711104605597,0.17319717063041215,-0.031916645370486,0.0283327514841483,0.14754434243228012,0.13968542740305795,0.21021534278014184,0.12947251350399722,0.1612707987739959,-0.0037594708661297964,-0.3119614061862936,-0.6733805537807999,-1.1449139231348484,-0.3390543783624286,-0.03476152850329456,0.7290086986542761,1.0118333198857645,0.570603171307986,0.34753409756151243,-0.039807677195567125,0.08273799953780336,0.1643823014261668,0.20152307843578712,0.1904888526116996,0.26752683395114957,0.15160039800394565,-0.08255024052970955,-0.40297384196295377,-1.2054674393600937,-1.0711693676771623,-0.4254385403972701,0.6691576420085156,0.9249449178270391,1.124073444850224,0.6748329480554003,0.26031981870630283,0.15517027115405957,0.18530915376507276,0.2541570989541233,0.013637198941592047,0.23090145164401146,0.17538558702339346,0.21909954358980357,-0.5900567700161048,-0.898580745936294,-1.07274766315258,-0.6913747874550533,-0.38043640594200506,0.8920208524283736,1.0263665671946323,0.8885787293657449,0.5975517302198761,0.19547535102292654,0.25824415285289026,0.08594300272810623,0.00011178092371717595,0.13639070121542599,0.1468218094085874,0.0717522033555137,-0.4107451047537724,-0.6933842339005413,-0.7991171502821025,-1.150955905244187,-0.5525883884926023,-0.21643513140567552,0.4647443234271341,0.8588826036534597,0.3938344812746131,0.19272339976687897,0.16321847217752714,0.19550392903003394,0.165809609847896,0.05949467150716851,0.10485405742061345,-0.21850659127525862,-0.15119274687058434,-0.6774004324094637,-0.4569736150653466,-0.879647981967078,-0.8935907644733363,-0.7424989240010346,-0.169641085552455,-0.044236093879311426,-0.016018264844198646,0.5028946948916558,0.4381561425211932,-0.007161848445640391,0.18648904203271366,0.11636054352380416,0.007728556912918583,0.22637008074224704,-0.45034233227369913,-0.3026264497075105,-0.3024520030836577,-0.6014056345574886,-0.5082246520904927,-0.7920801450804107,-0.9316379862227,-0.4685120694978081,0.10957167812746571,0.3179021162692397,-0.48797328379969157,0.11679978099088477,0.08920738807670314,0.07794314975743243,0.08337207701457006,0.23578204699614816,-0.426162421144944,-0.045546499239304726,-0.03272566534674076,0.010247327236008573,-0.21908219823299982,-0.02499267593290036,-0.012693889532628984,-1.238370829449637,-0.5230049113097958,-0.14911742791511207,-0.2949960479073425,-0.20843083659277561,0.12638926046132595,0.053459065573863526,0.12103233099472897,-0.07652196310614699,0.11371601203959976,0.08620013954678969,-0.23745798292822587,0.08209772491317406,0.6442400140253643,0.5913011173218582,-0.7985562993097127,-0.6198632455155573,0.39391786093439696,-0.5799784153687803,-0.28008595478905535,-0.1605626671163707,-0.2993289332162275,0.15721687229913187,-0.05120448210716045,-0.0823616186631736,0.4765397165740607,0.02969222212049871,-0.887016874667978,-0.0548512361753149,0.5522333807101522,-0.21600406404551362,0.07679800935882944,1.0355280307882302,-0.698557902337957,-0.3849447239982567,-0.1399745545070872,-0.20148437317768544,-0.35706382091039607,0.061270792869491435,0.2776662744931833,-0.10858535826684552,0.32797444616539106,0.11445746667891482,-0.23824705901205642,-0.6596196045173892,-0.7457644294679895,-0.39122168512368116,0.4964585151799785,-0.13943338250409437,-0.26182628313775586,-0.19578657973808986,-0.03662292524038424,-0.28140102240439124,-0.15122175393280024,0.3411551103022537,0.06971218259251068,-0.10211773099983129,0.23914297318007516,0.18063167162291727,-0.06364047560348234,-0.8584971817763626,-0.5704725304111551,-0.7652329069060465,-0.38019898502237487,0.06938130154515255,-0.39435148607055687,-0.4277685880877652,-0.629279515979112,0.020178910259393522,-0.11708391413142583,0.09364965483051017,-0.21289726942751178,0.12670174943919785,-0.1670306588218241,-0.06151031549078677,-0.472127557207527,0.1357019139765744,-0.4263944529051441,-0.920626196660784,-1.0020925956515352,-0.8426077287362239,-0.24936606615760853,-0.32624838400555517,-0.165223438619118,0.08556438160694324,-0.42639664422415663,0.07775668097986856,-0.02228863224172739,-0.17077537677753316,-0.4081136446441656,-0.3673716937646391,-0.09766163878395866,-0.5620709741088633,-0.7583032847704816,-0.8036215530677511,-0.8797256654772193,-0.6707025299260375,0.12535665509871827,-0.14986544343188724,0.20519275253794908,-0.757901783924412,-0.2119653928409872,0.033481314444604,-0.37790110052307074,0.02476268429620317,0.5236704621557772,-0.441428507814974,0.40650288510834964,0.37232440698723457,0.42243386004065075,0.2833734079153215,0.3264512650643518,0.2761826551360717,0.32078402916118437,0.409071112239749,0.14982441120455642,0.1748836224900825,0.29087328647572436,0.07878616139955774,-0.48305866702262124,0.1381415122913346,0.08143523364349838,-0.23648666408824767,-0.16337686201417398,0.5025549919852893,0.10389309504166704,0.236193900422534,0.23181438351946368,0.30768995477539723,0.18238433455566938,0.3237853619725718,0.052449456454737475,0.16882270489137155,0.20985972731260422,0.17618104616947222,-0.44679491973370833,-0.2470317357972965,-0.13810605765475914,-0.5060303850397905,-0.35341767297890464,0.2165330401840415,0.030097750867695325,0.43004978376994407,0.17411304699694918,0.5296662628724443,0.07428410965926618,0.3151241938052808,-0.052644383414119617,0.1716410412800912,0.17246965091682953,0.21212086660105833,-0.43404114768798474,-0.5025107633558404,-0.13600809608720724,-0.9401387075855838,-0.28862433318548536,0.12176880481622164,0.03564630970104664,0.6646761082035837,0.42930971284876535,0.6909154469576627,0.2742598316098475,0.33914887751378975,-0.055603607038424235,0.1861124077278899,0.16851398481967414,0.21596570148769167,-0.39317849587681425,-0.2546087386263486,-0.28625081419179926,-0.9479807936160441,-0.11382821705050641,0.0025401376896155995,0.048339222397876046,0.6999560766569041,0.55847413591065,0.693954956245403,0.4298180647548053,0.3312846298616659,0.06022643018456085,0.14820711167376,0.16072406615784549,0.2558878292777911,-0.383980993749849,0.0462910248813414,-0.36546886784117705,-0.7773562812949902,-0.20501961702955707,-0.2765517782840959,0.018537649909120674,0.24233192993972988,0.521246961866112,0.51873680930532,0.40743625682844076,0.4870428759181685,0.08548053768253,0.13371292441597443,0.1778475533958305,0.24345935101081226,-0.3416270245713527,0.12826964075180702,-0.41283223404673636,-0.7564899346398135,-0.22085326223948934,-0.7933136729131834,-0.28767432508400087,-0.17964077069434492,0.20914443863609133,0.22231690260305767,0.11955668214302083,0.5080134572127332,0.1619503394959877,0.014712426991149247,0.22161304326948855,0.2550539663905869,-0.3708407357293611,0.13971952219513017,-0.4673989138728142,-0.6869503591759081,-0.1670406563964608,-1.1021773977944442,-0.3151729896300601,-0.5507002044897126,-0.09540915130794819,-0.16383219289582698,-0.10830202517122868,0.523606086041358,-0.19341981737623415,0.17675525912131682,0.13777120401387732,0.2275742428352752,-0.3346976627805114,0.22237055664868718,-0.6073426049070295,-0.19873151508585465,-0.35985155190084805,-0.777799579188035,-0.3508288713156367,-0.6494242020870596,-0.02135978930095952,-0.5809906032024886,-0.20412914632755758,0.16360473626440908,-0.33937625084607703,0.1322155085237042,0.05492058915219372,0.16879285346569053,-0.27948875454926825,0.3258221781661566,-0.8505672466918722,0.4432594042041143,-0.2918386734986698,-0.598849676221383,0.2155061232359033,-0.23201457057109853,-0.21370193827330944,-0.5389435361814914,0.2914825328072523,-0.45032921572197415,-0.6046700000723342,0.2893881010506625,-0.1760067302178751,0.12168193311871146,-0.20033183555886683,0.31650991790140415,-0.5255462646621651,0.33505802113995503,0.09421428629371377,-0.35928115714374353,0.5796109730917495,-0.05964654151018579,-0.23890485785273596,0.027644111512319436,0.0756317182122738,-0.5681449098455801,-0.46528601486323573,0.15439825181394978,-0.2033187352335454,-0.002727120830768642,-0.029838240323024512,0.07219921989957244,0.17744077999013042,-0.35069216801129766,0.394668397070431,-0.10049866485092072,0.3809403207226755,-0.022764645490434464,-0.24804791510002983,0.19795708404876902,0.031228724513259695,-0.5504228063282509,-0.42214798203151405,0.14803955282384784,-0.2411092884935088,0.06009086291675458,-0.07007307862868,-0.011437637409135993,0.7792455251330093,-0.7471087768913418,0.19608617557412847,0.0755795711201353,-0.18360889313982837,-0.5978315034265872,-0.19378069096535083,-0.05220356713130699,-0.541903674797395,-0.09132778968651048,-0.4365160554475386,0.17802356083849266,-0.26205799976170724,0.0706099880875518,-0.15370057261665385,0.22754793523434433,0.6853743233605254,-0.624985339173173,-0.3126396164251675,0.3793196907714846,-0.8797556901828999,-0.9132610292569355,0.09377211945812029,-0.7687867360611337,-0.4168158950691297,-0.2109429307738727,-0.36576986385445726,0.08143290099731533,-0.4506021462477634,0.21532631435464306,-0.4218114330720787,0.46118131405674617,0.3011628509534171,-0.5192951659696889,-0.6561643761609168,0.3142400130777234,-1.0252119021886672,-1.2120894859112454,0.12702750576995295,-0.9567222966894757,-0.5101591064887532,-0.3788455179226174,-0.12541081481663882,-0.10093460024683404,-0.3899812938253524,0.16472484155410705,-0.5687536485399813,0.4721208660249816,-0.15209608938540534,-0.5999131559150198,-0.8308514931271376,0.22124594353517904,-1.1236836826956382,-1.2323762593299865,0.21608529653907535,-0.8587366250157707,-0.5527150532783349,-0.30157524465162466,0.0047783011545283706,-0.25228917482232716,-0.2152328942934005,0.0290394026224507,0.07425140346997286,-0.28301579605581323,-0.35855775427040043,-0.29714874501064414,0.09391128785696688,0.18077245061770628,0.107424163158733,0.13610923372135791,0.17980058113728098,0.22350532179095567,0.2110791076615469,0.3583344482750108,0.31242317562173966,0.22792682798841074,0.08169875894047049,0.1228178486719448,-0.07055009318914851,-0.43738547857522875,-0.6737462270566918,-0.655437941027582,-0.35569603622700907,0.0953687104823571,0.49826095475661497,0.7511585648325463,0.6063085120067943,0.41443335527394926,0.27295922819079105,0.2618808348110542,0.28229021782935143,0.20258348105067506,0.12831854993651534,0.15299700547545544,-0.05005351717091799,-0.1678945063921507,-0.16462611732556592,-0.14711204766325708,0.18370344049716977,0.2915223277655889,0.6508535572371641,0.6336382018728983,0.5777735565129004,0.37777207474678376,0.2237967431402086,0.2085310924363542,0.20914857698895445,0.16345042051588612,0.10602653275190468,0.1386289419138272,0.05613788956327535,-0.2851845936877413,-0.5139456151199113,-0.4094408412218786,-0.3688038408418863,-0.05611317788075619,0.1720353146961525,0.6178963124717055,0.6087555484167144,0.4208211469110878,0.24725541667303425,0.16371050927497754,0.1639741207918027,0.19494994136209165,0.12017789574452933,0.17231375261040136,0.1141610022958538,-0.10114445311540446,-0.709755560885023,-1.0656039335886338,-1.0358738842219077,-0.4501606162418198,0.09435391034089148,0.4508070032975466,0.37504525573260905,0.3391023343525662,0.17471552239525093,0.20643058201101036,0.2160869918372941,0.16362825577628048,0.09863777012429491,0.15098785925448516,0.034787474826896224,-0.24911130389295155,-0.4147044610891697,-0.7228882824549924,-0.503047577563222,-0.5070080869526428,0.10877915668306007,0.38622507462235295,0.6561683332720534,0.5548391011248103,0.3738044984664701,0.3278171752686511,0.23704231635680756,0.1686738531347942,0.07983281252371605,0.16196837525723648,0.14589386222024844,-0.1839397417461077,-0.5108791340355903,-0.7938180383891739,-0.766201026035951,-0.3636131061483987,-0.07156594472126081,0.1596015309964557,0.11922458245886217,0.23283239020076069,0.2108075799025715,0.04387877066302896,0.04420571762913602,0.11799127539522686,0.14466727129431606,0.12050493419986923,0.02306850924715733,0.06697003604022972,-0.3458108919048259,-0.4874284242114747,-0.7415466104716222,-0.6282524699809465,-0.3508512385564068,-0.1233256578843577,0.035167454803902244,-0.1506703108894437,-0.24677162255603005,0.0823168024675495,0.20760946786931692,0.2364810268758698,0.0003610652179049361,0.15216800552022383,0.1628239695768374,0.08504619962692131,-0.145793635201022,-0.3137293558061694,-0.2809688150025525,-0.2756810826332852,-0.18308013058343667,-0.42899769871103427,-0.251811938510855,0.004008387403754248,0.3360575011059572,0.1163999661772659,-0.10597599105612851,-0.3339789272230093,-0.12543887149749045,0.05105125500617882,0.0018866816858586232,-0.10089725717342785,-0.3803646699114332,-0.5558988399068706,-0.3637004331741446,-0.19947812912906618,0.0376005978064106,0.372171615658132,0.40613466622760647,0.0024714589945147728,-0.48912576793008045,-0.2814381437630923,-0.016685576967934657,0.06592735492593649,-0.12183470521081828,0.12722246319992797,0.04515608482360138,0.001470194752420552,-0.05764155124707617,-0.06944092189204276,-0.26492700681074405,-0.2868340826249713,-0.18382638866005813,-0.5882047845959524,-0.9216810186189696,-0.6459954734608478,-0.14523078103898715,0.16135932113325874,-0.1607790265711855,-0.167294781982349,-0.10020243454237024,0.13692054374134688,0.1499109125555933,0.01701516332511694,-0.005498207703951536,0.005736751932020538,0.018256160427966232,-0.12627085292195322,-0.14838087393233995,-0.061606407771765896,0.21359383228891055,-0.22599471919836023,-0.31711166031724314,-0.5337235148878021,-0.28802246930036596,-0.4258880388095953,-0.31923050470346837,0.07889181821482541,0.10887702026893421,0.1424880806693693,0.06415134648913234,0.13906309012508283,0.27450971093052684,0.09692090308888876,-0.2460948753951551,-0.5107587287831066,-0.6208920425631251,-0.36133563716621414,-0.31629752165072794,0.012267042961810555,-0.17471490858509325,-0.07455360135802411,-0.15307273893897758,0.1968083724218496,-0.004096533464382573,-0.16026723737626244,-0.017843088134544726,0.04129220554162719,-0.4431139978677285,-0.4735419009888673,-0.1908082086372786,0.017159687156936596,-0.07440205088867725,-0.1829707824499253,0.033936340147343834,-0.4020344163704246,-0.7061468937723102,-0.6961329468593547,-0.32660632283606283,0.11390371396475245,0.07956303891399148,-0.09118209470233547,-0.03262574663807508,-0.12403618140745754,-0.17582506683772714,-0.7355493067402707,-0.8004828153409275,-0.8531693675234571,-0.8273743466624067,-0.9077834867278776,-0.6284109424193365,-0.1896205040759665,0.1917882569745624,0.2125021695648088,0.17090528240306846,0.1125638219972614,0.05614280119653304,-0.03179561526788094,-0.10655339892588984,-0.007068587624139775,-0.27401465508297823,-0.49081647512260596,-0.9971042817173085,-1.1141778472687038,-0.790699519657328,-0.11479450961842307,0.09562837343004423,-0.052326753715270534,-0.49897463621039323,-0.32037354450527294,-0.23268887705914823
-0.34641366766441745,-0.9570571962341097,0.11859097598655925,-0.2493266587773355,0.11945583482925066,0.07526037638368341,-0.24763603258383854,-0.17178595893207022,-0.1333839794195038,-0.2360160623653069,-0.2081260065507689,-0.16010660351930428,-0.40070627553724825,-0.23218677674022395,-0.14934460380829154,-0.6329186620119629,-0.024055577995436395,-0.6143897179650333,-0.2632066539027893,0.36912403127509447,0.13251142774138847,0.0835972948719778,-0.09639559975938626,-0.1116319395558902,0.05780377341630507,0.3272725774233765,0.14925256133468698,-0.25730728959894694,-0.09366554904625622,-0.5236785883774705,-0.13677409701644533,-0.027357650867182587,-0.40364828762871546,-0.3381251872221049,0.07010416259721136,0.7042244654517463,0.4113713083062801,0.1376687566608652,-0.1329046991827432,-0.1877852572034787,0.34471632223805504,0.03307778202045511,0.270539411331058,0.25196532397119964,-0.08512053399638723,-0.07280952413988308,-0.17315237359173574,-0.23866822645499902,-0.3635345411544503,-0.11397408322430216,0.3626212003104098,1.2069845871061353,0.24121250203234154,-0.211919174943523,0.15088611179151357,-0.03281265643883193,-0.06714061243034826,-0.3973761734691899,-0.6047058379916647,-0.25056346573784155,0.07569703932001685,-0.3530980790309585,-0.2019748317198021,-0.10818084322700346,-0.3635015483202004,0.2925013845265908,0.931070432826431,0.3904547632125059,0.0405464798964139,-0.6225606042559811,-0.8618691914919946,-0.3225029401821142,-0.787136303386656,-0.13599119393191847,-0.5973893224302469,-0.20321911357491595,-0.20943707447961837,-0.017209852612190303,-0.1680876497583134,-0.1369069366630984,-0.2805579209467892,0.5089738334175862,0.9940128498188741,-0.12725046727570816,-1.1804907985758717,-1.2371744428761728,-0.7727061465026299,-0.7405612066678512,-0.29468162272374965,-0.5389472028486633,0.4882760403777652,0.5559787788091026,0.2784238582871362,0.12160435652961031,0.1393627538152029,-0.12647137403173747,-0.3318727903945342,0.3252099550528051,0.1128253932897373,-0.21631046009675403,-1.6784804950746675,-0.7910469806750426,-0.006198379082157802,0.45179358860602226,0.6533695109126009,0.7718287840722922,0.617158589640679,0.42445104488729585,0.5702107885956045,0.17111169712527438,0.18168662568060398,-0.017506048857721064,0.042223179807861486,0.04303573488485686,-0.6310810210270237,-1.2754461365636658,-0.6015531064898044,0.10757330063833957,1.648724793974957,1.2504580477363763,0.8162633425825994,1.2381287181457712,1.15424699877937,0.3878952229351413,-0.03184627217787313,0.33632950301906006,-0.026720889593796912,-0.1355606065861474,-0.15565030374471353,-0.09691418204631826,-0.47324894934043826,-1.3354848227013885,0.7360013925751013,1.479135248910061,1.0047146359667884,0.6792596722573713,0.7453122776523696,0.7534910664437515,0.6008710918103667,0.05449455562336477,0.2290984158673611,0.34938162309012166,-0.0038107349286639973,-0.2362379614235377,-0.059910098846031636,-0.5834052154203434,-0.43698940342855863,-0.2558136176733233,0.2647339147043105,1.038238463507598,0.854907132897811,0.1716264494988036,0.25344561389611286,-0.266517678494768,-0.5113163624580275,0.004422745517167776,0.29005212753342113,0.14310969590655565,0.1950781886959242,-0.15698973708007408,-0.3195240043160756,-0.5516331836371412,-0.43136702341738437,0.04551157195377258,0.41286182811730343,0.06808886937580058,-0.47857604037636176,0.18660641583118706,-0.5117397573836912,-0.6532122826718765,-0.27070067606131326,-0.3283704856625794,-0.20208184563942996,-0.177919999546391,-0.06637481100781567,0.04542306256750783,-0.4977474571386034,-0.4894597232898072,-0.540948401706714,0.5298348951251755,0.056811983765321074,-0.12071215750395205,-0.531516451179438,-1.0783319073138942,-0.7038393269018232,-0.3895869936453722,-0.263773379424729,0.12222899122222328,-0.45468787999044175,-0.23588605802121676,0.077283202704353,-0.028892479160457504,-0.4779186051990344,-0.21985388127845878,0.05238818781875613,0.0870158563769636,0.31088831640411907,-0.047697391306144164,-0.5706239617240448,-0.2792603717648407,-0.8016686124317451,-0.2415726984340651,-0.11874588023938093,0.06231057641658551,0.30921688230637356,0.3240052745153793,0.09965781697715759,-0.15311470659083704,-0.14035257041125163,0.1876567011706424,0.4562638988977819,0.33320068328348096,0.14540114256664835,-0.1278551948863768,0.038650983581613896,-0.0014975578566127014,0.44368143492730194,-0.29084826715387324,0.40861356742549026,-0.10995809555497975,0.8221273582680053,0.5384138981336354,0.036799323525913384,-0.31968656265701717,-0.41343347923022655,0.5592058293651192,0.7766132312518019,0.3001826780341894,0.1753863872524635,0.29001417660044126,-0.14326229672840193,0.035281704236818284,0.2385484262912474,0.47691089647533785,0.28612470663028294,0.5527511184912147,-0.5247976304531694,0.1932250246931394,-0.6111710061157258,-0.7761834614793328,0.07309047672520701,-0.020530565196338963,0.4894846034615355,0.21146456615694892,-0.22876623156601786,-0.3263116491316484,-0.06881196436551877,-0.15201756161805358,0.17401307831896,0.15318756297699795,-0.22934581763671014,-0.07601773800540045,-0.027227820552275652,-0.6092027552759579,-0.3837642065041827,-0.6148455162390021,0.05011783355140181,-0.28300606561652936,0.2459055562212149,-0.44965298759458827,-0.30268250459656176,-0.4201085802482011,-0.2305552037999305,0.2687945842632473,0.060753269237443105,-0.10411731883231323,-0.14423123275252342,-0.2544787347030208,-0.47491466578513464,-0.40686284932887085,-0.40197069447600003,-0.676726936804401,-0.5001579903757647,0.17432485849628357,0.5594380468082815,0.020087389448534068,0.029314954658554618,-0.27668262812665273,0.20355500526286932,0.13625501610773502,0.1377560736171592,0.34570913410820625,0.05176287654282431,-0.0010018051622743007,0.1121956188259582,-0.47582831808833304,-0.7585351805508859,-0.6998692390088065,-0.6781557496914091,0.5087809891521062,0.5577619618725523,0.21290447197464157,-0.018919263469134452,-0.31880365210312495,-0.20296699434144094,0.06498635726535969,0.5063694088548255,-0.015399412333432847,0.32225285632668726,0.18399733931085582,-0.14023042064575034,0.2366154852586365,-0.05689583274336527,-0.41261868906448634,-0.27566819159020245,0.16951837839105088,0.34590137705788243,0.3411191121508449,-0.33469445548828125,-0.007918670316701853,-0.5156507873849239,-0.5175079811999249,-0.6336087977814666,0.025287459138506014,0.6562835191658654,-0.052327900557353584,0.32227880876831827,0.10462278655130232,-0.03921241799825555,-0.2887746614067337,-0.2312204008374488,-0.11762184184572141,0.3565435693470499,-0.07312081552845077,0.38760191398552524,-0.343153892607709,-1.0901044080857307,-0.5529278024443437,-0.6635932544411353,0.1930992907669167,-0.5592297138846979,0.0910788372963319,-0.19820335191203298,-0.003896884237922736,0.05601223204370341,-0.2096792904836871,-0.14771198190080068,-0.25381804883995096,-0.623787981400006,-0.010885591786452263,0.2732304351766011,-0.339243784883095,0.5795941564751259,-0.21609177761795673,-0.09219816837060792,-0.6183557936247218,-0.011249923516266492,-0.2648515177425427,-0.4304646739664327,0.11315887797443291,-0.22300300501226716,-0.22683730034769167,-0.25038289205955633,-0.26358981066932213,-0.4881193406335395,0.12913363576211243,0.05004817375204325,1.133124804479555,0.08595588433130172,-0.08481359265560454,0.1839950749303966,0.403691177248566,0.28113890429444227,-0.14804797605117181,0.4702135809028327,-0.0643056529203185,-0.1699288095600888,-0.02446649292755925,-0.24038823041364155,-0.46481958569703685,-0.025595957114294535,-0.1896116354678531,0.6357855692473515,0.273151109478751,0.09193403293037503,0.8433272284816903,0.909348428283215,0.5575230613801231,0.24457905374319838,0.8969553217789282,0.5827761882827628,0.08290350736764389,0.18736581998422167,-0.03556668889105644,-0.4441948995941407,-0.47052016943106406,-0.09637084200700746,0.36487114867481485,0.23277800219397923,-0.7819914403564105,0.9022527206642249,1.3553141214572844,1.0152600086823043,0.6019637786530423,0.5546510410474005,0.7615423259420149,0.43196705301113114,0.04184388850023968,0.21623060376088454,-0.09968071603162693,-0.24644244437145305,-0.5184823335176765,-0.3037896069317576,-0.24624917897333853,-1.0607576249242803,0.1449360190438735,0.9534920739637267,-0.17707972884060985,0.29272784975290495,0.32638739341419676,0.9320513887819231,0.673679076301961,-0.04462474210266362,0.19907538215216775,0.17947945585443525,-0.2593841553372234,-0.377858222658529,-0.1900189936574105,-0.4153329721310026,-0.9008693910154085,-0.1133376060606682,0.14411815173318548,-0.9008666190060277,-0.5265713664899363,-0.5322971173258714,0.10012982190065901,0.11594507165994014,-0.6237963312107958,0.3493285370521634,0.6695848830245502,-0.06280611985924316,-0.14615156629728965,-0.10936668592964238,0.2590054524718646,-0.058106703051054094,-0.12949357877935058,-0.9484600669315342,-0.47022155798223975,-0.0563192996364194,-0.3875769936826325,-0.56385617496339,-0.8140540411684648,-1.287890402619367,-0.23408496913462468,0.28667091363038333,0.17612218273781663,0.013232660989155317,-0.15944395695192848,0.03167650720189118,0.31005802375236496,0.35773523322375267,-0.16607163807432584,0.15805564192596638,0.35986018899785255,-0.30132351653814404,-0.2968182826051202,-0.550579622789507,-0.21581360883816225,-0.09523130115777588,-0.1905203336645887,-0.656284456251021,-0.17365261442715804,-0.0779448996271687,-0.12273106390339106,0.11135025547703511,-0.02441412292353279,0.30685356106654627,0.8468003943033937,0.5308821054514579,-0.06269647819630281,0.33611553483688783,-0.12881273991753167,0.2952359324330897,0.19735377608906315,0.39824936174084125,-0.21565912047793973,0.2566355932160897,-0.40741165145590563,0.03752560925847792,-0.051011874511837155,-0.07530016789985314,0.12003232566134099,0.03873435195361896,0.16602670170253606,0.07842121976850759,0.48457544775878764,0.2594689912299433,0.15444183296725522,-0.2273987669452768,0.170459311380013,-0.11948986975249994,0.48289835012116245,-0.2571601371037058,-0.04815981844774926,-0.13674650449746528,0.013804944359265844,-0.017170043319036574,-0.31012905930583684,-0.0993461038132386,-0.09602752661113896,0.059815814501342573,-0.08270965744646966,-0.0240219390335455,0.05737394315634887,-0.0007672034858083961,-0.29082887519714606,0.015288141879130586,-0.04067129790531895,-0.02410315784141536,-0.18224532123606102,-0.2094034245509812,-0.3691216436422018,0.17845242584364213,-1.047310274715972,0.5459597334326192,-0.6811833207253433,-0.06412275999150188,0.08601351784918122,-0.38073191157025815,0.013181170771311576,-0.10977114082691687,-0.16155620917902636,-0.10017950779497153,-0.31257818405281285,-0.2010862619101912,-0.6533499536035259,-0.12102841573427889,-0.6386844454723254,0.2878312045117724,-0.7004563394098767,0.4896551721916819,-0.31607417890912326,0.14655285334116297,0.2183639003236801,-0.0896141471050362,0.01343125533823469,0.27164248104028604,-0.1590278649225223,0.25994029644261946,-0.08506178009345507,-0.11135030806824757,-0.49133101288637854,-0.0713457418321736,-0.6287767871483335,0.17783418409928523,-0.03253157406591037,-0.07001675978236299,0.22145621399188783,0.055267830748630016,0.2812327463299114,0.073375109991033,-0.09014641736049996,0.21923649032400383,0.026020556594171643,0.3820660778724161,-0.0707258251229034,0.3073123105402751,-0.3105412869391321,-0.07728344623392262,-0.2507246639211229,0.20048992809427887,0.34552219043621746,-0.20180658787739347,0.15538627128464239,0.3519422895024471,0.1262468134966513,-0.34358413153528716,-0.16888399895315687,-0.3604629654886535,0.005064196635021799,-0.15078540771561383,-0.10976847322565043,0.10507647329347576,-0.10752443674872973,-0.22128250762636795,-0.16693939430105809,0.32191372016556863,0.3416430325260038,-0.34295057159753284,0.07664225627033232,0.32448196857444295,-0.4122368233967469,-0.48529567820737346,-0.5531367353811372,-0.7342576555054021,-0.1929355088639181,-0.37478624944930294,-0.3541945912884605,0.10299514505629197,-0.05976008999872648,-0.3224309837758387,-0.04940840031268561,0.2179109580660886,0.14467191358496348,-0.6392910507267661,0.010697254219237874,0.03456045115766848,-0.5149683904953716,-0.5078804302828759,-0.45928304416901433,-0.3161490430464098,0.07199400640513204,-0.2020122032456162,-0.25544656949914996,0.3957350521646525,0.034320199689811794,-0.372418033500254,0.08155780444260984,0.20838234453747928,-0.2201210753299107,-0.7921572886982154,0.07592006913303974,0.19550484989040934,-0.5962479445201565,0.17510761453210866,0.11647393272792286,0.5930173915192947,0.3798208428499473,0.5082488383833326,0.03387620288295718,0.6915940114369553,0.06333008273894057,-0.2885517315099389,0.12997995119998193,0.1630953586792976,-0.6287377056129487,-0.609351487544962,-0.060540040469258156,0.6432425554288034,-0.4485803905950966,0.7226383829449573,0.9329917745067648,0.9644062970073514,0.7952703719880028,0.7257324203078607,0.28147301035445704,0.7883949178261265,0.01137682459420686,-0.06309132398079792,0.019782460554751365,0.24849392354571376,-0.9580928505722064,-0.08114360359044052,-0.034450790741134274,0.7328648641094274,-0.4153387635853048,1.2232554769518476,0.8706027216124899,0.8986967394767599,0.4595398563929055,0.7216181527598697,0.47516544593729426,0.2960389837104478,0.10633933592719465,0.16330141064458578,-0.19244724732205493,0.1358918081948996,-0.9895831403934097,-0.04931221414896115,0.02552459303278626,0.036989942719210904,-0.2098421716024481,0.556506175502555,0.4355644531376002,0.246127398185716,-0.07891845272009966,0.5777924619006299,0.011627725092175127,0.1453110033114923,0.19832232150324822,0.04488148896928453,-0.20973336226877667,0.04353171167534795,-0.7171944842961305,-0.3099292267112224,0.373954009759973,-0.8335700461105149,-0.02554152383016721,-0.2004172279693396,-0.25350206302405415,-0.3972408922473779,-0.41241949854050525,-0.13455289941092494,-0.15225661331248466,-0.007617161513949124,0.12117316845657625,-0.1889941541525299,-0.059509496372678654,0.03438500027422988,-0.2840733644737044,-0.3778458544781306,0.21404862361585394,-0.609331395909412,0.039971053820226796,-0.8852522122264058,-0.16194150032752033,-0.8073503479454084,-0.518525740292622,-0.47047652902725806,-0.3650339019184944,-0.02722063514850745,0.022899144190920248,-0.38892030427714913,0.10917609482204152,0.23116696401815892,-0.10886177234464015,-0.18778951242519606,0.5113941912297386,-0.24076261520962597,0.09683694863909745,-0.34119568002199935,-0.2550475227645878,-0.22293049149250804,-0.4618841228563294,-0.2165594791618936,-0.19404156476442558,0.1923021392877207,-0.14673223208891567,-0.3179740239866134,0.07050052718620385,0.30058871070508625,-0.07336960227611178,0.23060798801966717,0.41457099655539903,0.10995412149909724,0.4655674611817687,-0.08598736032418473,0.0748102485151252,0.29498399181495094,-0.025736649218268903,0.18849561934749903,0.3327810656683348,0.1175167904737312,0.2089116795931179,-0.23127055841815428,-0.0152031232898188,0.4458301587454397,-0.42812014866471665,0.36280525159314014,0.44719864015715227,0.05513152244679677,0.35143524922333785,0.13566618827855753,-0.1346890254678376,0.5494306354378398,-0.04562683917464206,0.05987021961286817,0.28000976117797505,-0.09240275477152285,-0.07066480480940113,-0.29360843849623663,-0.293858578912165,0.31644617717200496,-0.6474190004503398,0.26560549067588274,0.10820147963548958,-0.28655999533908744,0.15810635926684988,-0.08153249819496705,-0.22640762252718816,0.14169283366517743,0.03874953836807452,-0.2909700039966292,0.2415261227893837,-0.5385399002369758,-0.14988113789810148,-0.34884802444633595,-0.4259373476947702,-0.4906923282620338,-0.3548638835218995,-0.28665681218970007,-0.11479622354576445,-0.1705372239252281,-0.17593550458127036,-0.031178023364847075,0.12977381009022843,0.12501764848168667,0.026702936483576793,0.06542183176477888,0.1638812515482396,0.4961828069976508,0.5767702372856565,0.39751367644301244,-0.061798899032674985,-0.36731374892194707,-0.29160726587376135,0.06509791992564772,0.1484286353190945,0.13723646719421823,0.09121076882731323,0.06381092677552858,0.10854760974250803,0.23316863181101238,0.16485794654990069,0.023805448324374097,-0.3295565775149903,-0.678688251419567,-0.9261278900297689,-0.9309047528056809,-0.6949017470962027,-0.2911049926935652,0.004699415071857761,0.4636080310121069,0.3663418410856937,-0.10372523339431099,-0.5730529562871923,-0.7635482583542812,-0.5197981287027494,-0.4178099439028099,-0.2565150452786913,-0.224652955225072,-0.22873675840627344,-0.06624303035842724,-0.11362560416394069,-0.03332579398123268,-0.24824885628688473,-0.23865697057211768,0.004199960908079929,0.4538386486177988,0.3718534822718275,0.1721647877229347,-0.05930926215885565,-0.05536562726168802,-0.2899417423705701,-0.6109413348064523,-0.5135095541306192,-0.30923703956411147,0.04746819740238206,0.0643851556325771,0.04775170430406918,-0.1541630105389563,-0.24008806368259397,-0.40902277034776907,0.015313444494473543,0.223905177993273,0.31619087075183017,-0.16198542728733736,-0.5535270348707695,-0.5900797731363785,-0.25364504766838525,0.6599240636910232,0.6355513662343295,0.602069289794775,0.026815220359754144,0.02476870399480569,-0.07439316308374111,-0.07175910100791577,-0.235330568172587,-0.2548657021660152,-0.05053408516296035,-0.045938093631806294,-0.35624431577510013,-0.6810690367264779,-0.21657477811419057,0.19717448558046216,0.5198158026752219,-0.03344670778259654,0.13925606639036373,0.35978947126147637,0.6033042846823728,0.40597422172752085,0.16438260128526103,0.06443457467584551,-0.1673045313711214,-0.15274870954408798,0.10812730639940027,0.5700700343324577,0.34757538787748865,0.5693264232634342,0.3316709032785755,0.38554504911964593,-0.09015400699100685,-0.0382846387497681,-0.09643401749710935,-0.26269197831314905,-0.2584430771295612,-0.1811486488177065,0.06082226307521105,0.017891167756549094,-0.08269562252775986,-0.2574092554195755,-0.33264713042382527,-0.6495000277823568,-0.7622062058338043,-0.5792234391191147,-0.08090347706480269,0.21735568670325456,0.3854188784859322,0.5459293498429613,0.5241194319823074,0.6008510012768404,0.3631898657369273,0.2746102925438522,0.045060481385019335,0.05403693557701042,-0.14872506589297305,-0.2287075351469737,-0.20610365849801515,-0.1669722197625364,-0.14494883692143404,-0.10363707168618061,0.047187837497031766,0.19547366526508655,0.41327442184715946,0.6336377145852227,0.6324942797151633,0.6125486200580427,0.5887211754224009,0.5325856196263574,0.3384325208967327,0.06007604609256422,-0.1438609090178637,-0.23451234732206144,-0.33604929117910204,-0.5690275082337034,-0.8713122960012921,-0.3434188818838596,0.46002970001567706,0.7898811872493006,0.31028234847450065,-0.37234566045037765,-0.33202863235170704,-0.06882215080763238,0.055259587254316636,0.14575526154875817,0.09723311680082034,0.040500750888465116,-0.0824981371007137,-0.28454314101974537,-0.2827436769767307,-0.24699980390640097,0.18839669520085264,0.4104022581066964,0.23678712131927596,-0.11354526952557194,-0.19696722627714752,0.31418457425814184,0.25054905589961013,-0.16610870999353247,-0.3931847850749138,-0.39061982033036435,-0.023305049172724433,0.04126440690770953,-0.12289805952682656,-0.1612851666626454,-0.07974136168543734,0.18666069102308205,0.04880451711004211,-0.08154690761415197,-0.0507649522839567,-0.021936574716675827,0.18761701213642154,-0.06060493886712073,-0.14357774973219933,0.056619541851386984,0.27753993875416116,0.5306755733112336,0.34364729624504753,0.0951679729355997,-0.09772265064721637,-0.32397352978301497,-0.21419326241574785,-0.23914726630286856,-0.022477158293272355,0.25512921025618646,0.4057890713470412,-0.001553531322734121,-0.6663056695049817,-0.5908304105990027,-0.2695098619260741,0.30956055216885,0.23560195024096797,0.11934516635559558,-0.030969126381764432,-0.08533989757965993,-0.1920797669456823,-0.09368707109806426,0.14150509000218683,0.34781425484565104,0.2976953923142651,-0.16854206092282611,-0.37041045254941424,-0.4669649007603846,-0.0026356039421582414,-0.09007414262350891,-0.10603196328646583,-0.5860306256548609,-0.25701693886943877,-0.1691107585773239,0.2401786218367635,-0.014253929339822884,-0.15815159300398152,-0.02838998860925372,0.20173795777971174,0.37319013922760713,0.01855412307045911,-0.03137749804972182,-0.07981991919608543,-0.1342667775317817,-0.5149758317645152,-0.44101561683570745,-0.47197643368587605,-0.2166451277113093,-0.6880383623811898,-0.7504149285045812,-1.0148298007501864,-0.7593094248709885,-0.6697299922998103,-0.345759108826706,-0.22951900973488765,-0.0565780252593806,0.11719626956329204,0.01992257789558333,-0.0019294044440366393,0.07361314214696851,0.34712091848036725,0.44366034376033725,0.5197277878792452,0.6076216228454523,0.9523117863596571,0.9305980998230323,0.8946048266745771,0.4122080659913071,0.07047159998522438
-0.01850412906774142,0.08398773466376629,0.1284505356108029,0.2730057064649209,0.18171056898797078,0.16761190599288167,0.2720230042809763,0.22997529244480222,0.00028145806083997217,-0.6168128712018177,-0.44367115387420425,0.12757004907923336,-0.12699712618838255,-0.26144581813020995,-0.26546751460849116,-0.13114475571109688,-0.02268717578523948,0.15724155019242037,0.1922114140429632,0.24754626534562174,0.2645375076897354,0.21862795525363632,0.21277943167192886,-0.10864190273256982,-0.39622043490422193,-0.49951142288502703,-0.24317804625443676,0.15541498800921205,-0.06281151244564485,-0.21500354294098908,-0.26581020654132426,-0.10073798326887035,0.013021435147418195,0.06565363011552658,0.19987990916720103,0.26745739746966485,0.19080736396452003,0.11003519947291257,0.002999955358450456,-0.23847504268964267,-0.5102770363327318,-0.3304819419946464,-0.08275153026410101,0.18765862864895907,-0.1040288998226411,-0.10917720050495042,-0.20288299382302188,-0.11627400932813262,0.008806065287385253,0.10528599543017936,0.18916384912112585,0.2934087155310935,0.2540521304508545,0.251589854855459,0.21373019495716628,-0.15855509133671736,-0.3174373887097043,-0.3946326012103889,0.07719635353216062,0.45639283778731005,0.009012531947406923,-0.2897138936809274,-0.14342930755566524,-0.06486876499829494,0.011617609443284002,0.18410139626289496,0.3860854632247093,0.12391767268851717,0.32243205471840963,0.3646791537193398,0.465486371222083,0.01580339996430493,-0.3416770996834661,-0.07588091537264144,0.1561409727649753,0.37846751341647966,0.2156739883198113,-0.24162535910777497,-0.22822553775022855,-0.008199003098034301,0.04721165055382973,0.24083256703659653,0.4420353586676266,0.3970399704279487,0.31123482518634615,0.4658860293372419,0.24571117134644857,0.005400110965145565,-0.48701198418312835,-0.2561111651397464,0.29751662578820015,0.325689353987174,-0.30329705937747714,-0.47698487751706936,-0.29818307542684713,-0.010277806323621262,0.1485956036377758,0.20392942213167764,0.20706824189524667,0.306618858942669,0.30796493030022604,0.20866422869655166,-0.25713378050292884,-0.5896814291040957,-0.4629492178765404,-0.32879870028248165,-0.0793030666003483,0.13048299595934212,-0.04753692256898045,-0.3048300509712901,-0.2309464165172031,-0.0301835188160872,0.16921815647786476,0.1721473700302104,-0.07147067215825953,-0.12285703103229542,0.0011232408493908519,-0.5709656507966567,-0.5098267090460423,-0.7698141821317737,-0.9644164147500827,-0.11453053781739589,0.19823759470735652,0.1472599990943078,-0.04639918885373483,0.007352268905708202,-0.002368776836116919,-0.03029457998831516,0.06023931701110204,-0.19840181700088794,-0.10923049586463747,-0.09754087650244668,-0.9431517302743114,-0.643740446802516,-0.716474645553278,0.16863336784261643,0.17581816270079587,-0.10005394891784901,0.2761386666498575,0.33002545688420576,0.07453721580364274,-0.023196259221445116,-0.14044098854323053,-0.05747689692991286,-0.15776562998499194,0.06863618608865782,-0.2886194649565736,-0.5434623787594275,-0.7100192944588777,-0.4245094763509932,0.3425059794765654,-0.00783184491370263,0.3312268271007355,0.3354468849140571,0.10537889462694884,0.20141640626677215,-0.12897193262348267,-0.1585507076349187,-0.101250102709963,-0.08444539478259867,-0.07903156767779873,-0.08211330492061016,0.04758678976333817,-0.5978957015317429,-0.6710524330596801,0.17216795708986202,0.7396879591201885,0.4420240725666554,-0.6327424209921625,-0.2035307768033938,0.23930117495346984,0.3034078097269584,0.01272946185724059,-0.16979561263979928,-0.15676110332659376,-0.037870393802549696,-0.044930898196792184,-0.1432681165172849,-0.41359197514299373,-0.0545945390979716,0.3918035809638838,0.21720834281845197,-0.540897831906259,-0.556992110618307,-0.49303923755171486,-0.3083510975970762,0.5340381534311291,0.5020987372680512,0.013272715682043053,-0.14312909987469177,-0.16561327670017797,-0.08230842696810503,0.017712390252032723,-0.20540028993994253,-0.42753882992740916,-0.22734877320421049,-0.005046437907538106,0.31723306652924227,0.08377750344134102,-1.1629255590286984,-0.36263524864140484,0.24057707498295677,0.4337237694589088,0.16437082797037053,0.08359250859242283,-0.19115186151838484,-0.14965784781364888,-0.07317118053159662,0.006120011849991666,0.05365430539045556,-0.223167251242081,-0.3852187589445644,-0.21118012452068466,-0.7256397989003489,-0.10585307034239418,-0.16325723949217627,0.20068129473636553,0.7982311992091475,0.3502402441176824,0.035643034973915,-0.11844799374676765,-0.12822876292985158,-0.05428033849134059,-0.08279869866332708,-0.021211632606264,-0.029691778643898523,0.19719897632835293,-0.24156255819638175,-0.23720774548425022,-0.2833266743966675,-0.4086215213714102,0.09450573744371918,0.27587524655433615,0.4922165475262444,0.3144046916487188,0.14061852147380927,0.10857595835477712,-0.18363342668036092,-0.20924924301681608,-0.06825163732619258,-0.0071397887807321155,-0.2128562126267418,-0.07085763887902702,0.14467997312904782,-0.0565416268334409,0.02065313976161391,-0.06038133751101243,0.17742001277240899,0.2732119221767346,0.10603886776739595,-0.24424892329829437,-0.2327962356750123,-0.6369312655915635,-0.4505487940424232,-0.3291078590184798,-0.028538949954993526,0.05574556279493805,0.14326711510438997,0.12453257451794765,0.193610901843443,0.12932343904818785,0.20169487569404942,0.003259449201163263,-0.5557436080359601,-0.2911660335430595,0.24705808298845164,0.2598626005249164,0.13347671567480165,-0.13312130927869809,-0.3467270696759285,-0.4357192017461712,-0.12602249328357387,0.03627039124732238,0.04573132135018185,0.1756575750224768,0.2800952445816056,0.17339747180357573,0.20649061559631648,-0.02572375065183505,-0.28617261574379227,-0.5013472973176724,-0.3444002701347386,0.15540918735201933,0.3361652832628168,-0.010098477561558305,-0.3234470992079422,-0.3709151581914668,-0.09591628434424822,0.03155634938741265,0.1118583146544506,0.3241683076646772,0.18648375846672754,0.16513907004715347,0.22507113034714984,0.2233324715881261,-0.11741074867951938,-0.7247035564658078,-0.532587159374705,-0.18641806651668136,0.22050666956439105,0.0419188976803931,-0.18574579457588672,-0.34748482319561086,-0.12144025104464055,0.05055139595491615,0.20035225194151093,0.26194026052607206,0.2834239753202794,0.3902733631900197,0.34365050269558317,0.30746468670796845,-0.14813649556404382,-0.45788907902588033,-0.4267740714913077,-0.0437920694000208,0.23324753031947607,0.052878828870225346,-0.13035209222676322,-0.2415011815220368,-0.11894123511300435,0.04984519372619341,0.14132726314488642,0.2406312181793813,0.42030534405354186,0.5840500396984064,0.25824148528608004,0.3882827935830374,0.10588300557132754,-0.11667082908837878,-0.14956613107100597,-0.1025299532983459,0.14538948645349,0.0522379461763632,-0.11864571403474967,-0.12377482764926559,-0.11690181492264404,0.1376133233909907,0.15141917102014946,0.07995119833532535,0.3696816578528704,0.16522497838672726,0.30613445932439015,0.3411964545775585,0.04486957839412879,-0.14368636283487146,-0.27378085898128773,-0.11975366520773899,0.0788271717284857,-0.1175246320505368,0.09840507486302451,-0.06627755455384862,-0.07781722412247812,0.08176487224145572,-0.022109488124417608,0.03610939807975311,0.02248737735642689,-0.19234504432945485,-0.14757665924875876,-0.04171724398321463,0.10688034158637506,-0.027412452175680595,-0.23447923936992485,0.07377722115798234,0.11900629484889477,0.01937243642634543,-0.2190454085421048,-0.32796496385109003,-0.037247180471269584,-0.14369813718974253,-0.14132733934097338,-0.010541835731771807,-0.08774652355746584,-0.5356221445578944,-0.5238435527457854,0.05224748801104921,-0.19482512395878482,-0.15533802114984324,0.06084566935900375,0.102364066744664,0.18644865782400477,-0.24224633289458097,-0.4838822646425354,-0.28181390664311723,-0.03420942243372918,-0.1706283662427246,-0.06172061793694971,0.008373019410727926,-0.4698611346490193,-0.4721139570226559,0.4418650035056968,-0.40014643112242204,-0.3137279292627903,-0.47578173147024944,-0.4349333134564866,0.20754125147877162,0.4203977005415062,0.13669152307177798,-0.12194175104959165,-0.17249041106732546,-0.021042214850678274,-0.04303234239783344,0.02158979084069683,-0.5964270606911898,-0.2688540858627476,0.6007490225496355,-0.1910945036658476,-0.3976174087467267,-0.3621109113237307,-0.6072643624420979,-0.11908132703645424,0.3834262035299633,0.3753102387936844,0.22301378239881406,-0.05656172660710637,-0.11659290836037353,-0.04459799757199898,0.08226828996335299,-0.39228587632853834,-0.3984951738984849,0.01629251654301952,-0.03798676831001992,-0.10587078462566367,0.0875751543842076,-0.014760503916142214,-0.06386665383629665,0.34664878173425495,-0.12890425693859586,0.15943317426145084,0.10579232619139463,-0.14649282220629242,-0.13329325632365477,-0.05387953869208926,-0.010813416301167446,-0.04994000536876195,-0.2005208619573656,-0.3512363442408922,-0.7184039173495053,-0.541425554906501,0.007657168718630243,0.18457014668521504,0.5780635150955047,0.13892454932044992,-0.038469792476650236,0.17658155040772608,-0.20873640550095401,-0.10250034880163483,-0.10734577620674177,-0.053580017762186946,0.030123891260662207,-0.027643065272834104,0.16474559340724268,-0.4200547762227653,-0.7917772882741502,-0.4094603165803717,-0.19382526389496268,-0.0017572211884107605,0.29702744066097814,-0.33663383373721584,0.2883006176350747,0.24542957302268986,0.14241565805292236,-0.13707576778530972,-0.20574178090490078,-0.04158854064377824,-0.052306357695902056,-0.04572804827388571,0.03541869311475383,-0.018868026279226915,0.3912536657181643,-0.25637171771895617,-0.5624677908733489,-0.0997445106836529,-0.2743802201487049,-0.28922359120706514,0.4298525414842355,0.4010018488533237,0.1270829692906654,-0.24024662374417435,-0.12861664762469324,-0.0857137608482736,-0.0074899939582010475,-0.15417220473760754,-0.1910070382609989,-0.15084230875533275,0.03352837089807757,0.15353392832591595,0.21352932746932074,0.021583284663631807,-0.32422961895917163,0.25097026399346023,0.2866980199321366,0.11320199512582381,-0.00662158464346742,-0.23350006533634163,-0.018134649409883484,-0.06759987080211141,0.005350204389590625,0.07804282206352707,-0.20979158072013043,-0.2650111675012965,-0.1708939021631525,-0.03251911987613987,-0.07716635572603327,-0.25592798418699575,-0.11910103066658712,-0.004063858861460369,-0.3129731587753431,0.03062621366446807,-0.1908775852968732,0.11166788606469277,-0.0534972365923674,-0.10433623669648268,0.057096613784357826,0.20816008179236647,-0.040767986943052614,0.24784691657902228,0.17276491043099945,0.18713547041787734,0.053610974615386504,-0.32774496715995516,0.13763702074776668,0.0974241077987101,-0.35053276144209466,0.08950883153538432,-0.6339270285860369,0.46984130077881076,-0.39185490814815155,-0.33888395282755146,0.04720376438379555,0.1921592995904595,0.03681527065980344,0.2135084878939407,0.261160485679607,0.19473004470110886,-0.06024027284068717,-0.5490942538848783,0.08382223326249343,0.11855434123372915,-0.5993569312938573,0.14860417863344988,-0.5338070135727827,0.47161314242641517,-0.30120384044243836,-0.3455916593190635,0.08210627301931665,0.1807583867528777,0.09831109318213246,0.13934137244014505,0.3214506953846461,0.1637784152597793,-0.052227781675998695,-0.6095699107575626,0.04159458213864006,0.12032129063344725,-0.6977363088093894,0.13682682917275604,-0.4643355966987409,0.40864607154886373,-0.18825337936317318,-0.3351674868549121,0.09861634705764759,0.18801215754742878,0.17064721138109154,0.12221050315954257,0.5091726207649478,0.19101848077415673,0.14250040394699826,-0.5352872193964077,0.13744332370134305,0.29125905754870546,-0.6460774536376614,0.16604048219293105,-0.31425426425913966,0.35487692613190114,-0.10431068199659825,-0.31697832403190185,0.13722154673997308,0.19785975681350162,0.15276771967985883,0.30587783659616563,0.4874995455227498,0.3245677540775548,0.3101763452898428,-0.384999496322623,0.3378544419284914,0.3541103757757479,-0.4855220262540405,0.21309923996267896,-0.23934587194458753,0.35892158992935397,-0.10711707146757131,-0.2946209899167016,0.2276757249951961,0.11513901439109325,0.18667237011533364,0.38047009515099506,0.2872416737032151,0.36407771825037594,0.15931977710102646,-0.3890139112483133,0.3185862008886539,0.1927093038482034,-0.5528461373571936,0.05093125186443096,-0.22907195026962218,0.25518959020342513,-0.26554495744427536,-0.24877543216851813,0.1781623339645838,0.02395219306893729,0.04060512624238152,0.2692513536206407,-0.1386340581102928,0.1719398524967382,-0.1055990172337691,-0.5341625142594097,0.10012945394665616,0.10834112911357106,-0.4938406453392611,-0.012930286805014894,-0.1981275782684656,0.2387292405425049,-0.28524555047620526,-0.21534348811082704,0.04601409914855514,-0.06072027196412314,-0.06853955205055477,-0.045869706386426144,-0.6148761152698351,0.1384389845935251,-0.6994255362028301,-0.5726155369489786,0.01531884317760916,0.016384473893363224,-0.3607190012478584,0.011904516480644561,-0.05982344129344894,0.21270290884937393,-0.268929737953085,-0.18981096868481284,-0.10466722393999546,0.027006293829744954,-0.32140804416516117,-0.27102092533963706,-0.48464783328728916,0.015380408206271992,-0.5964483201416044,-0.41773912079069264,0.04641506297921695,0.2729959361101009,-0.20905638758250367,0.15822518109746816,0.0006090007768477355,0.2865618265663899,-0.1159202808642333,-0.18702086022750314,-0.09011047005643497,-0.07764185570931606,-0.3637441724132522,-0.1352943020667485,-0.30981947284117795,0.04439789265191964,-0.3689042872396556,-0.15514981060160904,0.09030314702537338,0.41897716351488357,-0.2956462007432235,0.2043748362625775,-0.03523851705530685,0.24351415777134303,-0.09262345521086156,-0.20536180839842733,-0.04061193546259885,-0.1604054984602792,-0.44969056992357476,0.02697234205500454,0.02188083177726674,-0.1526198171802882,0.0555923893129404,-0.18559771061556912,0.306804608035484,0.3001913523841362,-0.419166642280839,0.22233453012317575,-0.13038205344850762,0.18705900781693505,-0.050624766446433545,-0.2267123648773658,0.07909035444568335,-0.3373458232856644,-0.20601047521701993,0.03405419051602663,-0.2965343256924244,-0.28291625272796556,0.032526512597142634,-0.5353644795376321,0.47570946667597885,-0.05553575259833847,-0.1835931658760954,0.21822314096957152,-0.03493701478421607,0.10649288950846342,-0.06264945064459679,-0.22290295992840845,0.03469444380701563,-0.22025356446856326,-0.10200793795225807,-0.18776392895158678,-0.11251324629853204,-0.5287173490199149,-0.05320376976597967,-0.5255594826208191,0.45414450714790056,-0.2846414143453188,0.12625911911911297,0.16196104350969112,0.025644166289189016,0.03515428032417007,-0.0028571307793879186,-0.2744810629140611,-0.0057377484480020694,-0.16722118122517185,0.16011234779769637,-0.3116479640612059,0.008515085314205693,-0.5370476017739838,0.0710284005609091,-0.1941429693157475,0.038044374998049996,-0.003586435528700333,0.3121598452460713,0.08431338717571597,0.10295660734869949,-0.026255685779597058,0.06164465504888299,-0.2790016332648533,-0.05851493062265734,-0.12774154919609806,0.05457954838604904,-0.22067090639235207,0.14347753878921057,-0.39713085500406153,0.10047640848295132,0.31370437261907064,-0.25779473759937827,0.37045643378005316,0.13170544091766628,0.16080781893062904,-0.15871558494481627,0.11057823582744751,0.016094366301633703,-0.30221452792814574,-0.02807736792731931,-0.11772205901118729,-0.06535351142181153,-0.07329201453021279,-0.0683156694772747,-0.18254284299996168,-0.009323460137511789,0.3151454185521647,-0.4774581164824012,0.29646757558674214,-0.2419526477904583,-0.05072419579695539,-0.487060119937283,0.08651433538924531,-0.2368502785208597,-0.21656275201014571,-0.003181683411835384,0.04121352489960876,0.061113086337651924,0.016398871831370197,0.022391321636564092,-0.029686761755773085,-0.1208417155239627,-0.20686002322259348,-0.3494304451546343,-0.3103756351832668,-0.18626686282848093,-0.0632002115408562,-0.23400439118943842,-0.33722407535553756,-0.37025470073588557,-0.12401338236216404,-0.00993928495907721,0.09421442067037351,0.2506263164131077,0.3392741050651891,0.34983652279019944,0.33741169684570743,0.3094314724813466,0.08984799677662961,-0.1683900670949837,-0.09892812860049459,0.14129062717843904,0.36240047037460454,-0.011182356590213325,-0.2451250756507174,-0.3262798839796493,-0.11334154717499392,0.03504351349744817,0.16290726077519682,0.23126974640942918,0.23176666905828477,0.15540741776760236,0.1434296051691169,0.19503106340893672,-0.1266756563039547,-0.4050710612325939,-0.447554482208351,-0.12321818847309264,0.12628136732681033,-0.05645212610185633,-0.18462676063505645,-0.2354115057002646,-0.0937097801822483,0.03574495503103481,0.14256194593114666,0.24795983178017603,0.33706873525295655,0.4580177487296134,0.4319062218148863,0.27328719131250945,-0.16358969801719403,-0.5336456263201107,-0.33108570445209884,0.11276285142343409,0.4089007376530822,0.0792519849333288,-0.19733658841202906,-0.2541279019776502,-0.045154398943037466,0.06497112064605717,0.18644917095194793,0.2270008504623291,0.23968275140184198,0.2185874892514928,0.3187798403399648,0.2954241756246319,0.10433869130194036,-0.14081440001900863,-0.16081959909542126,0.03205845389531194,0.20384996668719196,-0.008832359892386938,-0.14468156523902748,-0.23863326822903824,-0.09776776794237894,0.08892515189082753,0.19263347842561707,0.2873744964895215,0.17062104853833412,0.07488133758633093,-0.0059884420711504025,-0.09351592376544027,-0.45209419920705435,-0.7964415627265682,-0.6857261370350922,-0.33401723128498806,-0.21046172653547898,-0.4187856917663343,-0.4672912276979796,-0.24996067663360794,-0.04756360820969463,-0.03028875849214977,-0.04954710894579635,-0.0037397406954183337,0.04841795654848917,-0.019934665114582535,-0.11601203990471186,-0.12631171924781037,-0.07631862501831128,0.006950094234545998,0.23306144326007727,0.559286834448909,0.8267886070214754,0.5482276213790203,0.18232019034589045,-0.08429336034202065,-0.059077440459633215,0.06415111206374978,0.045831975659082216,0.010044264630352816,0.003362293594243643,-0.20264563406305747,-0.016724940632135258,-0.0962081550765785,-0.133244301250138,-0.229987112673194,-0.024003538188848553,0.2502739201108018,0.049738285570393996,-0.34439408767423546,-0.3750470774679377,-0.2182735386455056,-0.008933272947628131,-0.013646404656377053,0.11464152654407994,0.03141035277401205,-0.1597628964223949,-0.13374805052088365,-0.04160334901638356,0.3351753109663472,0.10665937920752756,-0.27613739954269767,-0.49280299480819195,-0.3553781420551499,0.004999714429032535,-0.02985772550231507,-0.17233021574346574,-0.17842744319356318,-0.07616643170538677,0.03231016174250254,-0.22448873543511136,-0.383673071984128,-0.3110026400616477,-0.30380194072741756,-0.2659970002963907,-0.6698965968591087,-0.6527257232577321,-0.4351730805744365,0.12927608059012682,0.43424143714538294,0.4034842682381501,0.05165336561268294,-0.13417722921023417,-0.11124165725059865,-0.03590447468240191,-0.11632711107201084,-0.10225743079349017,-0.25337615242578837,-0.466901308430702,-0.5492097584004725,-0.16605803436990096,0.28849949588255985,0.14998937863130563,0.022617876105943024,0.02334608160900778,0.3526486371893003,0.38522831526362905,0.12681696889206404,-0.09223728395463021,-0.16242951459517146,-0.048340122390047,0.030631590905460283,-0.014110329741432554,-0.012092621057292524,-0.07736760205758035,-0.28044460887638295,-0.7057918890393289,-0.7631769730778145,-0.542392385561642,-0.1140679783127503,0.14434477132823909,0.28214481438630984,0.23073930324715858,-0.032526279155694046,-0.22376607876262938,-0.17349500809997628,-0.04807269835786844,-0.043458578063368426,-0.1527161060676093,-0.2798603230683665,-0.29679871956875054,0.25145716006566865,0.7101543692457525,0.6980796043523044,0.1507454217446465,-0.25477384459135,-0.15900104202902574,-0.06021279030425214,0.09076468473483303,0.030704187688341576,-0.024925141763373654,-0.09617266671027898,-0.04349302495101989,0.041260887155482644,-0.10433814178477957,-0.16692177657204488,-0.2022279523543433,-0.2639440682336818,-0.34889903701693714,-0.2290216414583748,0.028769692679430133,0.38391513935608435,0.48740925476587305,0.5390341988137983,0.30971902953434144,-0.003578377926427566,-0.1984108811612286,-0.1711768339369372,-0.07674679956929026,-0.01302640647744291,-0.03727614494729639,-0.1761273197519257,-0.3784124140196554,-0.454717940558113,-0.5400149692094901,-0.4822025334996409,-0.5131671662746308,-0.26398935321274425,0.04632325947939975,0.22874024296025014,0.21140333514236265,-0.07882087970849135,-0.18567701654468208,-0.20102883017814982,-0.07970387699201044,-0.014525136728629965,0.030524415280131438,0.14307824573389757,0.2143957256580845,0.28884325937118754,0.09158476059868659,-0.17487170139293765,-0.2629749289734566,-0.39306073688376153,-0.5620943588102922,-0.8362600082146009,-0.9081760009068226,-0.6807767348143702,-0.4310783340068721,-0.1643663021519843,-0.01846049438513289
