-0.4158219758077921,0.4744127241237137,0.07739678508311565,-0.9209598839282509,0.7968583588305189,0.5291684790297624,-0.8661723792824885,-0.5954335427619288,-0.3081016714775511,0.5207568805681568,0.660305289052787,-0.61899764498148,0.2267644808843452,0.8693885777288985,0.1959965439807263,0.27885851343627577,-0.26691459894732983,0.1753207918096733,0.5337955072262115,-0.8383685360906756,0.08188111806865717,-0.1481190200414675,0.8695534946978178,0.5997213415956484,0.9021245903370936,-0.28085269371901234,-0.903916025745144,-0.5893778373938483,-0.9619504637249539,-0.42360343129745237,-0.7193649310301731,0.15065880473170368,-0.2676748046033073,0.597197257258494,0.610254201258061,-0.5636186549845565,-0.3966267172338904,0.3989041231467263,-0.6902326967644448,0.34992529995972976,-0.7146611567439933,0.6586237316811734,-0.6433452564266353,0.2511774100033155,0.8454065129205641,-0.6332001083775929,-0.8195053487796584,-0.1710882017244828,-0.6669418868639501,0.3859130182562962,-0.5923872614057446,0.8525705502782999,0.47780877541725286,0.9042920060914139,-0.33300398640369266,-0.9946425928330955,0.792395841157401,0.6529454196755891,0.5820886336902877,-0.32335855486528886,-0.9576861512334371,0.5431992584501226,-0.6797882289939745,0.34239878152147085,-0.8370816822847493,-0.29715609768968254,-0.32277967196322477,0.23720260988045383,0.8673941393760998,0.47194369413913195,-0.9810912602341992,0.029044714494102397,-0.2055374954638165,-0.3426879411935735,0.013631428484693009,-0.7412013986642969,-0.42559094385845064,0.2756586562915877,-0.2875593681156603,-0.11876226918881727,0.26035708650769696,0.07699784866231707,0.0027330203048436807,-0.18570949932146164,-0.6159760452103877,0.008813937462002208,-0.1850708274332855,-0.7350036370576016,0.521970594275907,-0.5425581091641474,0.634609131789009,0.7761352546394669,0.8428689936028919,0.2779869078588013,-0.34666250573224633,0.9167650559788232,-0.44221053675042676,0.3815193279056448,0.22776869913860232,-0.360477081752814,-0.027567571041235306,-0.8519436557077824,-0.32129082266028175,-0.9780328522083592,-0.6989491153577418,-0.1911542941962534,0.21853507674450934,0.18673498336385053,-0.7932338159980714,0.7062747272882055,0.5202895186542513,-0.417330717408785,0.9994636111758108,-0.715214565640697,0.006870167127414062,-0.5731878322123458,0.24329709029537128,-0.20692640244295024,-0.6735424064338678,0.37271763282232584,-0.6256808025764564,0.9842928180031176,-0.0839089029793092,-0.7484695670080939,-0.5700926710812944,0.5205943055672435,0.1618075971547812,0.6551787028948266,0.2068969152386786,0.10959486276891384,0.32225948546228866,-0.9687918262433557,0.2616828558661901,0.6450161014166225,-0.5028922055377811,0.791147930974879,-0.05716710469020114,-0.8622689069892102,0.6541548640443038,-0.8458211439933394,-0.6191163461400662,0.7690230362051369,0.5493968515797241,0.7603097022175864,0.9005578204958253,-0.9689880124143011,-0.5958018924340729,0.5768139241504691,0.5815030933705245,0.038968972141790514,-0.23183388152424644,0.9127132168971352,0.7881006941308628,-0.8783249519486866,-0.4882925797652964,0.9143371162019023,-0.30413191612701396,-0.836677868287937,-0.35363725879107943,-0.6076381789071157,-0.8591004547717196,-0.555191309307902,0.9901030964571118,-0.6140235197185004,-0.5898356173578558,-0.6982329586805589,0.7041378014377959,-0.3011027088954661,-0.6037948489343152,-0.9970712203348255,-0.017134147118234022,0.40522876240259786,-0.7127986011899272,0.016236270188513258,0.24989854103997833,0.2995471155031504,0.3555200467343398,0.4768032709475112,-0.17730911401075633,-0.021624818054764017,0.23939773688377675,0.08488876918107269,-0.3984428962409685,-0.9034842301879611,-0.28730725358394626,0.27287453192249767,0.6909924278868806,-0.8442145266825429,-0.461526430609966,-0.640007598864166,-0.9853287907494961,0.6604987932881299,-0.1875031687561488,0.7190421293110543,-0.5897819708737906,-0.7286345984892613,0.7453503823407372,-0.9127143032600473,0.44234381847917414,0.3086865124281235,0.8387880770865987,-0.5423834891169019,-0.4506325524346877,0.9143228327913837,-0.4051656811115274,-0.6883022079990289,-0.7888088366857529,0.3268072260531032,-0.32925911734978697,-0.7425032863818992,-0.7968224553303114,-0.19173313639551148,-0.34564260823145987,0.05381075455979256,0.11115055562250853,-0.1082257971059235,0.5666940711109909,-0.933631653191308,-0.044358473543431476,0.9881515847029532,0.8431818237973099,0.9652073244376103,0.8471441714597694,-0.15753473798762774,0.48962297300899316,-0.03453130741325827,0.18527480868095436,-0.25684098923778587,0.7552856794826457,-0.2022744147502762,0.014157328953401604,-0.7236163518126231,-0.312321269728965,0.05570854584345275,0.25397865354855265,-0.40900758005073046,-0.38406981354570147,-0.5353444940402403,-0.9049478295042539,0.5423269899956971,-0.27333059749959787,0.9574188635102621,0.3764450521932392,0.7670227140206236,0.2317252880126246,0.19119884737464599,0.7263404329227898,-0.2422698575846005,0.5528522879742932,0.502871205684589,0.7604906814902082,0.7535649435094067,0.6446275756100011,-0.5969744990416019,-0.8883505781470387,0.44900296165346254
-0.881071012852183,-0.7597917626546109,-0.8273895379010152,0.8756318043656164,0.36578075786218234,-0.87840907774808,0.011526572430788029,-0.1229010503792396,0.47794982011178133,0.9429046645897896,0.8349394254233335,0.2850956926734318,0.1297324708148484,-0.16305454403072606,0.5099530266575973,-0.27730625759164784,0.7916916551220359,0.3563056848847952,0.8275853042875494,0.29215463803772623,0.5965925689336637,-0.4623388687444294,0.4857681016426383,0.03017209610435856,-0.18497644154857373,0.3106752667087429,0.11228634875631571,0.5594227478178315,0.1272979014214619,-0.4827092498869916,0.23201373681336723,-0.14362630029151435,-0.14566024694504232,0.6840059888175907,-0.8714528019873284,0.8649095521655159,0.6172066755490679,-0.24230881055174347,0.0908629858498442,0.4793973729610195,0.5816706996373313,-0.7355326609893262,-0.5817269270012329,-0.28318882546980273,-0.1658444718618719,0.7581814762592982,0.4721265522195579,-0.7823064112570091,-0.8436846324782457,-0.40743359902681986,0.5523935656837446,0.42067559633714957,0.02989355572991803,-0.20931529466403287,-0.18733473861276773,-0.32754032300666736,0.46347867119554365,0.16636953303262914,0.2776835841793337,0.8881808196004886,0.4967843451582621,-0.9605475038619151,0.8358279572488048,-0.6329480326241819,-0.6223812094993977,0.26176041664054295,0.5986958996027907,0.7949545604318737,-0.5825993761503243,0.3916476298195066,0.11440464215699153,0.4972033487993699,0.48206300467520835,-0.6087575272404493,0.9057442457466638,-0.925540821584051,-0.9775906288675242,0.890032188036582,0.5896676264849796,0.05137750572858657,0.9508288986960862,0.5368390650681962,0.37438855852031816,0.30524976730564046,-0.6322179338296166,-0.9284972153577069,0.8638386308036992,0.1704682626018441,0.48818517364978886,-0.30960026745599944,-0.9036592743710383,0.2787228488404949,-0.5255174432042935,0.7560424686913707,-0.5073164034357862,-0.9450381931549723,0.7936066249072593,0.3850425917202167,-0.6228985152088149,0.42180447257594667,0.8552948001931358,-0.3755981613534154,0.66092643257776,-0.4328734227843172,0.07940769513971069,0.8622787465648087,0.7843093598524147,0.14762388356349287,0.002779644253600111,0.6450774475744467,0.8193121301855872,0.2854036277500551,0.009533689399780165,0.04823398235784504,0.4485181043787869,0.31814021809332416,0.7187244440737421,-0.6770269940748248,-0.6334920497224665,0.32871484734782386,-0.973653638203833,0.7828655142784076,0.11311993212058935,-0.5415711787016326,0.3731461149761637,-0.7395848531200213,-0.2672442176258487,0.2946316884096687,0.09891627584745777,0.30454634865474595,0.1353009697641656,0.6693379241745594,-0.12295104078480956,0.3146613397950402,0.7969857635472555,0.965055973282344,-0.4671625130559207,0.30439021517637577,0.2322960816730104,-0.9277297384857566,0.24627271312476218,0.3122726991780018,-0.9737740126002306,0.007758665882086291,0.35978565620213443,-0.7730875284512186,0.4193345076688584,0.885438354337551,0.5061769604373574,0.530807423965096,-0.2453728388336638,-0.011334997832208371,0.09916289093171682,0.5575437370299137,-0.733042084619342,-0.9512436207867616,-0.9181548019395025,0.564943896399045,-0.43253819197373966,0.925649035141267,-0.868180408398868,-0.8500457647198398,-0.04499965048403243,0.8203221957475471,0.49433690894203686,-0.19049686494823725,0.18633548987973292,0.13933976588717245,0.8956750102245299,-0.5609543286883976,-0.10453948873448504,0.10487499512097864,-0.6962072443528369,-0.554929438872523,0.525763471867962,-0.21970964979580998,-0.18449105104598695,-0.2077597297498026,-0.42626239703973656,-0.4809194930360774,-0.8336444200173936,0.8624920216107432,-0.22923507791590603,0.3900844105570198,0.45743979139762003,0.8482131876851235,-0.1819199946207506,-0.9843267465752927,-0.023294702036469328,-0.7908344217065706,0.060611600519963726,0.1293873457252981,-0.27271540172683717,0.3415491616555082,-0.968049491122059,0.9317990280108299,0.8015611311063913,-0.2269861856022004,0.8312585020601382,0.9932228269864936,0.9578234623253701,-0.2887128252391673,0.051794900156892476,-0.9077767713097791,0.47912856084745714,0.46109263710363346,-0.4551130029394941,-0.5451248596928961,0.5732424043230289,-0.6156655281087984,0.8709291628964817,0.9717692613999491,-0.9817149479834686,0.26722892217484095,-0.20258188897888196,0.7892203285514883,-0.5624322453922033,-0.43670025697687387,0.209821953547227,-0.7115245988876115,-0.717062325025033,0.2414400425964327,0.2164983999031893,0.10785570728782723,-0.33083901027064977,0.41347143853960633,-0.7608144018694811,0.6743498244112738,0.516389846595398,0.01882109256418807,0.6311648901551099,0.48130143947606285,-0.46566961329580003,-0.9386643486025119,0.3409329490097055,-0.13666251332162527,-0.37167893468288415,0.06299242027834318,0.5597788657570077,-0.7462692309568226,0.5595856742652863,0.2336040033841429,0.5917356326398187,-0.02285128442230655,0.8811812982324205,-0.2693976571999481,0.5665008617689553,0.9518487350656966,-0.47187095602332074,0.6771451274490983,-0.17869449977747753,-0.544162919549608,-0.38391789373992524,-0.3096774278077399,0.07429666398541723,0.8098515585930113
0.07433823784138571,0.96551634226579,0.039177224396550026,-0.8375520549470308,-0.40743677444414095,0.4595625255921916,0.017187239736002446,0.49819708000392815,0.8067924875794421,0.19994737619765846,-0.22458905063692658,0.9160690839195982,0.3861082393353221,0.23268980815708273,-0.8526526701146373,-0.3663619203361572,0.3305373421269451,-0.23449740644529404,0.9042342513198356,0.036284388105398024,0.30785601731397305,0.6472656099027672,0.037374620850003426,0.11812616813425914,0.7806935401706909,0.21255290100518587,-0.9896570413530661,-0.7960861799025778,-0.08053816824583171,0.3680433684195745,-0.5307688728161537,0.5844000664168769,0.8006503965898359,0.7372244715649743,-0.03294345188957393,-0.43818712964157447,0.07331767516666932,-0.6187891202932199,-0.5277407570511488,0.7689044516962706,-0.9751540547815121,0.10477675894156757,-0.7155947429568572,-0.9072922594162318,-0.17771471120702764,-0.938292980202222,-0.17284475174114,-0.6730159784070171,-0.48568077020366496,-0.4875486357908856,-0.5553756287353508,0.5284081732780499,-0.5194245913707651,-0.8673413788841964,0.5199594206819778,-0.257184199771608,0.310899360422084,0.3396281520570006,0.497209882689436,-0.5023709529271168,0.16577254924384954,-0.03550898477589026,0.3034197228883435,-0.5516394274442282,-0.2554089832377924,0.8900457520819487,0.9559747300814865,0.41312518655266106,-0.7361265903430205,-0.4775636534247423,0.34300968858714076,0.6846843593292031,0.7226376926242297,-0.0526260457101797,-0.12093883250232729,-0.028488231262151054,-0.2975603672897549,-0.20683711068886224,0.5290127444705501,-0.17290669419345028,0.35113819065804996,0.24563285492559617,0.5615018878665268,0.6915255398421196,-0.44993496233313746,-0.19050746905094273,-0.16807006287340043,0.02505493097862943,-0.49546741476710876,0.7104269465828355,-0.6130461765447444,0.48358168336734453,0.5927263907785807,0.9441307805628094,-0.9860048789487172,0.5415639942787851,0.058234599228843775,0.34655205620214335,0.2229272293777249,-0.6459176920803877,-0.09308017512323796,-0.6221097515545717,-0.5243710875349863,-0.05074242663830253,0.04788709728899354,0.9928381453703758,-0.037394744983754835,-0.24517630445147365,-0.23265326284993848,0.6316884855487672,0.5622489922253397,-0.23275292814947135,0.2040151874692806,0.17841885502699206,-0.39049862045107697,0.772663589762407,0.33011337188475576,-0.955742231582142,0.14574175082039198,0.9460038074282233,0.7643429107826709,-0.043895418766220606,-0.8406164702343766,-0.11114931639746928,0.3393797244384227,0.31197691836071795,-0.600475488446168,0.19681218514794607,0.29398930985612637,0.5707537591847456,-0.46893237636410534,0.45046450115738823,0.23728186926724315,-0.42156889114521556,0.10179806222170429,-0.673159397638506,0.3518058101617918,0.7965039846402482,-0.7255617112017592,0.7116946799527966,0.7883024136321402,-0.026762922762784136,0.28698370802812545,-0.12303093588114833,-0.3080787601015653,0.16895516786177134,0.06688350077203697,0.6117847722146543,0.7345734902928749,-0.5997412883344557,0.5334201758694661,-0.8593973080281196,0.6831763386158791,0.11232632078767057,-0.5055073253040856,0.6206886236455327,0.42444506164071405,0.2087216269984853,0.7226899162606171,-0.19717083809930713,-0.7582390723923069,0.544499792281788,-0.9866439434175205,-0.7536280783611706,-0.5724810199693839,0.0743792666748464,0.0561465801556742,0.549983510007956,-0.3262637010964027,0.24024391939947698,0.2997018461849721,-0.15466622008073716,-0.47898043695421566,0.32531032564161033,0.43272248079203024,-0.24569518606076257,0.2508299539432606,-0.7841692996880514,0.5244529640779723,0.8347376929777395,0.2900495450091787,0.7628693537144511,0.5368063691851697,-0.2871461985587602,-0.19149663696203523,0.06953649812736007,-0.35845871562402043,-0.011482893226403057,-0.07823655677707864,0.07298153605081081,-0.22383854334365894,-0.4596460513241687,-0.4079775882231662,0.4978512783121172,-0.6941713591115437,-0.9265688099639058,0.3514513782532689,-0.8564504819458767,0.08968535405630962,-0.7424605714626282,0.19871922579649204,-0.7017206503361613,0.2701371068153817,-0.09510885273759517,-0.03546558050361903,-0.07335214587831307,0.36031412429411636,0.41614609311877016,-0.915538780201602,-0.7861856729481793,-0.8370558681778562,-0.5753382681447514,-0.14907183935854684,-0.30295160000770927,0.5324455119330371,-0.728863654647306,0.4102425617943113,0.05909464515343377,0.9899771764537673,-0.26906143041152597,-0.9519327214200648,0.03505778636136658,-0.4400485308901787,-0.6146835934353614,-0.16204496016950198,-0.7616834634845084,0.6628195827656735,-0.6645959056974786,-0.9552565119461911,0.9972021250554699,-0.42175966881455507,0.959016213953843,0.7199825553942618,-0.9336055581504139,-0.4163945434936973,-0.07364416713377508,0.5277818100191884,-0.4057560258402717,0.18501918545294815,0.9133455797144292,0.054530654590045025,-0.8423181031944567,-0.4467045176917164,-0.9077132290143191,0.14350536599655972,-0.1563082429656466,0.7782813114228098,-0.5126253189975156,-0.7229168460741928,-0.8010326824455327,0.15342734862153162,0.7956306846554768,-0.668815580636084,0.011633953162364152,-0.5210285107192754,0.2913142976537004
-0.31812522118010045,0.11799238311716032,0.7169511741662173,0.6996568750652168,-0.8716701147236692,0.5071631100436176,0.6113557994162253,-0.7058228918578009,-0.30962291682494714,-0.21053868268197684,-0.5542681513781655,0.7874633141768814,-0.4563343684562593,-0.9043809493801145,-0.9561010746651404,-0.0026917527866254787,-0.3274426257480534,0.7834845967555513,-0.0648442890702432,-0.1778653972467128,0.11769636317354881,0.012369768409869142,0.8427098590608035,0.44292118960317306,-0.11723724990642181,0.5417523107295135,0.0036796267255756465,-0.49340392877623795,-0.5275619359655634,-0.7228749829857792,0.7103370969385681,0.36988511320476114,-0.6744064906334784,0.8609798853692723,0.6770945637116854,-0.47204898350520597,-0.6920617598840386,-0.5049369678070397,0.5789920253668976,-0.6465228577988298,0.9986321159915601,-0.7632794569285566,0.7649155576857762,-0.32713675540998066,-0.2293458214588011,-0.34727826211012314,-0.051956521926276755,-0.942279810194107,-0.7922313068863347,-0.37836328954617815,-0.22802113185975625,0.29129643904474056,0.009214535056703888,-0.2755624964234842,-0.9450118401036303,0.7576894104186125,0.11309089585032361,0.8037476673678181,0.8031254949039286,0.8333296309695819,-0.658262442504272,-0.9511423478367858,-0.9654671487665969,0.7825649438360205,0.5636649301865333,0.8996968946714801,0.4289685272671766,0.08543685725758032,0.5607613126617768,0.9994716411174862,-0.8167677533552138,-0.6796754799744396,-0.6765259959128864,0.9939599233592267,-0.49470746521049436,-0.6234577254904823,-0.364613943884454,0.6956660236151757,-0.6111612001880555,-0.9665871241576243,0.8325710307184917,0.4218471041312841,0.4816947086243404,-0.9387030303565751,0.6141134278110161,0.5504281458113032,0.040956138793444063,0.9805453109562525,0.603172526626965,0.2394929696172594,0.7153732941003106,0.15316022749648384,-0.9202937171951415,-0.805112406250545,-0.7438311414815788,-0.6654736679644091,0.43548371208207737,-0.27202463116078324,-0.4126623484794123,-0.8680778483721858,-0.5044449627343883,-0.5317649532373401,-0.8761774448208544,-0.1131491494370025,-0.25369962097938115,-0.3657868131864075,0.18880287422237352,0.5439114709077904,0.010125682063994557,-0.4189456901142108,0.8586854559448285,0.16741363095101813,0.2989570794450509,-0.05936341196404893,-0.31248071252995535,-0.3847501490589387,-0.33866290992358916,0.8281362266397565,0.7147988268495258,0.973358852450245,-0.0549019749027535,-0.5820541403191755,0.028799150777211402,0.18551952197984245,-0.901381086339895,-0.9523086115038151,0.40739320661546574,0.2271847611787834,0.7082436054256713,-0.32706030311817313,-0.7052735520028262,-0.7784166383482416,0.25067137107678916,0.021621326298371102,0.9893275450640171,0.4763704454431401,0.5876850377342624,0.6781715675263063,0.22238429161799123,-0.2171813588672793,-0.2858325860073656,-0.31543756990262617,-0.579322309274388,-0.825726926457012,-0.465917292749209,-0.047353745249107515,0.7867179759199479,0.39829448638950504,-0.2758680979065753,-0.9667237578936385,-0.561241337051656,-0.5391778017941067,-0.2604901794153691,-0.8810099305757348,0.9566398229443933,-0.7852790170635515,0.745112799873755,0.4722553564051588,-0.6147415601371191,0.29391174851926904,0.5207510872279353,-0.20037950275007788,0.7065145372773236,-0.4700004864814409,0.8757114745915764,-0.4814997180598024,0.6157024157418511,-0.436420232844263,-0.06482764154222287,0.8933727060567351,-0.11714279790063209,0.05094357545972339,-0.20696528144472204,-0.45674512902403674,0.7826290455991975,-0.8271590269505122,-0.8222511858504635,-0.43395341892861783,0.005500886825101858,0.25915881826211584,0.13164547559207374,0.3188096124932025,0.9369633115400231,-0.7755063042774295,-0.801546031420225,-0.2278817739325789,-0.5959489264633409,-0.43190141983784613,0.5521404225858173,-0.3029499282027053,-0.03862707304168911,-0.3972945247959849,0.8185442927012716,0.1395412149484776,-0.3320069673593651,-0.5245866485230903,0.5843143511513831,0.298844424326858,-0.5067932739567882,-0.15272220689659655,-0.09124366471160994,0.3403280058029503,0.4516690539532231,-0.4664627621907462,0.5095220216472989,0.7743670279140127,-0.3672356831861041,-0.48553277977785725,0.6927678495843907,0.42174119722245984,-0.44640972286496283,0.41607190200992616,0.5273850916510674,0.23288912784174998,0.6830826108631645,-0.8073173154725091,0.5271673251132756,-0.5138369956069144,0.05854735472910022,-0.5202790378705284,0.5097758474952285,0.14214350750130555,-0.6970891741380651,0.10064619196695124,-0.6162138003033943,-0.8530530784979655,0.3643793984792594,0.11092742695088553,0.925394491326025,0.5578588045427348,0.7059120579970946,0.19972664415579966,-0.8110680005942277,0.44760466232371576,0.25553213908388406,-0.6784413548977146,0.6345969336949897,-0.18875777697897678,-0.06491365286542661,0.7555365237364542,-0.2473079445275952,-0.8923989558365235,-0.12417895387294964,-0.7620973355630973,-0.264467179807488,0.8446343173723723,-0.2505547818860827,-0.4663387656590543,-0.8318865626950602,-0.18103144193369536,-0.20654799322736883,-0.7473683675559584,0.62547340734352,0.46519661843470383,-0.545845579239836,-0.5252606881993589
-0.8914994767962543,-0.33376986051551394,-0.6431186801806612,-0.5046058387348316,0.5277586218267747,-0.46989893332126487,0.07968558053513641,-0.32890981874518355,0.6218762061667009,0.86044521656671,-0.01796453483667637,-0.9998324413952682,0.11829161495303597,-0.9997082954376397,0.7518666434640005,-0.592513589904631,0.0489096897276613,0.5882834972391207,0.4031298776848715,0.14637175018706094,-0.9343054194002516,-0.009732132651683045,-0.6922384058912507,0.3970532344004807,-0.4931742135899415,0.08828636623977171,0.7642079176807459,-0.17844315423433277,0.3954131688132376,-0.8745382862633815,-0.9095139007773521,0.21615106872261092,0.09697206853488871,0.20889900702352704,-0.7895285610796987,0.436086558591273,-0.3508105253647773,0.24651009668071655,0.6230109284437779,-0.28571619851218233,-0.00022637240555667404,0.36314039080928606,-0.2228691449582345,-0.6247406287159021,-0.9470414579468505,0.09953536141529806,-0.06966498018825851,-0.8420359566726952,-0.059980754822053006,0.9336146532283607,-0.031957781102354366,0.6738057898350978,0.027733060590161562,-0.6150132970469335,0.7284790950977045,-0.5566092537178449,0.06285077270709905,0.19091214715893678,0.8517661992376255,0.48579502061656954,0.6060853354980047,-0.06508376178458186,-0.31102255624571695,0.5651145813152838,0.5958670181070198,0.8168789190198904,0.14629649540698142,-0.4081860802223862,0.773447378764738,-0.7942251239509863,0.9563793660152597,-0.08064188646537263,0.4389074334830214,0.003046473091403712,0.08805352715435188,0.3737077554552277,-0.24972383230111794,-0.48840779096564657,-0.7462066380210219,0.2523809938772872,0.554351792771288,-0.3331257320413985,-0.6487276267688393,0.25312603111423315,-0.9621610701965175,0.19726657609224318,0.4279218023113809,-0.35827555973012615,-0.3597099156778847,0.37113775588999176,0.23271130574693388,-0.2834531774249547,0.27523972695482257,0.4878730092643533,0.8522959767220335,0.6054628523651622,0.05635206188251707,0.6719459041892839,-0.678351610183419,0.0923160949603663,-0.572854761987285,-0.4631264694455728,0.20715808270532232,0.8014027244701287,0.5323899073071656,0.9366037708242267,-0.8233977751159884,0.9665976039622255,0.0391640473102024,-0.5286148976565515,-0.9596027898796384,-0.04931855374495209,-0.17401382817031763,0.1335934121881397,0.01078447242567937,-0.07351576401115723,-0.8442163610644138,-0.545742122767717,-0.8492959357407457,0.9786104213558329,-0.5420896788014471,0.6269588510313067,0.864484851269717,0.3041480200079789,-0.3163404104402585,0.23908825268931477,0.7292580737506142,-0.41582579125924135,0.5438591687886545,0.9084229077390982,0.6074545546494188,0.7376054263913829,0.21710745178166446,0.5941513197329231,-0.8617632771819326,0.6003761775031411,-0.4304720625199965,0.21698643340211654,0.9639718331738458,0.08862968601434007,0.0013603458085025277,-0.5536649683209653,0.45895012386402056,-0.2938885076670086,-0.620051563463391,-0.5347630137805217,-0.24435620292843208,-0.8444374982290259,0.9946201727648589,0.22240356536224604,0.7278454201876727,0.38174472738715615,-0.7227326626630355,0.947570753208524,0.4173025376598438,-0.8192257155882512,0.5132513142520501,-0.7370759946065166,0.5370458651736092,0.8937483263156334,-0.19820697348122285,0.4154406131080275,-0.7536813555064448,-0.3735988057758348,0.8399923397764115,-0.2085253833787939,0.07513593201410762,0.24997486747592923,0.8797037457497527,-0.5421440126497887,0.0477338449539797,-0.16587177826337562,0.9761437658356562,0.2759476750202132,0.9817554376534381,-0.07143067494168798,0.6681255716444348,0.22841040874384055,0.9115870446409253,-0.4067056124767807,-0.6096429358527471,-0.40660164819857636,0.8395379435483288,-0.6159138643526765,0.4367639702336916,-0.46995835878049896,-0.6526406358878614,-0.08147688135130982,0.8788187861747776,0.13946144530505933,0.2579053719970261,0.6423359463716727,-0.41202211196351124,-0.48910253351166144,-0.6018484411818412,-0.27692876282988976,0.9502659699540854,-0.1901884534006697,-0.6819427985615092,-0.24143005527640926,-0.8386200575802205,0.6257232975656297,-0.4127396662658509,-0.8480787227747337,0.32791989499333574,-0.656872805300128,-0.6804673625239366,0.6547971984600609,-0.6004522246495392,0.6256010151523719,0.43919659839064296,0.9008228454108775,-0.6593283429074999,0.4595745760606338,-0.39307392231000904,0.0288321873936479,0.18514850409884187,0.24564506542141595,-0.11925212845474764,0.5881984865044232,-0.849122306358844,0.947998107981368,-0.7874152914609445,0.42397457727880905,-0.4580261206161931,-0.665016526410118,-0.7339948571869257,-0.5420060118979693,-0.04630112071575332,-0.46406813388066315,-0.5609136472684948,0.46584738027618044,-0.9546970897326355,-0.5120956825123892,-0.06139657952084199,0.020143779382928217,-0.32413182570075083,-0.0026094828381462154,0.0049014346083409155,-0.3278250249764143,-0.5925132701088041,-0.22781187153012383,-0.45511078801027227,-0.7115074525978877,0.3951658140267167,-0.38448149710761625,0.33761255618637076,-0.8132851480468404,0.7085196880249913,-0.06105580786880482,0.4825688398803887,0.8995515332085648,-0.850514596589169,0.5179952942833375,0.42029072448474314,-0.9824916471730576
-0.9742531247188644,0.023849792553667815,0.9551291296764244,0.05858551065056683,-0.025009751770318944,0.48790301218442034,-0.2603746928654931,0.38443833186028553,-0.569542246611709,0.1627087613348086,-0.906032908443994,0.1233331046463988,-0.6653344602241797,0.37039017065511937,0.7014395027745564,-0.9634305154677079,0.5886694709940263,-0.6955103087947749,0.41880144808205544,-0.7072618228241521,0.6760226797425741,-0.6306645579657753,-0.062176347883717176,0.48702630792771195,0.07713640622198858,0.05857015057336468,-0.272522784570304,-0.7555860980507192,0.7417416843260869,0.2541944939927183,0.52059242554647,-0.9465985395605139,0.8058912716039186,0.2646505276619564,-0.20516282328490543,-0.8968380786498586,-0.9242661349200065,0.4896243171583965,0.8516347092848491,0.09097607173109701,-0.36414621046721085,-0.04266992979482076,-0.2054704325746859,-0.6302047871154661,0.5597916796034978,0.3630178104661608,-0.9859073066314019,-0.00011954092238042335,-0.9901963943773142,0.7736714072975417,0.5117987620316513,0.04138642263364356,-0.368542661069865,0.4251535323534854,0.29839971448951585,0.802334702769737,-0.2923514897743864,-0.07930242521111719,-0.6006144724215088,0.8495209439421816,0.9920785562936043,0.4566579070968302,-0.8730837383893726,0.2432170844843693,-0.927964532260614,0.19403254056548436,-0.7585776816721264,0.4830414946608592,-0.618847579906781,0.7171234036446628,0.7878235018345137,-0.4130609082492478,-0.5772236512904945,-0.5014117830396199,0.538797680056903,0.5029837964036907,0.056887078503947475,-0.005531505481652044,-0.05455015444950484,0.49923765700800815,0.07086788273953482,-0.7283571590829372,-0.2786396919930685,0.685663007083618,-0.5444107667645817,0.21731669183204527,-0.3188597727737088,-0.542575218796479,-0.8330262505222001,0.25341403795591577,-0.05490521578651153,0.21537471144517983,-0.5945878788917092,-0.19867067598969368,0.7240359307281019,0.015105291466139148,0.4410721216865525,0.19202588201532111,0.5496092453648738,-0.04963309363503998,0.9050721316217145,-0.1554920934425672,0.12455127178983139,0.14670266048243685,-0.22373343969822068,0.787801113962681,-0.8112301839352019,-0.27548118656252374,0.27101614585040856,0.05577881289306563,0.7548782775646619,-0.5936571461033286,-0.022245803748525583,-0.3107197251778495,0.34405180284422676,-0.10907028652970974,0.9067456486038814,0.6832634732116183,-0.0930919477337866,-0.08808720552993887,-0.6067572045045875,0.23903454397788493,-0.4940465817160715,0.2672314472756143,0.7635550605202206,-0.9536420166533575,0.6075063849674731,0.8342783079912859,0.6619676126499039,0.7835533163865784,-0.3441007897807824,-0.19329011702238286,0.8910111117001418,0.1250647324612666,0.3035804777412012,0.2884863627439125,-0.8909270463613546,-0.7431635143188642,-0.3475609687854262,-0.15565675948211277,-0.08699101911784668,-0.6315125065757461,-0.970695677877653,0.19576467429044198,0.7931582386068692,-0.5961728207917243,-0.1463044352281433,0.3569264761325255,0.5271682864159282,0.19698956212008145,-0.3271674949040817,0.9790597156845577,-0.6693467186886772,-0.4061819027047733,0.7467371419298114,-0.46805118367397225,-0.02798036809047022,-0.5951819288966109,0.5395770355688845,-0.824230616484148,0.33612540090040377,-0.16752896078382484,-0.4566604699698671,-0.3618122965012518,-0.8423288299798775,-0.7584114412463543,-0.2931162878854232,0.07437796867906954,0.24839327788190135,-0.0634927485940524,0.8647696466329808,0.005825739243390249,0.6815266020430486,-0.07951385549972678,-0.8948456970214376,0.7513511063687754,0.6543949491653129,0.39489904337989645,0.6677956487812362,0.4172519773170271,0.7668182983908183,-0.7430380877396714,0.384498037662828,0.8692619725946025,0.7947271547851873,0.7151250593841556,-0.045011003452091414,0.2899921486223358,-0.5364608294035504,0.9900877815101645,0.0046127608798813835,-0.06135520631197888,0.774110086187882,-0.8292579105534446,-0.7146359361505095,0.11940093355256809,0.3905503594461279,0.19999808533658858,0.6345597908709555,0.851260385908807,0.8468688683582333,-0.07883631016752712,-0.20428597781422098,0.1132503078676006,0.7578615221168823,-0.31607823441697236,0.8640892950255343,0.9935254860583664,0.6896743809788173,-0.5127612906017169,0.11906578013323799,-0.4760037227489009,0.7213034263199711,-0.3973639417289385,0.9266243096071751,0.6511052224871063,-0.6862900118528694,0.09450691807949285,-0.584770764055438,0.030752596936544974,-0.13659754972858718,0.8134241082320319,0.5936869715782307,0.3128948343302538,-0.01743601309372944,-0.8760360828658689,0.02891539461801429,-0.5404792042746174,-0.9069227958564603,-0.8723848248093895,0.6902291827568126,-0.2588340899114745,-0.6223690355629756,-0.7934799260458452,0.8915663131083822,0.32260689105429297,-0.5415576932013506,0.8269932963824156,-0.018104190103297668,-0.31533123018491716,0.9729181616355698,-0.08768372745621744,0.16331830322470653,0.18335463802238539,0.9846617583436639,-0.878342449909137,0.30570125677099114,-0.24782407800847817,0.9197191490901733,0.1850626388945884,-0.9740824541181774,-0.0788343560449869,-0.13466170004182154,-0.08511839087856199,0.7413216120131854,0.24787248205410672
0.9765837096448384,-0.36530342841448094,-0.6882550526569404,0.2943007227233838,-0.6420230303780721,0.8810813965170385,0.5503646275750065,0.33170331281347276,-0.9039082398452063,-0.8426165136815607,0.006467820057047602,0.6118356850671798,-0.1120155732397381,-0.22910543147683726,0.16556426061919738,-0.14789319573333315,-0.7199464861349771,-0.691122596580503,-0.4742104731277772,-0.2442576268332144,-0.4055229711234909,-0.8250289321836488,-0.33686061297283576,0.17598278336372264,-0.21882322147299194,-0.6534392481256908,-0.9351254110157259,0.09408745649410033,-0.2404115921535821,-0.7579115072817415,0.5740421228286536,0.39010409124713474,0.6189597088416916,-0.3742954118570456,-0.9063782111818204,0.45091885700666934,-0.8457998399528408,-0.0430532718422465,0.04139206766301484,0.47234441731967136,-0.12805985775952822,-0.23230069213292626,0.6616965350711421,0.029038709305046595,0.3060803801801695,-0.5403781562196273,-0.2933310646028473,0.6195555090811862,0.6075778296416867,0.043588932643434886,-0.759888572889678,-0.74685010053874,-0.4445922862132836,-0.8915841153898658,0.3236816425138409,-0.41659601580853445,0.9748515326859584,-0.8823445560702281,0.6706137098784037,-0.5834517353611235,-0.047730730417941514,0.9151599795175183,-0.07108055929328061,-0.5478903177866363,-0.3133134320849682,-0.1764807791702896,0.7100381459073637,0.018586666185353984,-0.1289917315389597,0.9809073629921108,0.06247859286323987,0.007496282117035902,0.49618659822178346,0.0886624432591332,0.12045777572011929,0.7237951918466234,-0.5438036195418534,0.28440456002168446,0.6517291347714684,0.2895290778959747,-0.573184021001242,-0.11186918947344426,-0.5906459616692206,0.8316014090484354,-0.9663261141846002,0.7505770717848539,0.28130775904325844,-0.4809356706078254,0.1661893453731076,-0.9490787825905811,-0.249941657583457,0.8953688031771423,-0.9610902445318632,0.8693774161406924,-0.5789785147740887,-0.49281768888095767,0.1475150139370296,-0.34640149830153066,-0.6404355399382811,0.4139838596975969,0.04840935002171287,0.6658184834737617,0.72264519342607,-0.9655033296363682,-0.008535005994779077,0.40548970626163516,-0.4945555457346924,-0.5248069730108644,0.6897307123545426,-0.5852227527891982,0.1766442684489431,0.2622857626237942,-0.5686873960449212,0.02105270943801174,0.8494757683616414,0.2737534405287261,0.8652469381230525,-0.6098122772208032,-0.11946435455181081,-0.07169906434271645,0.949506876594495,0.4761237706947814,-0.7371172141043054,0.6839123210695477,0.3743351966333237,0.18235195502332502,0.582655102919357,0.7665233818107096,-0.6813140692302313,0.9123913902456453,-0.05524096188514083,0.09222773754025537,-0.7745991280678202,-0.30547840179254404,0.5229156544787306,-0.022692333948910903,0.09211263578631557,-0.006633838314610285,-0.7242075122238862,-0.9439362144644712,-0.27807748197377946,-0.14573939934812885,-0.2002982521985157,-0.610662815011114,0.11180225458344784,-0.9024114981580649,-0.5893516678082167,0.1989614671690736,0.532713195968123,0.6886036347431064,0.9617001895215471,0.7111730329873875,0.6878537524524735,0.5906642050303936,0.0030337126926414104,-0.2473323700165666,-0.043642583989315975,-0.039991216004168884,-0.6065824506190001,0.819362482827221,0.6696797143649071,-0.9249727316922156,-0.28761021380419893,-0.17562810176341426,-0.04926397403931504,-0.6742425573013637,0.6829538023899977,0.5971387713139589,0.1407072737143107,0.27862201874360726,-0.42550393910816275,0.05445847347378474,-0.04960212712151768,0.6421375706476022,0.632118317324593,-0.9791068665077689,0.15323863397064974,0.18829381461313321,-0.5036977854904232,0.46650859898052555,0.4785018434754158,0.2260270535261819,-0.7767578620082454,0.6745878690281919,0.3566408734022284,-0.9386806556922656,0.32299812339918965,0.04906806682252918,-0.8070507604895765,0.5211883896541949,0.3545073283337825,0.6144548004430148,-0.884142697665919,-0.6365334119550938,0.020820387211478053,0.23769206431789014,0.021862989313742975,0.886739688940803,0.9180893689276366,0.8254633052843443,-0.7746979743236935,-0.8747294815917921,0.029396557508075682,-0.4328331936083092,0.5618711316617173,0.4340549926580217,-0.7762941896145117,0.2955142754153115,0.9350551990495388,-0.9733668254017245,0.4614728272319568,0.6272634103275756,0.9548094444607713,0.43497736867366754,-0.6099470438178001,-0.4652368473129318,-0.7091976944284508,-0.8318033559375642,-0.21704045932001348,-0.06023721573570029,-0.37715603871329906,-0.5272309825614789,-0.8508104019450993,0.6496713621254069,0.6637883806009663,-0.2433000783480832,0.47178708269889125,-0.5552249053588167,-0.7292206187910917,-0.6738704050948929,0.8556413673097525,-0.5696016137631035,-0.10148799605918879,-0.47911389980714825,-0.1181670572475304,-0.8895114072032688,-0.7882414644794862,0.8558934191807614,0.07089616881086225,-0.8955478845732632,0.20814634746528649,-0.8633476078461557,-0.17301251980612942,-0.7866263881905402,-0.4242460234568548,0.7214584792376715,-0.05428586921961687,-0.11790101029127453,0.007845086704112436,-0.0639640392201295,0.8887034310027428,-0.718910596237327,0.8418821429801802,0.29115453792702417,0.9525822912748168,-0.05311917557242052
-0.38064665916078044,-0.09006659699287489,-0.9033501251617317,0.6936774460610908,0.7694418871708206,-0.6122189444241171,0.02498455378013964,0.43308116657098195,0.04180700476558208,0.2632760528371796,-0.733181171861482,-0.3949594994463399,0.7395576227998149,-0.9494102217594182,-0.7076131590758978,-0.7337700848160145,-0.8062213771157438,0.5560184794965433,0.6638324643404308,0.7488319227318052,0.9968603102855436,0.8218033302874101,0.4183665987125449,0.13089466319068466,0.8077848673423607,-0.48678367812959844,0.18898740065547148,0.20265674812235623,0.5711669825832464,-0.17916682500166314,-0.6138703537280052,-0.8835151729993993,0.7447235436919899,-0.4935797588812201,0.27374364454831457,0.21136222997161536,0.4040435301639953,0.2531629367740489,0.5398454480096295,0.3310834942197436,-0.7780545538756907,0.9183059894558869,0.04510144678552508,-0.17199793067477054,0.13404681243581473,-0.14365125877899354,0.7681213999720164,-0.558416549908715,-0.5856788570686731,0.9062322462190955,0.9047466392966121,-0.41558181587205567,-0.676386032586634,0.47509105856512,-0.5190450399401454,0.1309535256790959,-0.6835195432134205,0.3251031381118199,0.9533189199084733,0.8340982692404506,-0.8283473634864347,0.07157461757913608,0.7515860667938841,0.8118156879865368,0.3805673390019584,0.5644638246551317,-0.9995101941915006,-0.12974709664730333,0.7994600827415481,-0.015408263626423668,-0.9799766097638671,0.9835334063540082,-0.03797383858009007,0.0017977775941113716,-0.24685210758218812,-0.17247035596658744,0.8895269187456383,0.9963753069275909,-0.23087005475911893,-0.0764096700681336,0.6347706354615998,0.7176371808551925,0.7543000755637288,-0.3268986881492293,-0.6610828663624537,0.49550268665351505,0.12581336203655002,0.7208077641548234,-0.0498340958012744,-0.1631023902360309,0.07144567541449676,-0.9650577696619116,0.662737300418534,0.9997388834955909,0.5867315813703782,-0.5266908079000912,0.21243628557493666,-0.923263733981647,-0.5818215004710106,0.4966483483787947,-0.06810637643685946,-0.05414805579665871,0.9001868191956703,-0.22753901915489094,0.8710767621953897,0.8122716799260872,0.14809133385441986,-0.18885155572431533,-0.8371299640733509,0.7231005949230969,-0.5796212985518758,-0.572745178554668,0.441306061752075,0.910221303546354,0.23654940042056127,-0.371979180289463,0.16768122366811555,-0.9787197345077212,0.6028771346665458,0.19752457173270366,0.47974745709395283,0.47338718044152883,-0.6746520978526049,0.7590575490796843,0.18863223253813444,-0.8659088180481411,-0.34320296685092333,0.38864543796104245,-0.35735529681338307,-0.3189987752796115,0.7677718224659702,0.1737941590638905,0.06281398707634289,0.44191236028226566,0.8491238509763379,-0.7893353959541392,-0.2552361663653342,0.3908430734070445,-0.3723059133621498,0.27265655499740027,-0.2014199250177504,-0.9032018556702905,-0.9294754960158551,0.03322011121564028,-0.9850619253177273,-0.2527414465509228,0.24971058250628508,-0.8808587921293793,0.7139131475263174,-0.391637361545512,0.6758907058321006,0.41720494075165915,-0.7281658584456103,-0.6471713761497142,-0.00829087235726167,0.9417915909102166,0.0391355018852344,-0.5040786026862685,0.8774658866248273,-0.7778060444649992,-0.733290621672424,0.35381474938461377,0.4052480248102852,-0.6400042649736069,0.3170686411871475,0.507472325217798,0.6436800602364894,0.14688573780475478,-0.1483303982970281,0.46194926023410976,0.6350189960723933,0.48478996641863437,-0.0697573965073437,0.9527951295703969,0.12263153539481508,-0.3592492211567926,-0.6988171718675609,-0.25553724495201746,0.7000872012113619,0.6861371974389716,0.23587491667169047,0.540026807395666,-0.26708329155069066,0.3545491974568682,-0.28701461829815256,0.9812694694255277,0.889406762534509,0.2527532247836506,-0.3895939331834555,0.3377250253357331,-0.6949012477879541,0.44020637365176163,-0.33164224209744386,-0.05043612188661384,-0.6524462847021315,-0.4469955932531364,-0.9701672705523459,0.21210427255196618,0.8657670351171713,-0.43565388156513274,-0.5685975150130875,0.253183517369284,-0.835387405606943,-0.9148153422412331,-0.23146512242404094,0.508357914335295,0.4825421319745087,0.6325859841887356,0.2083476574510157,0.17688230884769518,0.19559945140449608,0.2076580036645017,-0.41348338747541535,-0.8800682738489942,-0.484548377664892,-0.2916952753709594,0.1549976279280021,-0.42366515178346864,-0.7477552414923154,-0.4438474426717356,-0.9008812750198909,-0.4372768354661105,-0.17308424634463693,0.3181083935368254,0.8671647602038175,0.1328821463666532,-0.2702467718519128,0.9705292508693697,-0.22989044223550525,0.15128341936591827,-0.4949196936861089,0.7541420400806849,0.47722772859187024,-0.2683922741119831,0.22858777959100363,-0.6360593193048074,0.25269379793200564,0.29505471280076256,-0.8675449202852146,-0.2908708645057436,0.7104725842678714,-0.20280432712571028,-0.31165061441485764,-0.41903368584340606,0.42904916965960305,-0.6729162086008573,0.8311731077840809,0.935648925466938,0.623314620398689,-0.40368102191209054,0.27893683062840235,-0.8354308606488556,0.18664557698831197,0.8241181612950599,0.291215853067444,-0.6086483529166391
0.937349808223289,0.6451936127366664,0.13397184918147187,0.850144761398385,-0.8796986305020584,-0.854257033737235,-0.13306551605986017,0.22512093128063926,-0.4300227179764675,0.3273601159818087,-0.5532396466798286,0.5228528035129874,-0.16560576589320708,-0.154626131047654,-0.6282246313911324,-0.6480692453783443,-0.5318521882119835,0.40330766736883383,0.9913237618332982,0.39189731719778687,0.1509918519165252,0.6991402046911206,-0.9894721010623382,-0.6412536788457439,-0.8009361052341826,0.4539868136619136,0.6584969746278668,0.5123325502986054,-0.9078729457859285,0.8546674857757997,0.8803623633158097,0.2006173217784053,0.07218386861052983,0.42824342186052844,0.6841029874764291,0.49764011800619445,-0.32881262993691496,-0.29433065012871107,-0.39305666923222016,0.2571809617872203,0.6029269174883607,0.18496760345918006,-0.19139489015707123,0.6486917581073441,0.6121501226918913,-0.2359646496831882,-0.06832053997706233,0.01578031049812978,0.5458159711245338,-0.8697287789345456,-0.686163842034645,-0.3399213047037777,0.5538451999648859,-0.9843364587188399,-0.7565483868689635,-0.0010334521863348822,0.380939064446985,0.4500964618572565,-0.02492786279759973,-0.7396174986760673,0.004896389598676443,-0.7291394181289408,0.41541746941337654,0.671725373292865,-0.5428869359560999,0.7264603012712683,0.32086471275080486,-0.21636769512364507,-0.3515475197458606,-0.6463106525982225,-0.17899039663665395,0.681346562565464,-0.3237600039186743,-0.46776124222893145,-0.5731151722774774,0.487688241083472,0.052757451732749816,-0.5639279798679797,-0.8019144115874073,0.6418126145223835,0.6716869149257165,-0.06432633491305806,-0.5538945350372189,-0.4999016951392321,-0.15045460231397967,0.21888294321309076,0.6371194966815852,0.6063766769807013,0.7800969246046383,-0.122648812993712,-0.07302022389141483,-0.022569112718550777,-0.010386988789515383,-0.8257301028003012,-0.2824280048788017,0.20006254773584664,-0.09969236544990934,-0.7996052052491123,-0.5535263650834492,0.07760789164515591,-0.6341537796069465,-0.32556312951448274,-0.6606060574608488,-0.05672803065201548,-0.3437232755475903,-0.5933718137894772,0.13263949760636828,0.44157566802327364,-0.9503501997246224,-0.5735892999239995,0.9608458877586219,-0.9576220084360831,-0.5183704511990486,0.4930347999406901,-0.3535739920250318,0.010308451645172356,-0.7911864733316027,0.15448996365917322,-0.07509294201798444,-0.9070943610739237,-0.446981736091991,-0.9499251009249232,-0.26891352020022863,0.24538459196942308,0.9773985226652315,0.8792179297098275,0.8011431399075994,-0.4857499679761914,0.11063861651053575,-0.236696773857346,-0.21602258430945054,0.26199582554556367,0.756610176534873,0.49414137406154457,-0.539096105447094,0.9139126100619914,-0.8749340570116988,0.5518637328034621,0.14582467362761742,0.4508638849405755,0.20616990266959223,0.15555768319163343,0.5042719222817733,-0.031784779150576314,0.4410990155095338,0.8728267473349351,-0.7985261076413019,0.04037360592547867,-0.13816623682986262,-0.982100058010456,-0.17394852147121243,-0.5026247093946401,-0.4917344139931463,0.016930902228258216,0.9444493838390264,-0.70956700038979,-0.46001702243322606,-0.567634954691187,-0.9313925446290219,-0.8885187234696403,0.3247781250898323,0.09957796989484424,-0.3144659855002123,0.10601491603773883,0.311321124057079,0.5793697198331451,-0.42224952351907397,0.6362253819871302,-0.32924274834569545,0.6929736472833343,0.20827766745432452,0.9771645146857393,-0.19240189515129424,-0.6787374805660682,0.20015848223541344,-0.6037258339730154,-0.15631301607482695,0.3177747077596018,-0.877666283289906,0.9638415788613688,-0.8034373045131917,-0.9531386924184329,0.7095323721887532,-0.2527804631477315,0.6576337376074004,-0.9443663752374549,-0.3138746055394337,0.7153810994672434,0.2807235590847694,0.4618258627188272,-0.2718104333226956,0.49305628973046933,0.6664165436864447,0.29675747362385074,0.23773032559208174,0.188965926881965,-0.6088229511679202,0.30473513965295806,-0.8600977148729705,-0.20720640348398756,-0.6579579531833477,-0.5582805601886554,-0.7072585037255046,0.8638275164924099,-0.47734320165410726,0.049234231449372556,0.2065856203988805,0.05243310095169429,0.33764074143847034,-0.6495428551428943,-0.8060410754922029,-0.6141081518029965,0.837455847489238,0.37382524135112516,-0.7715651577187501,0.4405019448700853,-0.5908991893407203,0.8121386305414435,-0.09973312312457039,0.2985459128909893,-0.36760237639538196,0.37027449812137214,0.7581031710371475,0.5407187144470051,0.12713936591430186,-0.9483762945545808,0.6429112104805521,-0.4714313512737902,0.8162405562346684,0.24805355892439906,-0.6640594559171364,-0.10326250587929908,0.511321193541713,0.25737007217455155,-0.25724901402726097,0.9322713711246273,-0.0893145541576501,-0.5095081519214084,-0.4111279321906154,-0.7715597913257528,0.21039924306304858,-0.6047995133168544,-0.7062967318953686,0.29374198967809106,0.8536152501988941,0.6706345504221343,-0.42564319626025604,0.3525890568868255,-0.5465873474376777,0.3048112726356982,0.5124540845184105,0.9281824525116702,0.38852497719871315,-0.6268337320379853,0.8949579610633729,0.7974488526750518
0.5251631394084681,0.8016345233096283,-0.6946455438705157,-0.19025254212142562,-0.8052746897718992,-0.11872955790435347,-0.06820057792891254,0.7300615954378413,-0.22152233145209443,0.06706058173543394,0.3836394307063071,0.42483772490490757,0.9819151324259818,0.25347401425929306,0.9237273922041225,-0.3436047221517693,-0.9201207642381808,-0.9115230642765537,0.4564689373894626,0.964393222166509,-0.21923339761013128,-0.8778152028167792,0.6325937334325049,-0.7835779691087652,0.9129819876647898,-0.28089449948287215,0.1612805136075437,0.03793077139588763,-0.10342361726510685,-0.2791597925011624,-0.6528893731832592,-0.3208512107729695,0.1584671786231575,-0.6185001940875476,-0.9250068921226529,0.8140483727511398,0.4320965407677104,0.29521334009238664,0.47148958492263193,0.7227954367346541,0.5969798581548844,0.7159725473950089,0.5086032627292563,-0.6225768656003483,-0.45857334537660455,-0.12877183145586701,0.9887045740968561,0.9252478078036204,-0.979486158250473,0.2098835197563702,0.9337476788303609,0.0151531639288367,0.1844019078661514,0.428268285826896,-0.5330200052438148,0.8435287075116189,-0.9795295719533281,0.5424008866804391,-0.30783831455565713,-0.9973040458622693,0.20609893530015277,0.3838021469965347,-0.37563480480299716,-0.3048082678014197,-0.31602864085171856,-0.2672040209352151,-0.3590311511990829,-0.4772392206878495,0.6709592741763604,-0.9384197992653529,-0.5590909910939224,0.26948211084355234,-0.5792346305195213,0.3477674998658167,0.10283278603128454,0.8790008706711265,-0.10085749443672154,-0.23876769297201372,0.03904871151011591,-0.09224720379734697,0.8413741421147947,0.5930573096535712,-0.1406099719657763,-0.5197778681149607,-0.19765342974035005,0.3079990567481192,-0.020693585630354505,0.7994798537114247,-0.11789027309016964,0.5638365396747562,-0.2934938219682133,-0.3781607466799266,-0.9049082247573752,-0.22640248233975369,0.6609256627393605,0.8485648341869869,0.9539414353295559,0.8644839476388582,-0.8768894526421931,0.9197808080299574,0.06015401386574837,0.36306687170730423,0.026006801657600054,0.839343313840214,0.4366165572441765,-0.3186126564227556,0.5682058342789931,-0.46397922350897924,-0.8587038122082671,-0.037061137625820306,0.9533597725315603,-0.34707324222163916,-0.677579161543997,0.2570916116321498,0.11041600932888973,0.6947461994557949,-0.09402863651090909,-0.9912402099582005,0.9721049413966172,-0.3485755284040124,0.4858163808010769,-0.2963999248807112,-0.25455408981385896,0.6971837121437288,-0.057690616265513084,0.8780315682164919,-0.6523044003083285,-0.04842789198723274,0.4953449743944962,-0.5997953565382181,0.29264085266493867,0.8112641751172096,-0.4709172152946317,-0.872703501334791,-0.13603877011366183,-0.48005777800327976,-0.04369524202239794,-0.6022246031179501,-0.9419309106045031,0.3548519863891437,-0.8045440116068712,-0.378980843428917,-0.07612626317380933,-0.28213962901402967,0.33843281664680913,0.3072615719354217,-0.2606744679661963,-0.2908694669175744,-0.6171320545375731,0.2622811318441116,0.9434820217359774,0.01723445892369191,0.3887155548660475,0.7291728826521231,0.4715935022147033,-0.6709766181068781,-0.6044693594724853,0.3130631908231516,0.3617517615568704,0.7230893025382501,-0.46711098211195057,0.14920307855759196,-0.31592357288263906,0.4964963958095814,-0.49372256351382493,-0.8280565096201209,0.940089869768965,-0.5995483190733741,0.7983524747292909,0.11428603094304446,-0.8609414503398343,0.772407806978451,-0.411681809857779,-0.5502414927990589,0.49035213965492774,-0.9526216976102153,0.7581356091530218,-0.9063236885140853,-0.5994029265445462,0.2035651324990897,-0.6616583865331802,-0.7292362483088042,-0.6982747630504487,0.31384734581769513,0.6651445896095929,-0.10167686273306153,0.029314517180869748,-0.4550716115222151,-0.40342400571958237,0.23505945422022334,-0.32960704033394084,-0.9042759258225184,-0.6549759484517192,0.217853976170989,0.4376922175467195,0.21884153695658903,-0.9064188836120157,-0.14844537943331781,-0.6670613730764112,0.8863308831592063,0.394635638360334,0.8281630605221342,0.9171854223696057,-0.7918016276872837,-0.04494620892677337,0.5991298808789465,0.38877764974642304,0.38937974058142233,0.5514935358156803,-0.33551625021603715,-0.01740212196173596,-0.06790323945663479,-0.40859166660015367,-0.3240799677874573,-0.595482652555603,0.09167084158117,0.0768877669601058,0.6357057966639512,-0.22542168039072874,0.904829080629995,-0.609999794742951,0.38707674168181794,-0.7160395610783312,0.19820438259192685,0.4141166815851336,-0.73979681522568,-0.6153243066503149,0.6764211541744201,0.7895733245230667,0.27689046113661275,0.3582444025553986,0.7562541319992764,-0.021170015819253374,0.35787213214447,0.08403956228638099,-0.04982098836533444,-0.2736972122134582,0.6095115524566657,0.6520797755956296,0.8943631680697353,-0.18252939611375485,0.7216392462091199,0.8737523367459332,-0.6602737124811169,0.708067667769452,-0.4339548639647881,0.452076381494561,0.2828619907042649,0.7901969951019678,0.07358083608840116,0.3703102294603038,-0.82009020945449,0.8806193952782748,-0.017055659761569864,0.07756076728222738,-0.09470762658939358
0.9019117438971018,0.2691043438067757,-0.8589822796290927,-0.6274109151993232,-0.29446884901180304,-0.23600103960959684,0.9622040501453437,-0.8864970778155428,0.16761900468776214,-0.16278185387744837,-0.9706339601490657,0.4376707500139039,-0.7969028458346008,0.9026643625544903,0.5022028908935281,0.839880210529881,-0.9500864658536283,0.9348700494163569,-0.32035157822634175,0.8024954951469061,-0.00979216699777119,0.28329796726612,-0.056368136020610526,-0.8916786036299604,-0.7049604115849812,0.40396836982331963,0.24835228028460588,-0.6508706066907153,0.4312037453119164,0.18269237040825126,-0.09772130878336571,-0.8994511854957814,-0.021531342052489855,0.7623524768478003,0.8920434676420343,-0.8358505718898481,0.5094481002411937,0.7678644720115726,0.4994970733011179,0.1691095579710995,0.5937617462665736,-0.5971757004693847,-0.19196000491740617,-0.2538731936733811,0.4141864034304146,0.24006779289359437,0.855628590228316,0.4796625916914432,0.2962463558603534,0.19390803603062534,0.21111712849221065,0.48327857831858556,-0.72214061720224,0.6516880503047597,-0.1458208829405503,0.9095604744203722,-0.42447159252436495,0.5488698807737551,-0.1927497803256466,-0.9363438197039977,-0.7422753327526557,0.03457844044741476,-0.3229811683255004,0.0008651254923834895,0.4075788595460512,0.9474709224277658,-0.22813118614013828,-0.6186746302192501,-0.1211353814557945,0.7675766482754272,0.3034522033022742,-0.045581311620679354,-0.839400365487049,-0.17385117731160982,-0.9738489941672397,0.9881258167907303,-0.5349982130387065,0.9332322971085507,-0.4548133181840839,0.4929364419810571,0.03955511565271497,0.022434061315036002,0.37800436145981986,0.3376947264104744,-0.31530672780064206,-0.2799988182195856,-0.025852070736331667,0.704675323725412,-0.3197987716114903,0.43257079069042526,0.9668261328980188,0.8531626969308586,0.5460632669955832,0.5272261503800006,0.623771600591434,-0.9261709617184775,-0.733603176446572,0.22884627847991923,-0.5418595206103545,0.9530257220086686,0.1621746577430172,0.7402013923967645,0.00796681263006449,-0.9964960175403819,0.9812904024771436,0.49711467634287687,0.3009184614108711,-0.5695052980878699,0.5766104703752013,0.03502892843762795,-0.7764023536092839,0.7707909386078369,0.6641635900345397,0.6527140836853798,0.8697436591941639,-0.6538040140515045,-0.5174705970374402,-0.6360143008973844,-0.31953709582163414,0.24883869353690136,-0.7532973988463598,-0.5510514073523807,0.5280017065300275,0.5073739918029971,-0.8372514844446042,-0.9897292591606566,-0.0015575021134319744,0.597994255012084,0.812897510737449,-0.03421854033246552,-0.20764970831805818,-0.8082415690396072,-0.25666306342090306,0.350176181056991,-0.050094526488698055,0.8368365590725533,0.5270552645305435,-0.07179869369527259,-0.47248510916479747,-0.4749332541651028,-0.3642354988257903,-0.4971963785027409,-0.2955669908619265,-0.12240220334060004,-0.7681798188695284,0.5695004300704067,-0.5933421785100335,0.7893769551818883,-0.05193821382265029,-0.24299395109216015,0.08102245764293814,-0.03183030064718739,0.524522186804399,0.5225683617672601,-0.2674454584342536,-0.6167180623817998,-0.3190556250004486,0.3450043514296728,-0.708511969883235,0.39780351820938087,0.036188338779192364,-0.7024353643310262,-0.07631933232104027,-0.02531748378353682,0.7741151661366614,0.5582906657252105,-0.4297220253665741,-0.13082846424637617,0.06664274627979738,0.5405756436308315,-0.512147414026324,0.5403114046934159,-0.713448350029793,0.8586305258434561,-0.5685899099221299,0.44463953198870443,0.31933391310145587,0.2770447631601052,0.5906717014386178,0.47409900499782753,0.2664574635305561,0.3133803295717368,-0.8170777698226463,-0.42702231749732666,0.18078239099808102,0.6915672040133412,0.9109180287257266,-0.4929048735349175,-0.9113019478914806,-0.2542694830350438,-0.7180971511982597,0.7352453248885868,0.917660556116539,-0.5071872342168477,-0.25721110097703526,-0.5752700349442625,0.5529615047144458,0.32144058168565603,-0.8586920757482346,-0.457699503850991,0.5266790896313744,-0.5357570907393254,-0.25156118430256513,0.6890268268278876,0.510270015583997,0.11173485584193821,-0.1971579969988424,0.3943958458833021,-0.6916218582079676,0.2009061216186221,-0.8547437602172498,-0.8521527895388068,0.055023539300832036,0.3665652982374945,0.8743698295200679,0.6193865823567604,-0.41068292193255007,-0.6178269813741566,-0.5070840878493368,-0.610947969967464,-0.25439391175856385,0.9172555181158553,-0.25911957904690763,0.8406340637641534,-0.7364747538172882,-0.9387320574966016,-0.15760242130638802,0.8100925672120021,0.38848276378745905,-0.8438083919283219,-0.9200462591719312,0.046789782829830706,0.14584070564080975,0.3924944011259388,0.7974651796586802,0.18666298178997742,-0.6624529807196315,0.4622966381963993,0.7432673185747583,0.2440792391459441,0.662618606622164,-0.6794956562153098,-0.8936668374638148,-0.62790712284157,0.15506248589431304,-0.0014100729170514192,-0.6931071525063992,0.8889274294366429,-0.6700061317930386,0.7405807180562725,0.7565519145298074,-0.34457400399897353,-0.9688629516241092,0.4954979630017924,-0.7967595911960808,-0.8297764180055889
-0.1898062448612967,-0.7642381096857351,0.31922335839196037,-0.5289730961372532,0.817410419867586,0.4944895063192485,-0.8003871686498776,0.6803477128054036,0.5670860132037898,0.381988452556034,0.5861617844239866,0.8517514077714003,-0.34012371566097843,-0.9036918675426138,-0.7918232112676533,0.14840107391827861,0.6958962747204653,0.5552537336036945,-0.6648993150729114,-0.2692696838617188,0.06096951951100649,0.5220296018606156,0.5041875492651484,0.24542501649983595,0.9043133018049607,-0.7599174145899268,-0.5989332952870146,0.5432910728330773,-0.29191836613927213,0.564689559400011,0.5710478355837063,0.890701610528279,0.49642129377531696,-0.5875245919435574,0.6062562150880222,0.6477344541623746,0.4341899816221533,0.7420005264126703,-0.2727986574747696,0.43701257858415765,0.5850276566474617,-0.43623000368403275,-0.796605305775915,0.2041564753223737,0.8564924916682723,0.33435251534500865,-0.9315018501631664,-0.5201417267013635,0.6109235500193269,-0.8798894208889096,0.3688284675350253,-0.08488244167543568,0.25320935114185494,0.19003162220921466,-0.5106835957329374,-0.2506779057772597,-0.17522630819708662,-0.7021698507793215,0.9916735357719941,0.7452136152552922,-0.6608547156754181,-0.5194166596953269,0.17008955608527332,0.6784998978888646,-0.8748951196733914,0.15465083758727327,0.6065723781574319,-0.6239807747948749,0.12480784069259432,0.8857328769908248,0.7168181278965964,-0.7217455371267749,0.43145382559297873,-0.2558284282223309,-0.09271330102219677,0.6217952880218975,0.6989580815186436,0.3817091797006855,-0.5037771254453314,0.26357501297528896,-0.4196820130062826,0.9528900428126523,0.45584919910001553,0.3818321812003287,-0.34151402522941665,0.588946587335577,-0.17146405031943468,0.9465656431365614,0.2585868519591761,0.43554054630910044,0.12450760404066985,0.6325163660193609,0.3896419411296219,0.9386697942251492,-0.33908384584243967,-0.6163738912977883,-0.5432442843176986,-0.8142198211828222,0.7195823477331948,0.3481835371689084,0.7400775993467634,-0.06507079539305738,-0.9705591910721885,-0.9357714497428555,0.025177569504297947,-0.012007664000244889,0.41375867047686143,-0.5043108144392623,-0.6618891440225125,-0.8845477215042212,-0.39388197774696465,-0.9429319674558743,-0.7153479082857919,0.12388041741945433,-0.8600785333154948,0.8972015798780686,0.5739509592697811,-0.9457525723682332,-0.08170069045332196,-0.0035832528531298813,0.8049289032208073,0.3139329197019467,-0.6750276243776736,-0.3921922637386952,0.12117763337947429,-0.5540640743290721,0.17595497126803994,0.7658394067564098,0.3515877956114539,-0.6500978302907565,0.9424638031289938,0.5204483743804376,-0.44071243048765596,0.012578710684142624,-0.5676855260278681,0.7579688146105843,0.12769911442922588,-0.3153714329731383,0.6666904770165201,0.9470489515154459,-0.15487078768660112,-0.5086899031554806,-0.7754352397545632,0.6912887038223694,-0.08757509580010159,-0.7451715474922931,-0.2744231311648393,0.4603437866912865,-0.7144872888719893,0.7083777798667119,-0.9512904895596541,0.8084529169719714,-0.30202468738854327,-0.7361109399541577,0.4545637661604933,-0.2303765577184469,0.15165089817024024,0.7687702380189712,-0.43063149458883276,-0.2361852429241058,-0.9381300217728763,-0.9907235638234715,0.1498396791698804,0.334050056920725,0.27907092293517,-0.2435336971072315,-0.35794287521797097,0.5722199845747491,0.7150555069483864,0.5961369049358638,0.9585564769638402,0.3891039474481839,0.3639976878682185,0.7593672321038978,-0.051248136534361555,0.013512578885088278,0.15876794452308496,-0.2825079852709973,-0.07523908735719331,0.08308961282533667,-0.8446786523471606,-0.4336404119747903,0.7546166304308,0.17538078591834338,0.7070070923406659,0.5912075182932242,-0.23696225688397887,0.19982252908368792,0.3128887569608072,-0.7496439144344702,0.4965397981909425,-0.6886743139351632,0.4693138827910748,0.6982750701994591,-0.2831827064009078,-0.9550023729802211,-0.5012808718866391,0.9836313120657019,0.7670451011935531,0.6438792653926242,-0.17650700153903442,-0.26698920399914616,-0.04375922755478201,-0.8493689710219514,-0.3058272811312017,-0.6326320459288819,0.019276772718561874,-0.7219893933305312,0.7348653823126201,0.047744458826749714,-0.5688305033735213,0.7168337096793442,-0.46959199156494225,-0.05860066725586899,-0.7636768161015031,-0.6245151759349907,-0.4180074028563632,-0.43487868612177194,0.5256425458157141,0.3764188111904705,-0.2341659670422931,0.15181228501058341,-0.16543618940015614,0.2912564121238237,0.7680508367311119,-0.09685325252707955,0.9432637695157176,0.6351757945281502,0.548562424998642,-0.6308514408564558,-0.1305623695157796,0.16316831112209562,0.9619544723971076,-0.42367193566264194,-0.12024346509933004,0.8606227622944249,0.4237338143914329,0.2136634165090423,0.2581613990022811,0.48236597103249323,-0.23285930131767185,0.5305605817199792,-0.15240123839552622,-0.48333740697671335,0.12777025422345023,-0.21676293207095942,-0.24037113109331454,-0.791820206462329,0.9760759773485002,-0.6445542435551421,0.3037477834927331,0.2970046265587032,0.38007702540520705,-0.1015037639885703,-0.528768045023416,0.5489950068234835
-0.2562399002194313,-0.8276933041606434,0.7430172455298378,-0.42517411407595884,0.10550973589259738,-0.3052463333261102,0.7768043135920355,-0.5219432073198855,-0.3189531962386263,0.26835966674432754,0.6750595818717684,-0.4595805582250967,-0.7560947307323318,-0.5640065503768916,0.7877588273213794,-0.13864097857732238,0.5436207898025152,-0.844095352733526,0.2669333853236435,0.7047600219761971,-0.7118500665980863,0.28217805607437896,-0.8124293138279668,-0.23732757191308385,0.8706896520671012,-0.36062383570347567,0.1302641417475916,0.3957146439903665,-0.07383239359455618,-0.4461387439856339,0.4661905426531481,0.7261082923386786,0.2151949014155108,-0.6156801679422963,-0.7209943703139303,0.2179332268234755,0.8902299641454892,0.818261644412712,-0.48964821626547006,0.5361703938524913,-0.9222015634076033,-0.8035770017513222,-0.09892162264582804,0.6346842364256222,-0.2612970737831859,0.4103407970959765,-0.5295195778883679,-0.3883288478546998,-0.8350440281344804,0.16510984613598745,-0.7471683451203952,0.6224360311487827,-0.2506147049371217,-0.44736203230496274,-0.7215696469327602,-0.4769357972446828,0.5985185498721726,-0.27665922437594026,0.3390143244922674,0.6836430122630717,0.013552459316586773,0.6605924519729736,0.7758057633653732,0.7465601680547542,0.8745016630867211,-0.07711458459520926,0.9024941852185346,-0.4673032788016578,0.011143842931943038,0.38134881793711584,0.6870089006041586,-0.18182645156209643,0.5868720621054848,-0.37032573432926896,-0.22699195076782286,0.8779502862563786,0.277046352303129,-0.2901300682910495,0.09254294950523079,-0.6586504642880251,0.7254968537638062,-0.28178854156997635,-0.8308802293606998,-0.62860084630455,0.27686568026678193,0.5191951032255877,-0.854299014407415,0.26229019446436097,0.7148081133643971,0.7496983647539572,-0.2699791232158848,0.8772471035174179,-0.9257197984448093,0.9462445830720607,0.8531744221435011,-0.8830042934866498,-0.6557588677246122,-0.10002608747755604,-0.720054627798093,0.15038912355707357,-0.1967371721735225,0.28134370248033136,0.5943349489356253,-0.551012950995196,-0.2730072817221221,0.30414239172522417,0.6131757989421587,-0.8995783500791192,-0.37849654701667546,-0.9275714787499316,-0.9233785896253386,0.5168757240965638,0.2803885078025694,0.514017411831519,0.9145835272788119,0.35057139626504297,-0.9252371262416292,-0.09875340025777835,0.9029776165886885,0.32983843688466497,-0.16250522649367083,-0.8992077131807821,-0.18835786558989387,-0.7843779775110113,0.25552464094903504,0.6851543517869176,-0.9466683581918145,0.05901061055381618,-0.9736992589495037,-0.916605721577564,-0.8468184131869008,0.29948102802857224,-0.6054699883628252,-0.9759169580175249,0.5456609682370299,-0.7803478998394986,0.35506769273451866,0.34727495439561373,0.7751874437410999,0.6749887383883677,0.6591108951293463,0.09305870318705467,0.9919592103357158,-0.5163627830574837,-0.03814176878254516,-0.2966036048223146,0.907049803571045,0.14248391682321415,-0.7791958208915173,0.9820710910218797,0.4323931396989127,-0.5265104274418753,0.778073421858845,0.38701280054450216,0.7307332839224823,0.15521138662878609,-0.005388544200008116,-0.3275769195331488,0.921849615811511,0.036442612131119656,-0.03716214601258039,-0.9273804703733322,0.1690418068909345,0.8409976231833034,-0.5063921003840015,-0.10323888753441612,-0.7564626448217722,0.5653341117552719,0.9741053579480756,0.4883024684131463,-0.18174973658470006,0.6179766073900905,0.4023491741488412,0.08124829668508471,0.012092907293431487,0.7133602182926613,0.9289302959625598,-0.6469139865692559,0.3087677288026216,-0.8330441971644877,-0.22535029779128202,-0.33563534437262055,0.676246438702389,-0.22618062474024914,-0.056294906089437546,0.992134148399213,-0.8529796414851114,-0.9883962860678488,0.28370856099854924,-0.23503665254593686,0.9418493135345145,-0.36897107588537836,0.5776611054188847,-0.8604999021347717,-0.9375323622170932,0.40946139424522165,0.7260694750235701,0.2602680661500465,-0.8550356179483827,-0.39817033206321883,0.5558083282748731,0.010168454932704796,-0.9355435445034421,0.09025861486364395,0.30531229375672275,0.7387317881240325,0.11665869349879698,0.6882289406117337,-0.5631699937716192,0.7414215433502291,-0.6947515871987149,0.14257203043775846,0.014724916757434814,0.10703907096415,0.7504772086537257,0.3780023556575669,0.6954853067753541,-0.3377041565819974,-0.9490370068363547,-0.5519053392310658,-0.9675592869428231,0.8070702273959391,0.3548036955018232,0.10995547325499366,-0.09722318432077226,0.8146243624221694,0.6015686908648767,-0.645175583235809,-0.18851488488826118,-0.015865757521439816,-0.7718726034736745,-0.49333661753716873,-0.20769612796134385,0.39873460042644915,-0.5442408711591478,0.6979167590703543,0.42864882739887755,-0.4147242246258602,0.3097311741517108,-0.924519069501335,0.44854697613235306,0.898640850304798,0.4040939703644204,-0.48754827819691227,0.6645125800252583,-0.9002982536718365,0.8266299980295901,0.5508145827928634,-0.4192494840193437,0.7327910313508252,0.9138783313132384,-0.5679512168454552,0.7606743757184964,0.7128711444627103,-0.029161859642685917,0.8008662783047211
-0.6151535060853766,-0.17783169987073477,0.8461559031149644,-0.5615239012748485,-0.31595374822655686,0.12966105017247243,-0.7884921266063238,0.32425475250547353,-0.10739663497393837,0.09998332340398708,-0.36243836269117735,0.3740078182253075,-0.3076263378635138,-0.13130074742933573,0.9152224021599862,0.6795373652077545,-0.7237074517241646,0.6707401854051218,0.738001029512088,0.5884460651993753,-0.08365827908707679,0.9750925715133882,0.1575988523392915,0.25640128066452816,-0.7454712649366486,-0.16179892571928023,0.23830496166420567,-0.5076059255047369,0.40023001595606944,0.9520677371458381,-0.7722930473751506,-0.11102733172566404,0.45237754427425725,-0.5313977530049634,0.023461734952187507,0.4461207541568619,0.2798396181159428,-0.2362631603993659,0.34942020824111975,0.7833435062330123,-0.4041519457861962,-0.7665812671885528,-0.23982384705981996,0.002231363468544023,0.7218409130969259,0.029327765112221904,-0.7621930786220925,0.9469112619411049,-0.2366377910716586,-0.7580671592342023,-0.6393208930249332,0.19486418533745087,-0.8384355289977194,-0.9222416639486604,0.6983921236387141,-0.10562503374449284,0.1290274795417079,-0.17689577281666669,0.8478008894854994,0.7530572375541031,-0.3813121055117026,-0.551285872629593,0.0792029637355991,-0.645976346713435,0.9607886936971923,-0.23782063856775593,0.6643596578813737,-0.5302858136273163,-0.7126197430285972,-0.7095569206418415,-0.9905056954192046,-0.4797669981557735,0.9267210752290782,0.5656515912054447,0.461014098050883,-0.42769308766385583,0.7092238705526772,0.8630923483192912,-0.25464909843784156,-0.6495931534872972,0.5752745155133574,0.7884959946382257,0.44768300863945054,0.8827269141706608,0.6557488006010808,0.24345860754418802,0.6005493972861011,0.14787564334161551,0.8495763761762298,0.47522883966710805,0.5672950221107858,-0.44240181998154293,-0.16235624552226713,0.344348645181787,-0.4529656748261579,0.85004947680158,0.9320658350936506,0.9254599941240838,-0.5066531767946263,-0.8833748390501239,0.5993645307938908,0.35623527861158366,-0.4585243956287868,-0.8078995420660351,-0.4964002746028313,-0.5189666760013181,-0.15651227289551506,-0.7932281873589195,-0.8912675509023222,-0.9757145052129426,-0.7735211628208363,0.0062553068472628315,0.33913753845321626,0.17446510886139044,-0.7942200889439874,-0.05447049952230443,-0.10895042401628574,-0.5921569665979249,-0.5628298079203518,-0.05073344634007748,-0.10106340235066846,0.7799362060150392,0.038748356466113965,-0.9255712315276159,-0.3161277040333226,0.02305176455339475,0.8623968124368724,0.4565280494609436,0.37421147722071035,0.7549447232629152,0.47436902097011524,-0.45389143411317323,-0.6955286890189691,-0.8938886225426779,-0.7713703283104623,-0.4647532489050157,0.5748428571143409,0.7177377699496621,0.07896220661317832,0.7761450645567349,0.5009017097567019,0.5490266375631028,-0.30927665400293924,0.4427961556696798,0.34436741007064176,0.9695019103211584,0.9100588644927909,-0.6885259354438606,0.6624814921560918,0.738801310220744,-0.11614106873888397,0.5205080234163346,-0.38520509914555245,0.8906811722534933,0.6237143771242981,-0.6239427701078724,0.03769128738141503,0.7258835065066895,-0.6625957553924118,0.020497638604838997,-0.3131950216535482,-0.18571934872252172,0.10385157043384363,0.8827668084366695,0.49029285606657136,0.6467037627470047,0.7030033481880584,-0.23694703803460215,-0.8159932794683906,-0.5399043686339144,0.27018702759780444,-0.7567208897541433,0.8360700660673819,-0.3164655361924287,-0.49235605716032604,-0.042538679494618314,0.16171026131666166,0.9954750879955723,-0.43711511245755896,-0.48400269021703357,-0.9940667523100719,-0.38764793017152144,-0.35832123871039,-0.14933711729938248,-0.10544405273689295,-0.47185802748265204,-0.6700549467278414,-0.8713816546646571,-0.283791411236902,-0.6203176006338025,-0.5182846499362248,-0.9743436372173369,-0.35550001373988827,-0.007322512017641891,0.6030117592048458,0.9014852377831821,0.13844008338460156,-0.6684022412404409,0.09857445889127314,-0.8425324646315546,0.6894941947452458,-0.49507951979995046,0.5687466901084628,0.008724530650071172,0.7423526937907814,-0.8811515909964978,0.42652874502786786,-0.7784970232608468,0.8285840550855821,-0.7030599575108636,0.1615037350050461,-0.5486223957681389,-0.005534175661600527,0.22090725837039016,-0.8701635202372273,-0.899770798425495,0.8413409757605368,-0.2529681986490284,-0.8776082194048798,0.09005368240099743,0.2299059822821019,0.0006633266054361098,0.6790388169905524,-0.024727140606080278,0.7949783217017403,-0.4077355475565285,-0.7792328656510277,0.8316228325748951,-0.9927676892952577,0.18100632425559704,-0.626571347849733,-0.18215974294386394,0.6322271362678089,0.38354118101701085,0.8392650578985466,-0.6189804144504383,-0.5599768457408887,-0.23154030753379984,0.892452973502635,-0.3242859295525473,-0.5175025195128444,0.9574659705022537,0.43648686141241644,0.8214891897666226,-0.45555179245017063,0.3489017973426005,-0.05946804937545602,0.23429362753195626,-0.7675463398877678,0.12525063646978163,0.09472629542557787,0.6407176361153997,0.779749439928392,0.9225356133647569,0.738491356500433,0.5914520400641741
-0.7612401022871744,0.6499725204670734,0.471811144235583,-0.7953323969113273,-0.07107842271007225,0.13310462186750915,0.010710206161098856,-0.8429136728347288,-0.601771467089562,-0.4671819535515924,0.0928138855372791,-0.9097476367344182,-0.01274316893121874,-0.7618581155323803,0.03018925630902336,-0.16576703607770016,0.6002008080668335,-0.6921744259852196,-0.1152783682312386,0.8296298367706136,0.5583307608364247,-0.2547221933648671,0.9288393929709058,0.58291269187677,-0.8436375297047793,-0.45377350797130056,0.020531313959651465,-0.57468291152251,0.9756817790208903,-0.6901947813568936,-0.2477882297316274,-0.7846448807722983,0.2012543000764362,-0.6899538978031596,-0.297871808143084,0.48329117926727583,0.12104728956579391,0.37210046335169,-0.8131976510714358,-0.24105333307727328,-0.2470166207757265,-0.5382899093365383,-0.39025030983752473,0.5596146714306232,-0.5060722530082942,0.8746163118800203,-0.47264934909935774,-0.47908301887833904,0.34634582616996457,0.27506798976967106,0.37640704011944903,-0.3408006672998505,0.35256378780455977,0.13702528810107184,0.4408270845691711,-0.9760292030917648,-0.02413124162332947,0.7905742191706835,0.6575989499599975,0.19689187341982972,0.057430721764822446,0.8803328585418309,-0.44809687762089756,0.9997949255499234,-0.8718591433938423,0.47180895286645885,-0.05744135622039237,0.20576303587670508,-0.8840817044361844,-0.7376630993136621,-0.9657469609721174,0.909333194971166,-0.8707868224836446,0.5012260351948634,-0.07467964135689642,0.9153198476249018,0.38686088771601757,0.5045895379932592,0.6936696564332794,0.5316554548355896,-0.9960935777906716,0.046570738978324755,-0.41216113222448625,0.41372242860636943,0.4645637566930685,0.8807582384080734,0.11936329643719557,-0.09767465137949904,-0.2357812360858742,-0.24986095331221803,-0.73112660206968,0.7806198031107414,-0.8633872540663472,0.7114913395890934,0.6098897137643964,-0.8066247563200848,-0.8759180953120576,0.06926183345052261,-0.6203968470566708,-0.7665942462210238,0.34808527379715914,-0.7636698050676565,-0.5479707547672881,0.457835530835319,0.07273774592282267,-0.5459624379026615,0.7946398482827512,-0.7092803895616411,0.35291685429073305,0.23953721645440296,-0.0028900846889075016,-0.9844483793537673,-0.9150400039373385,0.9110010096999732,-0.7258063375513839,-0.6062590528300305,-0.05502612375172178,-0.033443429773941435,-0.49487928639339107,-0.005365245423312404,-0.0339172307357154,0.16123788219770052,-0.5886485431788517,0.5819981022501144,0.15974186963832038,-0.44367331697474066,-0.16191990465012718,-0.37224100290622153,0.8271762665081406,-0.9406670270166497,0.14610663010437208,0.2948407026274238,0.6875508620443369,0.6953457387953619,-0.46546376462029193,-0.8109003103128498,0.22524689312574675,-0.7941986770692455,0.3632888321492125,0.007684258376330799,-0.9001515227695234,0.39102727382795344,-0.7383777688561537,0.7695280054863576,-0.19797248997555528,-0.49299887588392344,0.14709453443689235,-0.10349189175230777,-0.8029570762520619,-0.5524788125513744,-0.9527241585229238,-0.8298721940846954,-0.6335524813656748,-0.07143407656239464,-0.13642830395206396,-0.3494908084571944,0.3820532441271882,-0.7583843885704622,0.3361879216998551,0.011310149405538095,0.8081219966479085,0.15444979502222722,-0.13219316655420155,0.041638338156356314,-0.003358787992297829,-0.48332347684049437,-0.14678788599435544,-0.3807339778292873,0.745961265968365,0.6421096356849836,-0.9357515253539574,0.8311416642719589,0.7578140680409886,-0.45948114011763286,0.4012731328009078,0.5678960921357532,-0.6824062695347131,0.9956364184209601,-0.008280771758539585,0.8236627398689162,0.8508151287425925,-0.41997040135031916,-0.15636422997238242,0.8872188004544259,-0.8256343251455902,0.6778468471870303,0.9660064120291447,0.8614352670590533,0.8592176801246438,0.35371022442520283,-0.8640360121694595,0.6773025572091502,0.9736905113999956,-0.6740883120945946,-0.8114489976056662,0.5625078918848079,-0.6862828188001557,-0.23646336174681903,-0.2663241261595979,0.3878387711748694,-0.5043853146923569,0.15984172877838754,0.6024456913720699,0.8957702360918589,0.3771533682125612,0.6177713767973163,0.1379054021994348,0.9788698808595688,0.8860793196823213,-0.8434730462713738,-0.47973048031777976,0.6109567299673744,0.22526544850409125,0.4945309627272336,0.8569668885306505,0.12692268167605958,0.6660171267478439,0.30917521581919494,0.945013333977986,-0.40708114416468955,0.036451719534416505,-0.16993971399326258,0.4487751039470982,0.04684113387928601,-0.15128813341747915,0.4453023894386694,0.7652851447842988,0.012624169592574619,0.4053808320512211,-0.258162452529461,-0.3905988130051672,-0.31448617563079373,-0.7736952395961032,-0.8437298079975528,-0.6173373602493808,0.07218968195876263,0.8721865210709765,0.02624175498347814,0.20555071794182522,-0.01498905648915727,0.43067086634232665,-0.7782709734141382,-0.6890354010409916,0.8655498705046996,-0.4703510519009697,0.15427936841640988,0.011745798921774186,0.9588036166921134,-0.9210514362585378,-0.5223046997676908,0.8994666447623125,0.5216211183948662,0.5382869772822101,0.06116323293973158,0.3740109974557735,-0.5867380550688037
-0.4870349699012586,0.7916200862373,-0.2734641999273957,0.7471755612683104,0.7092828486407641,0.7567774790825186,0.6714005472209879,-0.3796869375638441,0.5875863365564913,0.24607565308407842,-0.6060999633521429,-0.5950839363761622,0.26576259561033355,-0.6416593239617494,-0.8299237723070709,-0.013244200070842815,0.5512342449949903,0.6781348653931745,0.2577959745308682,0.25539814745190914,-0.2843607769808276,-0.00023939116003179883,-0.7706043303570997,0.3877580306764441,-0.20360486249802978,-0.45280601852804825,0.8053474959871469,0.8832164538019387,-0.19169732956942176,-0.6043664819872261,-0.2640639506684066,-0.753010107120913,0.272098256214355,-0.8054460822456653,0.22803391514142235,0.19844007479135217,0.9619375485852293,0.216009656839254,0.1298399813731732,0.1523001579817469,0.8022427479656233,0.5531133506137837,0.1397741584553378,-0.5803561430150848,0.5512757034590059,-0.5325604293816746,-0.07576051987552423,0.739924707226977,0.024158480530335202,-0.9426992788840185,-0.5029097576021768,0.1625385553847456,0.5789214438092471,-0.18928307757212592,-0.848781718951966,0.2659214281427966,-0.5665800749721583,-0.7297620419899316,-0.47276851196122505,0.22434383148338588,0.7459752179002932,-0.6101581165024799,-0.8348658414371173,-0.782514141772223,-0.9083888294037046,0.6511942786573734,0.3313164244948874,-0.7494497980247679,-0.509105024896604,0.8267904171511165,0.2814487764286542,0.31953877545999587,0.3026094361016489,-0.32802735595834775,-0.9886576747828522,-0.523114426497941,0.8895582005481482,-0.6901484529169621,0.39541494758574625,-0.2814147205177857,0.9809595038836199,-0.5329643932103072,0.833755628773948,-0.10070469856725617,-0.9998149132033918,0.2664926872332991,-0.6691405598538409,-0.3596345028147234,-0.12425797948049278,0.0008456409759525219,-0.047287254179511296,-0.5673537438998941,-0.5547981498628898,0.014587961865233146,0.5078658168956107,-0.8366332112046881,-0.29050179247146835,0.7449047168536558,-0.7827180500743642,-0.2831219622217753,-0.502719860023731,-0.51189532798232,0.45414890656042006,-0.3467606832153838,0.41359841317125845,0.43246382058727173,0.5231865315461146,0.3399910819305476,0.07985844316638713,0.54110352003514,0.8426665856132385,-0.5297341570430136,-0.9809503817332494,-0.9289339473850444,-0.4890671917905889,-0.10693730961402714,0.7458241813795876,0.057528093292605664,0.645278247535878,0.1764895473012571,0.03484034263505009,-0.7980569865078724,0.8743518936214485,-0.6677197488028472,-0.8995882148698919,-0.9635736629019556,-0.06900159081639146,0.3585032866802145,-0.11947222344223252,0.6608818467070006,0.29583992539878157,0.7979324239901788,0.5458812540465445,-0.3908060234761601,-0.7389563698974884,-0.5476260936634978,0.302683363764382,0.9889612860806749,0.2825034686311654,-0.009714682311050105,0.723355472251783,0.42028158296398654,-0.9122757998670956,0.21623913004251905,-0.6103604383267949,0.7072697118113642,-0.5114530093497294,0.41724780465700895,0.34887217108327984,-0.3527585823295105,-0.5022643785507175,0.6215582574777387,-0.5866585861279991,0.05846037961776007,0.2700794325766127,0.44923119539599665,-0.43175252449031465,0.23437559979587963,-0.23304096173913047,0.685116563731555,-0.7509179735073508,0.07912627227152491,0.21196869674687835,0.14527532750633743,-0.4901957450574026,-0.16192323541328268,0.8839948033345748,-0.9923974917534915,-0.7972471236907916,-0.44210306841789593,0.2750928593350075,-0.1762693062509222,0.7038493202323104,0.9094226040116526,-0.6610482116996785,-0.20437895888836555,0.500524320485519,0.1040303557026736,0.8812861532686525,0.2869837503345969,-0.22189149980584566,0.20028244886319713,-0.7763715340765083,0.7239767619369823,0.3432042786494798,-0.1046217108241172,-0.8778705942628495,0.1758113427886967,-0.11809348998075131,0.9507914339704404,0.6486869354831595,-0.43675232141747555,-0.7694112554937267,0.7374436085872105,-0.18901047786858083,-0.5445786487640256,0.7501624538339147,-0.19923973572243936,-0.15192415753843158,0.08431991872265554,0.4632779537463274,-0.9022506535883661,0.7306002332867201,-0.15622844841540906,-0.036725679827067426,-0.6626798858941694,-0.4738723847798738,0.4921244936877074,0.19995683518174845,-0.42318941790888287,-0.7949680583347245,0.9358473198982256,-0.6170697241769338,0.2310190409891153,0.006682305022045698,-0.24577674232217173,0.5538785083729401,0.07845126048800943,-0.027825343285476256,-0.42286586292983563,-0.5638285259621727,-0.2866210405606535,-0.2864560900109536,-0.22175588068601515,-0.666895493741112,-0.0819525720326364,-0.8402175482013772,-0.6906052990132929,-0.9104040365906085,-0.554626941938021,0.3629689173903554,0.7108415132505532,0.8829561988897057,-0.810090149364181,0.8804472860497359,0.9980121658932757,0.06614517244993556,-0.3605844919531518,-0.9966907753386329,-0.8091222017380366,0.62013634617648,-0.46388062076479275,0.5097538443423175,-0.9687553833059519,-0.7961972851880637,0.6905234913867406,-0.13352495802631226,0.6149213548525765,0.016829942567143208,0.5179591443142286,-0.18324768547505932,-0.48085086237661145,0.9726104594324152,0.9785161893956433,0.16869359024831243,0.8338184802806297
0.7123415632412253,-0.3015562969372656,-0.8480889710700004,0.5223197303114981,-0.09590938952670269,-0.49137731564354636,0.31655502787539924,-0.555427185110533,-0.6624409475028381,0.49512932326094505,0.692158235213129,-0.6948753371244347,0.3453234752900345,-0.17728020157822777,-0.07463604142078162,-0.8854732392250892,-0.8448090178577659,0.8957173190614938,-0.24361100352257448,0.841342579013852,0.019099706927538707,-0.8702414018398565,0.1821650978953384,-0.8523466175070462,0.4553273568307281,0.6171468004984306,0.02462328474772013,-0.006941338584983914,0.3924900205020365,0.1549884886594206,0.47189550989993045,-0.1399204717988789,-0.5922047001569164,0.4647089863575482,0.9017297504055579,0.33951113008756395,0.36232663670500753,-0.28294263350693427,-0.5749541047234603,0.961094164952305,-0.9547301367373067,-0.3195111021319754,0.48665211855459023,0.42957655644789194,-0.9660645691346823,0.5798250278719626,0.47382654720834694,-0.9207901127132616,0.7713197347281362,0.7515088231224549,0.1765693209131176,-0.6525270239197716,-0.7096585126649431,-0.37266011681603883,-0.2664109196369222,0.9260995947429214,0.9952298542715707,0.9614516259713244,-0.1231754632001909,-0.7684850678904271,-0.1105409197184799,0.9951184614294128,-0.8955537767081931,-0.2201454623049357,0.3581627055528229,-0.3061140212115483,0.670421696550876,0.9828587312324089,0.16718253938328886,0.048723580170898506,-0.440547105595406,0.018885831486980642,-0.544325838699486,-0.8567186292167879,-0.608813476989954,-0.13735811877995796,0.03886623954997548,-0.2663852066124017,-0.5669471398707722,0.39123926409756193,-0.7301699434170561,-0.4384301650280429,-0.4061699906369438,0.9679324487341738,0.2630040591984677,0.40093171620004675,0.946544648098675,0.21047993368219764,0.3669503459965171,0.5827147816524723,0.4967776254492027,0.8532424656958948,-0.5252459213047915,-0.31909676417741606,-0.6896417983839156,0.1175908495423128,0.8644938569911245,-0.27903660747744796,0.8435310213689904,0.8695992890551871,0.33969873155751906,-0.8425552651622226,-0.7360830801950573,-0.050581444888332605,-0.8593429889575614,-0.9736003808548406,0.37848809793577387,0.7048542357512801,0.579558118149436,-0.30904200128358017,0.10076845185476202,0.9346181943937986,0.5568327880227772,0.07859510449458074,-0.47949321397920075,-0.4161728572630119,-0.15710978993940117,-0.2987742630465935,-0.48596731120700776,0.549256277539327,0.40595228922295323,-0.020828038137963745,-0.8134810621872495,-0.08405938594108053,-0.7519294541656723,0.8547860157884377,-0.9450979105316124,0.45948636201668336,0.9232687058708255,0.20920187886837383,-0.6436146381982111,0.496124281106773,-0.305482258316343,-0.4948288050323677,-0.917536377008376,0.12376636833699295,-0.48836729713631133,-0.9281087363613529,-0.6210798199060867,0.34689919403462666,-0.7909675575471109,-0.16609776209086857,0.43930905889934113,0.7163266572496823,-0.1404349742741775,-0.06233802122665644,-0.9596253494396481,0.8430069336316917,0.5996299024511142,0.17295497791764225,0.9428825874058806,-0.948898881803532,0.9102197995173926,-0.9706716205307897,0.03197480938070796,-0.9683234432121892,0.20771572219672474,0.7557918150711014,-0.7459303733510472,-0.6648101557453472,-0.0603496954560947,0.583195303399729,-0.8099102592331151,-0.023460112495460095,-0.7406178520637543,0.5505729986206596,0.10675327662408707,-0.6531866464787757,-0.8230379430819055,0.132457089891439,-0.32345843720967427,0.7386500224989114,-0.7962039996149728,-0.7700936953642614,0.6093019838398277,0.8264466899264902,0.026563558630833928,0.9122771696846119,-0.3661938934489142,0.32382145405715534,0.022157606839280142,0.34456720051070366,-0.8351858960003866,0.8996045065499756,-0.5110490914118471,-0.7768257301377939,-0.8024246301440772,-0.1294579466903394,-0.6153009999086454,-0.9628691189244247,-0.19322739678233347,-0.06577590028834757,0.3592213884843647,0.23984679167482215,-0.48721410297195833,-0.18847299953421492,-0.6726172390258791,0.7474881891418785,-0.5462587184683825,0.7509733777291776,-0.8288252806432967,-0.2956170489980474,-0.3390135312950451,0.7667630663228071,0.22008747264891948,0.12057676665530259,0.26102955064268274,-0.5395282692474868,0.19044048686514858,-0.36829852240599714,-0.26853985964732696,0.18671137183000175,0.4522315521103393,0.38091372428447734,0.5010357663810554,0.6625071657408903,-0.4490658439134396,-0.5362014298823075,-0.054534480896035076,0.6756565740415705,0.9092840473122397,-0.29505770288549615,-0.3470889960863206,0.9442245511704523,0.31422060578695876,0.3553593078830808,0.028223687422981536,0.4939009510421277,-0.9774307368302395,-0.78663171179344,-0.2871576150903974,0.8070665384511082,0.6213814899382455,-0.9868312371268011,0.24636212552512649,0.1072115580432631,0.7527698346190881,0.10165276255064004,0.695837463160363,0.33204303070670593,0.14900345114373348,0.8243361249686649,0.8735497484603905,0.7983705189099135,-0.17719452222213916,0.13633176462213203,0.013703428530572825,-0.5495747758945249,0.8186461909169265,-0.571790769531942,-0.4742145907117452,-0.48281304944813463,0.19634824367350934,0.9205295998580014,-0.2230321755237592,0.8202648046054741
-0.7002105400605094,0.213110909877412,-0.1954656580866505,-0.8124307821911636,-0.964090693185454,-0.9784989299165034,-0.7265292083713106,-0.44900814372385733,0.9703504726031726,0.6223358495087807,0.8235033001797918,-0.019501976883621097,0.5610800099440045,-0.5815436171200525,0.14636028335106332,-0.40545470263877714,-0.10736707455248506,-0.8514657880188952,-0.17561755653124922,0.7312235306242385,0.8892734448092208,-0.725177416698934,0.1771793544617002,-0.9782701379381182,0.7539349425474433,0.5752420765779256,-0.4867715412258511,0.10318533208362224,0.022573961662074593,-0.25113853363473027,0.08610843817175051,0.11776899782202066,-0.3647926452972634,-0.529113177899271,-0.30115710151459396,-0.723044344515454,0.5679591899838523,0.7137491637326132,0.7913300412210409,-0.9449847630108732,0.1000891565835964,0.16902191168271807,0.8892119766565194,-0.9564087810191613,0.7893521303725282,-0.6744871174290317,-0.23366615298349536,0.5874381608515049,-0.40946627735490426,-0.6247328321295864,0.7517225175601707,0.5161214006652199,-0.9945395851877255,-0.056426351535309616,0.5510566904804266,0.8264472001126373,-0.7149968163120388,0.2368122711694094,-0.5319209501767848,0.969918529592456,-0.2560191084289807,0.7540589628934673,0.3023280507280697,-0.32120523667754686,0.40042601313787873,0.9447686516359717,0.46100620118987834,-0.4913237719391399,-0.8919706621632588,0.7012895534439043,-0.008362097138345348,-0.5786943304559269,-0.3874441691576025,0.04639977334943457,0.8224268072023657,-0.026472432335078455,0.6844779547590865,-0.3709064259721322,-0.5530023232143537,-0.1301980153287634,0.849953002065484,-0.09333982377423111,0.4892491538814201,0.5300179554619127,-0.6287487590177263,0.9571909990385412,-0.8142245768262018,0.6666889479784956,0.6733865186741552,0.28319976084004117,-0.536444292458951,0.9841778974891711,-0.9025073079931047,-0.11630097142479467,0.653415509628005,-0.5052478740136666,-0.7413135727329465,0.28585852861823824,0.3177099094071001,0.15535922498527355,-0.11175404439224423,-0.20560699079429434,0.19528343654331537,0.6872937970011512,0.9370759314824446,0.04638375205086365,-0.46445025669758455,-0.14532294100818244,0.8325307930182821,0.8420324639069214,0.297343233229298,-0.8075191427026931,-0.41749708403928354,0.4578205845438832,0.8948852781380343,-0.4671232789779818,0.2294057111362191,-0.7855554956961066,-0.692824835651582,0.04452325743307961,0.5209321340910154,0.9807268586573772,-0.446511503135985,-0.29163065565939816,0.643245795528941,-0.20721499185386572,-0.8216710562696941,-0.8890548429787275,-0.3204048861325124,-0.2691692102143437,0.8144334456819315,0.0536505746075131,-0.6210933822383797,0.12201706274597868,0.2635238534533677,-0.993106155389543,0.9062262634192861,-0.7502033003871764,0.5508058889307821,0.8075640994945441,0.29129235854050717,-0.5909821076212503,0.556293060376607,0.02315068513458196,-0.8797953176955249,-0.6070275231250346,0.48641505809450347,0.41761839029116166,0.08574361228715999,-0.2579506767697075,0.5325349097026266,0.70498516619155,-0.4241742124243353,0.5327787617369197,0.1706271870957612,-0.3027447462592059,-0.910662328705355,-0.2748052050723855,-0.44962239824146977,0.13134947279507325,0.6061518824106651,0.5437939551292532,-0.2526937170523933,0.7165122699715063,0.42533106622075256,0.612908519976181,0.513255991109155,-0.6388554041489358,0.5963180456658399,-0.6806824557321598,0.4845933524236714,0.3269942829016299,-0.7019147701496471,0.9807893985327791,-0.9645276531241984,-0.15988591160151988,0.9613837128582934,-0.562455433875225,-0.20810940540273304,-0.7971705926723962,-0.02545779817255167,0.4687034034812214,-0.4267199158079691,-0.6514087563275144,0.685733219118698,-2.0127668034497503e-06,-0.5066121271660138,-0.375645243949531,0.6294595504938383,0.9269738621031729,-0.22897365668408365,-0.4893010808439977,0.7209704946194821,-0.9355657180030006,-0.8539386091608727,0.7361427147211856,-0.19837745911471028,-0.7164660541975683,-0.035560234683546854,0.6396160739459835,0.3647118003533012,0.5268656908020137,0.5979106397806278,-0.22537109742827455,-0.6817455979653329,-0.6294979701253001,-0.7968767811130215,0.12761592685755452,0.6396396572864189,-0.3388521169013059,0.862412469721739,-0.9965881727894275,-0.22637224329662242,-0.6558646843763534,-0.7848774708916959,-0.06474828486941986,0.11393674081275385,0.008068251869035592,-0.1942938055413257,-0.4543629200045862,-0.04236097709614661,-0.4334971399047387,-0.3143763616577724,-0.47993356766161255,-0.4205783003312715,0.11258003441005959,-0.3559279628543268,-0.6266091553326423,0.5058047356033728,0.68538788509937,-0.6146736491864684,-0.6472145197265369,-0.18303460390951676,-0.9708720295065492,0.4817376061181884,0.46639237774656683,-0.7081688131123658,-0.8772809490867033,-0.19693345862371392,0.4297636200616888,-0.7934173669743709,0.24870193013358932,0.4709031897057818,-0.07963981045604962,-0.4920214420555542,-0.16722387673050965,0.5388928429251276,0.1543868416626315,-0.4857130042517428,-0.517494972853632,0.5505629517637263,0.48291892630676236,0.897870535397119,0.24150508156607864,0.32780623844741186,0.7723262313327706
-0.7478078378874737,0.0974492506900888,0.9943343972150813,0.1442927567857628,0.5623567769746909,0.7230500060334673,0.12567606843025625,-0.059478609741726585,-0.9232579819683573,-0.7973698878383377,0.5288630356537039,-0.30522088256432345,0.546258136122592,0.47064309464886356,-0.8855721082164196,0.4487799554323877,-0.3122684158629847,0.4708002055934657,-0.5749486409937004,0.654317976314994,-0.0017840907636679226,-0.37503949618446075,-0.058336715318160426,-0.571735470312029,0.42071460431542484,-0.24826963100307564,0.03644871896237989,0.3275415812133404,-0.9057154245492989,0.01689356787300489,0.3753418001499227,0.595573027083024,0.4191572752669055,-0.07386178926254772,0.07338368385784877,-0.5048185173642903,-0.5949818826334046,0.851049197115527,0.23167899316166296,-0.6411829310777217,-0.5031951570841557,0.4701752895524107,-0.06802543452970311,0.15825026779526952,-0.329630165565052,0.07934098554403124,-0.8386978799101057,-0.6854662310283521,0.07295033971141085,0.5015555338372528,0.3428071943184834,-0.44094116679724826,0.27911574708201337,0.3246721773950092,-0.43146708122472033,-0.7571698015748389,0.1649547544439347,0.8261421996502916,-0.05079572183320158,-0.3681176640389425,-0.29730197961717253,0.6742146877839668,-0.5832343986629966,-0.2638738954692985,-0.9147678522253906,0.6015034577773857,0.9283708845283001,-0.9585914796801673,-0.9942405190976433,-0.3187943817830867,0.8594461609515573,0.7334499509028409,0.5982413065099346,0.9453922133273522,-0.16189774576419036,-0.50014582599885,0.8773541553239843,0.8628546759058013,-0.3230471479734289,0.32037700493016996,-0.4636110765446695,0.5777251155070633,-0.43488692937910955,0.6372449384852634,0.23057316921536963,0.6944882971755799,0.02824607701944415,0.7819001032125932,-0.08652213767809025,0.553959160199597,-0.6417016799448396,-0.3464787253291226,0.606788625578492,0.8516704667760226,-0.6577843477032548,0.40205492806412546,0.10265175317806063,0.24052127563147363,-0.03909890128635207,0.16066934136093702,-0.3420408954859617,0.8933620985565478,0.38330539139774955,-0.46758829764092935,0.7155540329072718,-0.2756084899505309,0.2872089198760017,0.3649520422204364,0.6293997245362366,0.09251132192313949,0.9053779994972628,0.7952985885647481,-0.488509766865866,-0.828406728544751,-0.16207338540846106,-0.12390700382469277,-0.3347233266020382,0.6563769403881006,0.01882572828311857,0.6915948934694112,0.6875095454240066,-0.835745772201471,-0.9877746211462586,0.9109094830701012,-0.9947706026025618,0.5277664184811597,-0.30776002308673234,-0.5525306513088535,0.22018425313432832,0.9242692938514487,-0.7479644974008892,-0.7272647297716757,-0.553290931229591,0.831423888905906,0.16622090155679725,-0.12936786613985984,0.8080029848916959,-0.1489543722264488,0.44737055259939007,-0.5312468110921611,0.924314654956256,-0.10404713582559522,-0.1755062657257236,-0.7178190509011906,-0.4469577606403865,0.9386532505744443,-0.5362621422432794,0.9212105614583368,-0.5017678866273692,0.7705351094403359,0.4081635115790043,-0.9627131308473758,0.02286315280003226,0.24997412543447028,-0.6519715835667337,0.8229734615791291,0.9538705205095803,-0.532428916355858,0.7208135135418068,0.11700051088837138,-0.7915362245790936,-0.36552176570664874,-0.31300696091914637,-0.26965295679860946,0.28344693692405865,0.3064279799697496,-0.3846655435732811,-0.8473621485834983,0.1029622837835622,0.03605119569365933,0.0742534655874898,0.7116050214243439,-0.7894855465340564,-0.8702194153694711,0.5654732745404829,-0.467831875847704,0.9331939777299079,0.12297867247726835,0.9064144446194411,0.25087602546119303,0.878927879309561,0.7453467140462862,-0.43082808805800354,0.8091192933593894,-0.20906075213537179,0.7764982657944066,0.8687402698092819,-0.8544390061955864,-0.8222622717696628,0.9022841921695883,-0.6340192091723298,-0.17922872690315073,0.30447320216472895,-0.8848959185387248,0.37713417610218847,-0.11699085337818604,-0.290364199537386,-0.6789587173226939,0.9435720173556519,-0.03320952854965964,-0.4405322950207946,-0.027686365632574317,-0.5942823631303022,0.19861125777784605,-0.20901393725844342,-0.7581849086553836,-0.024572961450938235,0.5306362001585714,0.2627963644185405,0.5908405460462707,0.9991061547951319,-0.2808584163534926,-0.6595210007449108,0.08062223687770875,0.9206874142956163,-0.9946860375115987,-0.587716177573558,-0.22516607214591744,0.5521930567675961,-0.0687307838280089,0.81247959810328,-0.3460809133961733,-0.2558273856218021,0.1662331881710073,-0.09475613083775647,0.5548758972229815,-0.4149219756496858,0.8012865815026846,-0.33176757872584384,0.33347779254948207,0.8895177331280775,0.6379117340629734,-0.8760841169919644,-0.22673246867070618,0.6691239642207782,-0.8202329295986728,-0.44390929971786,0.7616296033344061,-0.5654058467491021,-0.29061528230691414,0.9735055442842169,-0.596434984058895,-0.2651467100425158,0.15623089493939513,0.06861536704308757,0.47329380034512414,-0.04014701326428183,-0.45351303049181024,0.026440738718951584,0.4013776375208564,-0.16911311394813122,-0.2326226966329954,-0.15342740248215958,0.4737337201757412,0.5980694516500158,-0.11728604032486967
