0.14204651832479567,0.1822933618253049,0.18052605264119745,0.03880294450365032,0.18139102266653873,-0.1005057795969976,-0.6143009128531322,-0.37299289756593196,-0.40219859435301875,-0.24850083158280187,0.11946153820177197,0.14807763205149835,0.3079679484469514,0.15365810074552363,-0.013139208388680454,0.11880436088392073,0.17949819729355948,0.21668712627095632,0.013403971863537005,-0.003406942875174746,-0.5535434670270531,-0.597256211436091,-0.5276245151775566,-0.11485084313722602,-0.16724008959665412,-0.1617001814377995,-0.1016739208192466,0.29827267080194203,0.0020758295105221466,0.18237998679157041,0.248683684255376,0.11803924388989234,0.26676348467640454,-0.0032065322881035556,-0.03147887541748293,-0.29312982998208115,-0.2765784354779657,-0.443460371774508,-0.4482752380751664,-0.21895575257401184,0.22876805661717836,0.15037281247217693,-0.05591348202782316,-0.14595573317226382,-0.01643873804860676,0.033941002034415066,0.37011454714187,0.26800243934987045,0.03206916869535121,-0.014303310500771731,-0.2553977381736314,0.10487011894388737,-0.30593411249821445,-0.13831793120026944,-0.14505257611513386,-0.2325696970193698,-0.12079959107262478,0.3295333917507138,-0.0577808429524496,-0.04464782741975757,0.0838589611547134,0.13215639817768637,0.10369620259922992,0.12283858546384997,-0.03355002062625846,-0.18373838086109526,0.16502912616180745,0.02396830832199444,-0.23668577860970288,-0.19597662719144082,0.03892420924386656,-0.03747176245832622,-0.117511151430836,-0.28926475873534585,0.33251407304933794,-0.03125305326378552,0.3830468881150056,0.16870679915014256,-0.017534438634159422,-0.11581945466684444,0.11831795309519581,-0.16649435797169043,-0.07224945481372233,-0.1570539764340717,0.04500939474680059,-0.37341771987961964,0.32547232755250766,0.4072181821794196,0.004809820886423439,0.08576589814374855,-0.39246998877370476,0.13488154472568034,-0.043956032803030703,-0.08532902187365185,-0.3017303616875941,-0.14577077851412537,-0.032380892582106566,0.16516154645747566,-0.3928821980831858,-0.06014484996006463,-0.26250684181407113,0.5145327556507218,0.04654993961211833,-0.05670286684554995,0.25564365886925605,0.2531951781185008,0.3754764125222735,-0.727488598422691,-0.46665990631772875,-0.28114510885614213,-0.2422199552012838,-0.12523469765232023,-0.22150711821890073,-0.10028488138645965,0.19915114625366132,-0.17947808519939173,0.45366910300847446,-0.48054507575608957,0.027911268453042287,0.4446039924622124,0.003987524169080687,-0.3270659909941503,-0.4564242481043254,-0.2651816792143968,-0.09543286064589715,-0.2808558517904175,0.08727301597740102,-0.07065471117396825,0.004578255455950888,-0.28200970727873287,0.10236374080276782,-0.1543914042209744,-0.13531040824136834,0.40846528349641087,-0.280965602053957,-0.012924365331105948,0.31091800031540945,-0.3015265992522664,-0.34458128823265805,-0.13550636184218015,-0.37996268746742845,-0.2196355001631838,-0.15233205926142443,0.07849835121690447,-0.058819902691591944,0.2351341752484797,-0.21417795953663088,-0.07340028789066082,-0.642581183992728,-0.13579374740414438,0.31026959948990157,0.27063042103432333,-0.474052213462697,-0.3728430215487807,0.09983530546534695,-0.19078221355468786,-0.2604338342315226,-0.1767881574800768,-0.3367280529198999,-0.09630279002444571,-0.27370402644988984,-0.07537054204971771,-0.022678240306583324,0.14805146527182875,-0.047737082569851694,-0.3797122030330229,-0.32876842307195037,-0.05848312810531392,-0.03291126212521581,-0.41214711874668053,-0.5930817627172278,-0.006433623052076226,-0.4560115528437536,-0.5076793305147079,-0.39193669061051684,-0.631434163891974,0.004982812399765574,-0.1378113515208935,0.050971029032324304,-0.17428078689319676,-0.10758205762341974,-0.09696694080044038,-0.07369264109207935,-0.10224759754593245,-0.3175426541070165,-0.3355549482055845,-0.32845758742528264,-0.3100212612123308,-0.16335415591393745,-0.7558877844207503,-0.8988040374771428,-0.5541874602410731,0.18188400800628302,0.024354318111729025,0.14838250051736218,0.06377119215017209,-0.17616773061872903,-0.1825690022582722,0.053936986661547254,-0.3396148105249268,0.23536850670492973,-0.027271786011628763,-0.19185627515753917,-0.22368754816947875,-0.5174442516117256,-1.184079399171365,-0.7294649639720898,-0.13930496292965577,0.23101886482106984,0.21528914788867418,0.09424383677613431,-0.0073185426276217444,0.3094454039893833,0.3167505539200879,0.23524387296462565,0.07878518306512339,-0.16985101744480285,0.3213976720335168,0.11112899859338606,-0.3304026434137494,-0.12603253603049108,-0.11200422026527668,-0.5972680993397363,0.21919198458690947,0.19697950804637013,0.25803197691175833,0.2966429954109147,0.1630166512427019,0.2037713043688529,0.36562534275127984,0.2724829102339682,0.415584467741165,0.20188618848913864,0.3029268064723055,0.3817162822764093,0.29276630745506577,-0.3965925027718674,0.0014907037772169342,-0.011267563678446004,-0.2659579341867697,0.1535444062374997,0.2378360435911423,0.2551633499936144,0.3111881030713176,0.22534375885694338,0.298138296103766,0.23431131812171063,0.20839818778647762,0.3881464862666334,0.3704487538840566,0.4214137679267225,0.34618568068887473,-0.0469887136022652,-0.3683912220814031,0.14729904137875535,-0.026873451453712737,0.19611057210873328,0.08076615561576166,-0.0034687882941873654,-0.09801897107664886,-0.39947616266718194,-0.3444893638307396,-0.3548078417652749,-0.04881775412780604,-0.06440015919134069,0.06382600188990371,0.29553729334786416,-0.04246559898685257,0.15421691985957983,0.06213191517552611,0.1561864802290572,0.19272459615784435,0.10033310943021814,0.022180297063281333,0.07525726049109902,-0.007422796934071399,-0.4975881020187208,-0.11789419616960482,-0.18345566338592859,-0.48756897712737257,-0.7158813149877455,0.0010510755291564503,0.014711900032924757,0.3032576471260494,0.18972855289638152,0.0883300432254475,0.05534437135647162,0.09559864673768488,0.03251926339421031,0.03308103505355446,0.2666592950066561,-0.2309592856469424,0.1467177146836401,-0.1758187415487965,-0.5362112950854443,-0.418776807508064,-0.36867651732877527,-0.49001824156416146,-0.13785731672537183,0.2812422699870097,0.4886812619949381,0.25627980886200885,-0.008721343052702989,0.0027443421882093603,-0.14961542672603223,0.32514053168687457,0.06303427671559367,0.11678966009585681,-0.3613580559966396,-0.4329837641532317,0.04631852371451929,0.4568986316654139,-0.20557371773307725,-0.6486650016131285,-0.31945200169731797,0.27008207401519957,0.11732901036460168,0.14730435940824185,0.03069621341730247,0.20432938510749307,0.09376429123037018,0.1945818059444874,0.018746356505854888,-0.39439271430034234,-0.0019050829376054952,0.18028481533855875,-0.041403344393500685,0.020137735941078132,0.15897276829270746,0.09201542170000986,0.009935064008172885,-0.563375239458363,0.015837276434298556,-0.11689422712300576,0.23233967342899137,0.19768420952348817,-0.029776586417546425,-0.1661597072832679,-0.02147941891017353,0.18938960084174397,0.2813257300783164,-0.46854916965161514,-0.04290169579918572,-0.07045538060497938,0.3333169566207963,0.09131823039301815,-0.7281400419991133,0.18568349360229822,-0.2213706739978312,-0.12413490280756091,0.10738353586058577,0.07600753864940403,-0.2955718169714597,-0.14306566668138337,0.16599961424665433,0.4231268144751219,-0.3937479589664138,0.33638480036090085,-0.27847175423894066,0.2068801544020001,0.36504595979826227,-0.7424216262844837,-0.06193809369982638,-0.4596556413085897,-0.025223744742323372,0.015336725832115872,-0.15227526017976326,0.014252403629944442,-0.01862085356471383,-0.17121891666597885,-0.00643439027769231,-0.28378134934496574,0.314924760068623,-0.3114158089807806,0.4668820146732888,0.4633939964477516,-0.43337615085623077,0.12785823659779524,-0.2711632371955882,-0.2316084767817544,0.12211600153018667,-0.6430964107698425,-0.18577551618432436,-0.20038727978925716,-0.0584768041458263,-0.2983497560674059,-0.32913908593089797,0.06188078826671759,-0.07322253870266221,0.09048640507297759,0.1388423204407093,-0.2841259080697427,0.3913394775103579,0.4250741202457479,-0.2294839068107266,-0.48305652260535564,-0.7863226301178978,0.025219742726817988,-0.05053093024870643,-0.15616927432774433,-0.08127657207904627,-0.23113751761183599,-0.5313590723269043,0.057912141281874434,-0.15819470654972972,-0.07557209761768376,-0.3004736342886407,-0.007352506966035089,0.1006173210097563,-0.0044007923961787805,-0.4844627807607094,-0.6096187776190335,0.3052939318417997,9.681758136407216e-05,-0.4928805486264501,0.10126976188654127,0.1872196985822779,-0.14874659627029793,-0.1420579402865893,-0.4864550312648956,-0.5058758577106804,-0.005804041228271048,-0.3338091058301961,-0.32443055083922323,-0.1411938684727222,-0.054207441385528375,-0.18115752416654637,-0.18475869662968059,-1.048556281358832,-0.9946941907423109,-0.17286297822684438,0.008965655858018288,0.35506584480477316,0.30860768867400745,0.019650434094896717,-0.5704909298270542,-0.10704249041728783,-0.13550165326018163,-0.16628630316636986,-0.19491384344226323,-0.5872178653542288,-0.043725280267688627,-0.04579298273390599,-1.1151236488953518,-0.9626963816625802,-0.33528871367225105,-0.4399206947952892,-0.16592307966015288,0.2706849429260105,0.29091774976307117,0.2827452494474636,0.22177708187989723,0.11095326476010102,-0.21860106967428278,0.08908635033902143,-0.09127976699346903,0.14265823957439233,-0.32104321394910695,-0.29785368460168477,-0.2990314285756769,-0.6362510193697429,-1.0114720397726915,-0.5656227982915621,-0.4085267129321659,0.1034286558313211,0.3169396139086798,0.47837563627071933,0.279803839129281,0.17592421501484384,0.13627803914980866,0.2822114477059134,0.5000099400305207,0.053031727739304514,0.14027683961100387,0.43323257829351763,0.1878270676738272,-0.5744293739010833,-0.7532821174629434,-0.6245884098185467,-0.6041215007291441,0.08383631878490234,0.18721430233534947,0.30544097537575066,0.43143897222440164,0.27808761888741007,0.1622623774884035,0.2788818069916783,0.2780438706595255,0.4706767764699552,0.769380636673241,0.3895407283995923,0.4471375698462344,-0.046321182484060516,-0.37921844225555884,-0.6475056142938139,-0.4359598536562366,0.061351550313015264,0.13780596561628664,0.17267951263426423,0.24903504089935816,0.19174831493570874,0.22461117220885624,0.27324907162941237,0.2024068673133603,0.35686007993027213,0.16543322981179925,0.4484537238510315,0.5184846783845378,0.5519506168439001,0.10501355492178854,-0.21515463812035834,0.0027542773182010994,0.1001900815827633,0.12546456978873996,0.045081946955179565,-0.010915349837633766,-0.26124007175479286,-0.048729822498821074,-0.47956247340509445,-0.05677312507446358,-0.38343740225206446,0.07599011986881997,0.09859623398827878,-0.06968381597268261,0.2108277619499858,0.19290309905514422,0.11844354260146038,0.10586766611663295,0.10422063030408253,0.05312245454862663,0.09826703052162418,-0.2980363223631971,-0.316393917499678,-0.016401670580122,-0.7676410592594616,-0.1390962724956289,-0.4201610345906566,0.11636388381153923,-0.018801371309006637,-0.09936442816720477,0.26353228440829063,0.1778414161786222,0.14559089668248895,0.08085926361811258,-0.053627389810729426,0.16658626146711664,0.01448693044271442,-0.21147721487090212,-0.26628570601536283,-0.008042271094688998,-0.5086699915789189,-0.14295186447789154,-0.4416538599612772,0.19779861330407705,-0.17403282400137293,-0.021535836819037615,0.22044056648930513,0.12391254679884126,0.19451792274085714,0.17094598125083701,-0.08454549013290574,0.20290484015213467,-0.03282089486685146,-0.3315769208265128,0.05411561481970705,-0.02265473115804223,-0.1881686600923373,-0.04731535245856775,-0.2951332435939392,0.09012363961045501,0.10292898009657163,-0.3596383228566585,0.3194321686540352,-0.03117410377432458,0.17375878410141243,0.17143042713060438,0.023630984615189386,0.20753317616576994,-0.21624679685954545,-0.17516189852076383,0.22058679109793383,-0.28019688317047803,0.1195131812245434,0.010146258165218561,-0.26160954817643384,0.1771284339401111,0.11858720763018477,-0.2236483568338824,0.169403224672889,-0.09740250921010954,0.14349553412356184,0.1405648988223327,0.08676666372504885,0.16455952792374587,-0.27259497667361565,-0.13777562895818948,0.18659653601283924,-0.07940618686648741,0.012873332625668069,0.10298935494106998,-0.08407492306659674,-0.1694508403879385,0.4363180933235094,-0.5598041950905609,0.03577465508488828,-0.1838355044149188,0.08149438569449727,-0.06313360044940515,0.028528825831112447,0.11394028532776308,-0.18860257898569227,-0.23799203333034494,0.4580709476447496,-0.25359334990599514,0.07460245641602341,0.3814171416931864,-0.2475026281664482,-0.19305741133550602,0.27220937932527306,-0.46926038095690986,-0.15633353230431052,-0.4261661002859658,0.1699942555666168,-0.2600474349099137,-0.04442704803211635,0.12205765729256152,-0.1232683042465315,-0.20475584990302742,0.14920869986652074,0.1684064950278488,-0.09690573721897348,0.2883873004582121,-0.17224956183144044,-0.36459726577389745,0.34890418323410466,-0.5556925409440053,-0.2981990387716833,-0.30953172535386836,0.1635959010386663,-0.243721927014972,-0.09004081219076147,0.08496326893000462,-0.2025643264275308,-0.13369847314291963,-0.036273198513833343,0.07877548827945487,-0.06053045798844861,0.29739229929051125,-0.23876884010737853,-0.11491414121776415,0.02420530827100315,-0.2964182870938214,-0.31369854133035513,-0.2795545157339256,-0.026432778501761137,-0.07057829239808855,-0.09412113052759813,0.02189104506673149,-0.35055594778381555,0.04035580465640841,-0.5297927474374376,0.3408418544721167,-0.39677834475187596,-0.0032928898615817047,0.021968628032998583,-0.2437414853507369,-0.25227850413627295,0.09297327452564214,-0.48385543101229994,-0.1994299454360547,-0.036905147390735554,-0.0302288181366271,-0.073049955034621,0.025846513860399663,-0.20675813680953425,-0.12607974445647616,-0.34283377375498253,0.03943899997690259,-0.5570555788371727,0.025570961273684363,-0.18889370030531694,-0.3588892147966272,-0.40401306471491005,-0.24997012752999762,-0.5222041555288753,-0.5425840364508053,-0.2993441897996299,-0.1716647058394337,0.14721925264164085,-0.05268780179389526,0.09718739523706596,-0.2759555009782129,0.0995035994384179,-0.21601237727332226,-0.3794797704102507,-0.2291855331650865,0.03473252394054598,-0.38035892072761873,-0.5983567208064322,-0.30871275506977347,-0.5070982530588766,-0.8054593848499546,-0.24435027055655703,-0.2928766498441651,0.30897666985871536,0.02762840271813872,0.2679949158129695,-0.21593906937078094,0.45462468193306604,-0.23328221296943602,-0.07110587602380641,-0.06089703856333774,-0.000625235435325121,-0.03875214425267241,-0.35753307424787206,-0.5951623467819102,-0.4045679657769987,-0.624159107593745,-0.5832572026428575,-0.2574324381747231,0.30689824665654164,0.10416625724632696,0.2700212736246137,0.06044669347492533,0.5715904710367539,-0.01242753820945336,0.2387419900575761,0.1693231336314857,0.24850532190278293,0.31448917497287343,-0.14563587907722186,-0.1326572723483368,-0.30596875770832827,-0.1578252284008664,-0.40505637594327093,-0.33191682671151335,0.2363127434443739,0.2171233549428768,0.22891242584753463,0.18965351254482712,0.452550842393641,0.20920635293164078,0.25007814761102326,0.405684873884771,0.2894619400802274,0.5384727788782784,0.2236162691365678,0.16442995441781685,-0.1431823678770364,0.11823526352898873,-0.24848416568079898,-0.34986486566000663,0.15461194110101564,0.24013040442257097,0.12414715289408407,0.24110013741132932,0.2678220321729626,0.2285000096495535,0.2236027920382696,0.2675250329373007,0.33298755855967227,0.42569976787027103,0.3036250914662862,0.28562023887186133,0.13243168934217847,0.1518735952780499,0.04727459074669887,-0.2468130616760932,0.1001604692413429,0.06581474804501786,-0.017794021368419503,0.03920372689775988,0.0006611881501103666,-0.07853042415721669,-0.1497578806988024,-0.07066710597792678,0.03470243110321149,0.1784309412425618,0.1893325651081401,0.31720477924925855,0.23123409555775076,0.163038885233526,0.12470784905767092,0.15438520656967028,0.16227729051017423,0.15435144119666755,0.13811859207703323,-0.1325738376067816,-0.21010992901319134,-0.11615114332552122,0.08966616792883608,0.0050924567589333445,-0.2976420812014163,-0.3888191721413809,-0.12789167359340872,0.01965596066007046,0.17781523104370026,0.12307107289911447,0.1379505520272976,0.09115851094440254,0.07957755907429287,0.1258278381212525,-0.009938905353941891,0.13597447357782338,-0.09771941675247321,-0.3422419536537691,-0.6872099955423827,-0.43767768168746635,-0.2091400135154157,-0.05607693824469146,-0.1504436605212514,-0.03631302214190298,0.09887160771455003,0.2082196888252143,0.21244153672768643,0.21724873405470554,0.03586681669579058,-0.0498925589827815,0.08496526128979044,-0.26199098856450076,-0.4691389009202353,-0.5144023757889937,-0.07026924537100941,0.16459610055399743,0.11408130232231571,-0.04576831560985554,0.14604543920178226,0.19426199053282367,0.2035594148790269,-0.07250503018753382,-0.0658190126487784,-0.027129503544462613,0.08135255440863072,0.14021016851480814,-0.005983948852852199,-0.09171069075768719,-0.020526958639754896,0.06792314313036335,0.02345573372242312,-0.1724103640758303,-0.20114552546606576,0.033567425050672575,-0.03829659329340337,0.10080899897032229,0.03511746828922516,0.19231502530797515,0.12498510941095857,0.10436988675977955,-0.16974462030067455,-0.19800609209033285,-0.08662267339665582,0.2090624614613952,-0.01605403890041608,-0.09312468844026758,-0.10250923371672883,0.2615636757389479,0.11178289708059198,-0.5966423430089329,-0.6466278225365679,-0.6912165618099209,-0.15890593993309307,-0.2584143041989144,-0.13765923190936247,-0.04673865864872272,-0.04310354464606059,-0.06260704081168664,0.09673630393885024,-0.19675466898383948,0.07106367914316616,-0.08386318910509723,0.2003875281559726,0.19811695595736484,0.3404736783374068,0.5276861502271345,0.04783247472887789,-0.09305255070795658,-0.16571167655632538,-0.04902522556831756,0.07069782848312291,0.008042375942293144,-0.04338662079003327,-0.013125222055456335,-0.07057681431284565,0.0324473643471266,-0.37928661562045884,-0.15832692846383004,-0.03453567641078392,0.12906246929167464,-0.09308729181265436,-0.4848722885204261,-0.09643670851390926,0.24637686129869307,0.2965694347084918,0.03915739465582,-0.22690287483689855,-0.07709535785986443,-0.2457553168883754,-0.33203035212520643,-0.32217209283567655,-0.04581575024204383,0.2803477958165222,0.19390066697497077,-0.0955069459665418,-0.04570457820267422,0.17412856058862686,0.19953572350713863,-0.4414065387337885,-1.1339841589884052,-1.0959449979452542,-0.7952660178511619,-0.2629431626150748,-0.049402655025874403,0.17013011129462882,0.01532873700108472,-0.04448444001424214,-0.3046699340146032,-0.36669414825739194,-0.21878504587190056,0.07952320308941842,0.07026099572162375,-0.23424134123024953,-0.43696212150303243,-0.37555818527630797,0.1208660720221971,0.3581018556754087,0.26455578382399425,-0.06026643089390927,-0.1850074731811123,-0.024461171632884016,0.0490134454100719,0.1303750096765962,0.1690468972419104,-0.09948296536706985,-0.32746824780123734,-0.39963131049774064,-0.1830440610341935,-0.08789508940292214,-0.06355778966121681,-0.10185940689916889,-0.578709143883749,-1.053176592479714,-1.2925637763710616,-0.9763987201200978,-0.4178915392408663,0.04406460701726732,-0.04149765136718587,-0.28129973946924786,-0.262595478052918,-0.05494283057711458,0.32638998981222433,0.3758188121642126,0.0390204032275113,-0.12658444274049288,-0.14298155410953078,-0.26790783537249024,-0.35957155566340937,-0.24784912494022113,-0.01686473857129198,0.059921051781071155,0.10201624883262231,0.1862721526456966,0.185504026627963,0.30053152288516183,0.15383580221134066,-0.08101408458846547,-0.2852881757546529,-0.2220914358674787,0.1367451524543885,0.16851340259223407,0.2185672537907903,0.03734916838535933,-0.1401287861981058,-0.5602955623298796,-0.8700425091916414,-0.8544706122228933,-0.45539342586767956,0.1776707647486974,0.19688440242461225,0.1793382654743561,0.07944971569403919,0.14028730161428396,0.21038765921668795,0.23165961256208598,-0.10570981441676072,-0.18807957591892704,-0.019318340109726037,0.23858263178581499,0.2178601357992465,-0.0527205717412602,-0.3075145520548036,-0.3653482474258456,-0.3414793607866307,0.12812577247179852,0.21780138166433213,0.26784812860025403,0.1569141341683034,0.055718802219409946,0.03168864644594931,0.12464047575317895,0.204481634349583,0.3243751086787251,0.2886662525992762,0.13093924388301795,-0.2766641513394488,-0.5614330190102378,-0.6939299522579295,-0.5143538211502271,-0.12295340960105244,0.15025205918013895,0.17920394238513565,0.24537209756738293,0.2508348450000033,0.26540346213076493,0.24433796504860417,0.2581680043589894,0.2616468195240759,0.1431920723624901,0.156896405223474,0.197630022742906,0.36709522010068724,0.23198617551570475,0.11082062460729272,0.08191797284085388,0.028497058947173227
-0.07818109134220341,-0.07069258640319549,0.1392787774331316,-0.13776977880142452,-0.4184573804222015,-0.09687590073293628,-0.017004432541981092,0.28568109981193773,0.30792337584512725,0.2005579314646019,0.11130076735150307,0.47358183145789406,0.2594190863465053,0.18083456210449833,0.08053874456866947,0.11303143040336543,0.13140129935976563,-0.19092124819381937,-0.45555404658907217,-0.2621197031236428,-0.08597205481560445,0.07942075269053928,0.26767434401992946,0.1557016008595614,0.4245564177480934,0.3494712878193472,0.32695712664983184,0.3538001907059993,0.44301939482424213,0.2857609775737694,0.1383528391356063,0.10075430320638046,-0.2015547870074143,-0.17361532278650585,-0.3651875257324684,-0.42111315534827387,0.18195325797610032,0.41250606129155937,0.40195886888599824,0.4070633504690743,0.2766337568468247,0.15065840934228103,0.14819807203561108,0.2662220513921435,0.07214127837164952,0.1776692163389294,0.2130401196406402,0.04524370104376688,-0.09229581813637291,-0.5331562956013752,-0.2475148399893887,-0.07347357264018015,0.2332335826784033,0.2210952115836249,0.3751469426263378,0.27186452489298996,-0.19562805732900557,-0.17800751283051747,0.16999602653062326,0.4859049044484939,0.2983519716213878,0.12344014193687586,0.1427408894288877,0.019121471030951683,-0.21467018906594942,-0.2781399499114252,-0.26364589821587914,0.053681405780925895,0.2832048230205572,0.02954576550303753,0.00957041733278698,-0.1572688866365159,-0.019495543247157583,-0.35811765979139276,0.25395020806322777,0.3440134477043283,0.695804453097638,-0.053377538842933676,-0.06331200385252732,0.01715102750074829,-0.3021614160109537,-0.4024742956891628,-0.0652870441004247,0.24593550501542888,0.12900681686981547,0.11397946918348956,-0.16265816069898908,-0.5626988958325582,-0.2398834897177932,0.25467321539492915,0.3405966468471851,0.3714231847946277,0.32909503228695336,0.2326441872288759,-0.18526596537644735,0.04518096633125921,-0.10361672553743033,-0.35632616567455067,0.0867068379058909,-0.09266176332093326,0.2043964561192854,-0.18924631719626628,0.2197962545926284,-0.07232416194652373,-0.21124700715746544,0.2797996593082115,0.07685463751694231,0.14612885191817077,0.03189884898683189,0.12602164323427,-0.004566589579722921,0.049320957073415155,-0.04246878025209089,0.03141936515232967,-0.15235363522378287,0.09080734118551245,0.013433490939448432,-0.22453923443816767,-0.4389752719923299,-0.08053323100850089,-0.0027258785769644473,0.0875189393498592,0.7544195021600074,0.008885248051952432,-0.761740635592437,-0.2062117749090064,0.02002590258404123,0.0046689199954141666,0.09234356358386173,-0.08674372985125697,0.35615666576449073,-0.08524984296954147,-0.34401935490426905,-0.06489387058193546,-0.6142910454942542,-0.48205875902094636,-0.4433673153613282,0.12467918201232066,-0.08350466459739189,0.03953601078852561,-0.9761910147266138,-0.5840846459027287,-0.2214957008535303,-0.15770709695510446,0.2056523368030702,0.1650163334485671,-0.7363168294210746,-0.15674202925461855,-1.0311725442792892,-1.1124071862597722,-0.07437106412753197,0.03789613754348712,-0.24551259636370837,-0.3516137226997414,-0.8327324262293931,-0.3279053335263778,0.11739813394562233,-0.37365296794398184,0.36651897717761284,-0.6161886980782083,-0.4170436733344375,-0.5194529764966197,-0.3557879098399884,-0.824278718649688,-0.2583081815845872,-0.09790320362418908,-0.26692460346361785,0.12050729772096551,-0.21174299775579652,-0.24854066639204375,-0.026447774559800692,-0.6288275875756747,0.2899667093258409,0.0994321132481295,-0.13941744502612488,0.29732447465832673,-0.4562149376189367,-0.6198940912839177,-0.586073752499319,0.13003955198092115,0.22599881216962003,0.47013123663890993,0.2354659026427119,0.048643190086428645,0.05056063218677687,0.14811218370427134,0.7895626395099247,0.4817765752432385,-0.30310223816276644,-0.17294963103490543,-0.5292199028566275,-0.24915987537246959,-0.12753536412873973,0.14546861392286825,0.5088532509363273,-0.02798373579223913,0.3121901524967914,-0.05911440662525451,-0.4483141026631958,-0.20676276292000254,0.6070663358591178,0.3069879050152143,0.1982679935665865,-0.07361661279326445,-0.43121888748401443,-0.4181343188133978,-0.20153901006594505,-0.2588375445887273,0.18702198392812255,0.3192455691202688,0.300033169024087,-0.22509752047446427,-0.23712574846826426,-0.07388590155749468,-0.3294070527324405,-0.45392577225122605,-0.016180629975020903,0.07870513002604577,-0.14677649696351858,-0.5339997402522442,-0.39152509661199814,-0.43397509057690425,-0.16049295573288022,-0.00802870847811695,-0.043692638766332614,0.07506424475676324,-0.0939672543515936,-0.16327208301104798,-0.6867078330540222,-0.5115919988481846,0.22097526273522497,-0.30788284640621605,-0.27570212037696495,-0.288333442192438,-0.3087240100921431,-0.5868431733789176,0.06968002068191696,0.37487788206638756,0.1306797050671677,-0.13891218150418602,0.034284191228399846,-0.0983703458253133,-0.184655099410998,-0.3178984947693372,-0.04807432971156372,-0.36225043558399417,-0.19951835121823625,0.13341940030675334,-0.0160723404631757,0.12069738784494126,-0.24400329670454254,0.04348046591932644,-0.11440619506799235,0.32610268860164937,-0.007172337073417864,0.0921861311390261,-0.07328820839163273,-0.05428598581139374,-0.33583230114152723,0.009657273025427252,0.30035617156159283,0.07787408199104129,-0.015171551453117979,0.12826280078547683,0.2012164320453726,0.21821875653223533,0.2100045705313914,0.35169920158412976,0.011385067446444963,0.20444620190231455,0.029731026301605845,-0.013785884664619137,-0.12239881631883458,-0.36837852678435584,-0.24655530711347864,0.14624702106988036,0.20030479275698881,0.014478853855548526,0.26028284143593794,0.1947580643632342,0.2630160947478142,0.3497787692847312,0.4844744281442797,0.1949967562827945,0.30385480289748296,0.343979194372084,0.029099603300761855,0.06268144270026262,-0.3727043076171527,-0.08123921119699988,-0.059142925937217705,-0.003227479130378132,0.1155227219944143,0.003088211715951494,0.0787728333713855,0.08207996296860441,0.14409359549209932,0.32283272092079873,0.21843414619273402,0.41789303881869977,0.5449227920359617,0.30742457078847274,0.09358924968108785,0.05711916617935948,0.10827409739838426,-0.3473333454041213,-0.4077411349202729,-0.13392937212412548,0.10653559050350019,0.056080150534115566,0.09158732088939564,-0.42444959471954774,0.11100961884191009,0.5000456803426746,0.332149392956565,0.2906478879511587,0.12032573834963115,0.29707372414264094,0.16535266217294065,0.10906639966841013,-0.25839022098775094,-0.3304822835973343,-0.178895047978994,-0.10688063034802994,-0.005794177712712725,0.29630204597309157,0.05481461788927954,-0.24837410921940017,0.39523763388199,-0.05832469667510553,0.2819334031087872,-0.11930976832121833,0.011494908273336232,0.03685163570866358,0.31661436770106355,0.05884564996422947,-0.13154385029208143,0.09462384344522665,-0.14749660376288418,-0.435077992262011,-0.10521457417449472,0.15932142673467753,-0.27212747415118504,0.16719368323822556,-0.1610023369862528,0.029220769620034445,0.444895857177553,0.4346263071027837,0.10728776670116767,0.05929390461882564,0.10301689260223909,0.0027633816176958195,0.08619925800918958,-0.13248657079152576,-0.30837352687388486,-0.21103475049499687,0.43804048494502723,-0.2187235398607524,0.04393067451665887,-0.28145318359750954,-0.29746401560600294,0.06384897861716164,0.14732074459624686,0.6680082799149033,0.1481316597032384,-0.005732867629984662,-0.07973732595568826,0.008002656908458446,-0.24314322711311204,-0.22881638953927244,-0.05017882023897893,0.37888128247771796,-0.48518736451483735,0.06320487214783208,0.017367109916453224,-0.4856267371563898,-0.12761579851096463,-0.37149420683014583,-0.15819605657139707,-0.33055103200661434,0.3977814460057276,0.4741751584700026,-0.1674494471676934,0.06394444121333191,-0.017072637640380157,-0.11542691236390377,-0.1588094112936611,-1.0055351618097308,-0.29596207991624734,0.23243642116933325,-0.44679576967181617,0.18706780141663232,-0.20417765305764998,-0.29829147033734166,-1.112168335152461,-0.5813682476305138,0.26947342136183394,-0.15220300083192378,-0.13550744566928427,0.30547232115514933,-0.14166767883672224,-0.6785502318723318,-0.8900979018779382,-0.1814497740689467,-0.16580120492054157,-0.17309351113564256,0.056959754503676324,-0.367866627894705,-0.5131462692511252,-0.09633964569454397,0.20235653714666837,-0.11595480233209564,-1.0434024210124926,-0.8236109907077122,0.006258337452987616,-0.4874694390055233,-0.4521759739769331,0.1524736518052498,0.6083110490485434,-0.6560930194695086,-0.42427361359978194,-0.12188286784096934,-0.5508639911568773,-0.5029744832652991,0.12408860023167512,0.5596511639808303,0.29313703468651975,-0.6474105793510639,-0.5881270756203614,-0.27506683106705704,-0.7965906614055509,-0.17002443449373078,0.31599655339847627,0.712240026055707,-0.4416714349304961,0.04344086111745424,-0.32400597934928216,-0.6890591808560923,0.24212281836989205,0.45706814434748666,0.3272754233511042,0.1248862307434692,-0.26203287159621846,0.25436402274334435,0.022759245068594204,-0.2629852189889058,-0.15198146369893978,-0.2228874137267681,0.07862059183403106,-0.5266128094255234,0.11680438295242099,0.2571413268926613,-0.4359227515611072,-0.03852461397996131,0.7258937833478357,-0.012963965879484078,-0.12738407068631,-0.0705121729915606,0.3681559192052482,-0.05870091032242626,-0.06648731966608376,0.23291921500019216,0.08657402670936161,-0.35202115249592364,-0.1269211774066142,-0.5240490423727251,-0.14133498243628928,-0.22396990382989423,-0.17818229434593713,-0.18329394430550006,-0.41611570902530753,-0.14829887211140252,0.0743841200065841,0.1049863406111707,0.12524064831432058,-0.144507077062191,0.20820920427408185,-0.17845452508337845,-0.2615916024222573,-0.08691055095781536,0.022777523119362878,-0.16428752745045005,-0.0858742656023877,-0.0696315080560683,-0.2552623937851138,-0.5665117262170527,-0.6405479916912635,-0.3515541866044816,-0.07631932907622617,-0.3400274992115845,-0.0035074005423450473,0.20546010743705984,-0.1101388770070893,-0.5836311254402577,0.14563920599892174,0.0027009900566183683,0.1923263670098783,0.13672175227040798,0.21247577932115394,-0.07033876950621017,0.06342089903485655,-0.008596340088964044,-0.3337870674117781,-0.2714184227929902,-0.459690237394696,-0.09251592166747888,0.06562182371332718,0.07676814682847141,-0.496325671257694,0.13092629914030512,0.027090320422731087,0.0022235305853767046,-0.04919081175724902,-0.20838300360261264,0.24999695634751995,-0.4466881309309036,0.35139104682637673,-0.47602216897479044,0.6020904303649914,-0.19144416744418175,0.2020995500281173,0.3118720657730743,0.1985058241780289,0.4139319059555028,-0.10809944528938861,0.42078315601603805,0.00849072374438702,0.04321629113233145,-0.2262480700998581,-0.15214595498869474,0.014741493684193092,-0.2382414432412953,0.12782529101662823,-0.33832730227358715,0.6993919684569307,-0.018362717731458856,0.29020661327374553,0.4389177017759503,0.26115462399472755,0.5001021589930141,0.030867670767251658,0.45034171724426153,0.06123424356895116,0.09166535351297574,-0.12213756625369182,-0.2961594210198806,0.03642171646939805,-0.14950580467086302,0.11710953766481198,-0.29505906446665764,0.8392880682539703,-0.18150402972008078,0.32234187377662865,0.3427589021382961,0.22719860367188804,0.3141213990000974,0.15633264952017217,0.3130910810866836,0.10836671863709191,0.0999999065069609,-0.1743617871763364,-0.35480976572519746,0.12034205730284407,-0.21835426596351665,0.05389304890418503,-0.22204468656890905,0.6163105374014797,-0.4122625011200491,0.4359216329281943,-0.018629011323407055,0.22158312413960501,0.1782348918661518,0.34280903246479016,0.14329919275936456,0.18333485651389003,0.07538986823286796,-0.01958179749909117,-0.4190456019122313,0.15063537048216835,-0.1672867712330703,0.01757931671780221,-0.11508248556744619,0.37283655182099246,-0.4337971122435838,0.4251713903467812,-0.20049663094271258,0.2028062253771686,0.0018889887928298394,0.2800166364001824,0.15531111578126744,0.030184941572927927,0.03615203446724207,0.07341837480217578,-0.3616006394954696,0.11814884429985271,-0.2569282728925837,0.14648540456858689,-0.3385435542824379,0.20747444683800567,-0.3644080948229832,0.29849582915499157,-0.011271056545712576,0.23335348551201981,0.11920359900646554,0.2576325271239597,0.37666241373485126,-0.1344447476294734,0.015528765008052553,0.1965369385767651,-0.33216073080555836,0.02457986390417976,-0.030487560609821905,0.057149986261155375,-0.2252360823586229,0.05759212177806177,-0.1209434287125309,0.016864986978678886,0.07657358917459972,0.16150101990377522,0.12666751407380536,-0.0774157556991787,0.590806653595448,-0.2985849202363125,0.05818958726108975,0.3712050781536168,-0.36449235938205526,0.05584844191909051,-0.06384138143872782,-0.11050811749334523,-0.02531096660910356,-0.3340607387441797,0.04605881702650226,-0.2594817320464523,0.07023261246107143,-0.27668041196507487,0.18641107911265262,-0.2091442563296862,0.2204321504972602,-0.22780493320820247,0.058247224264602396,0.2988631636494206,-0.21731105960382904,-0.3346262467516733,0.11928355093038163,-0.45037279471925445,-0.047673322279230525,-0.5828577319747856,0.12312139640161257,-0.413027702655219,-0.23925353993203466,-0.6250045564089527,-0.046253248768554495,-0.30072934723531414,-0.5583442698158739,0.1199777782246193,-0.2542407236923555,-0.0336054512228647,-0.24192743867144387,-0.4278948162359583,-0.5090366857081949,-0.39864436889223076,-0.23510742576426077,-0.8207498348290674,0.185993988844903,-0.3728198234959581,-0.1180952566051916,-0.6289834746209687,-0.24159974006635326,-0.0418394219825607,-0.8393849774374468,0.017297396228171613,-0.14023664590518828,-0.12466449603363833,0.055613186436929626,-0.7923936223694086,-0.18155817588355389,-0.04585059072885187,-0.4689484707611679,-0.4518543260545963,0.09196501069782291,0.06792786964293647,-0.2788595514375056,-0.1552573816905901,-0.11283843145132644,0.06861386406194775,-0.620581967403812,-0.15023124550020622,-0.02977388586148405,0.05675551039390145,-0.07071605184696532,-0.2695406031412584,-0.1645506922603727,0.2562836190047629,-0.03863841604560494,-0.07843304152743838,0.02642293155809772,0.7861599312336138,-0.2766647869390041,0.35715133104225805,0.015862783450095324,0.1926197731173883,-0.21526304164453203,-0.48856056228047795,0.19171587829571396,0.513027999833023,-0.20929754080613544,-0.05175868953366585,0.05361042983503183,0.13310541453562402,0.07926141412279833,0.04774735806319268,-0.35422781360923966,0.9108317726481532,-0.4817743852660373,0.1490265434658357,0.05125567421832163,0.11319911759956246,-0.36963248038912344,-0.2925012856845833,0.03658626632278447,0.5318092191609245,-0.5434347897752537,0.2469853486811385,-0.2970166416087073,-0.2828888152190395,-0.08538057735185166,-0.08102097686736272,-0.7068677589141157,0.6928410532945218,-0.6454232053778368,-0.02909856367715049,-0.15644881532776875,0.09219641841321584,-0.5407520432468131,-0.05525268495599236,-0.10023144631973052,0.39181833975579106,-0.4814715594163225,0.24533789161724306,-0.4995054837094683,-0.3081951923148678,-0.22612477530303932,-0.377521746752042,-0.6043698679443733,0.17076351569375928,-0.4908785951425799,-0.21235398921873958,0.04281117371124652,-0.07653810052850261,-0.22974610123764155,0.034994915464170356,0.02153394613212945,0.27675042215900053,-0.30647091781545405,0.3220662111475589,-0.24518102101553407,-0.109242368227179,-0.10040632491548068,-0.19341769809832435,-0.19595870785201122,0.05285176770673554,-0.26680780006185667,-0.13046535112497695,0.2333964372903531,-0.1956235181399066,0.0006335898498725885,0.11797117552312134,0.015276043235262009,0.02585058738618641,0.014911696230683844,0.14222873149591883,0.06974920115991942,0.16699598210074246,0.00036933913800823325,0.25540596323755027,0.30853030635104345,0.4607534443529763,0.2806437515084901,0.3162443381650886,0.31222025129107145,0.2588123446159126,0.0977942874855361,0.041642053794356454,0.03816779321955523,-0.22534070196496234,-0.48332761618426046,-0.5111570989481063,-0.26514098378669065,0.04729551999828981,-0.0213448612334522,-0.04367521136925933,-0.03751143495683462,0.09152343721690154,0.22727081506388452,0.1944103129296542,0.31170401358676386,0.3178131254460754,0.3275530157059341,0.17127287275768074,0.060920600078767505,-0.04782352960421032,-0.021358047986379334,0.07927908221616006,0.01896587937811478,0.13803831832354554,0.1080540260916373,0.14990334252705084,-0.01970911348921266,-0.03942948880754761,-0.22286502221555518,-0.1371718546810449,0.00028090742081752677,0.09613291343828997,0.11620031548413856,0.04016842464220988,0.035620678424477456,-0.060268268575282294,-0.30587972722659296,-0.4446126658659154,-0.259606884215466,0.06777105649299535,0.17074821306642016,0.1799810900279785,0.08151434839251984,0.31101240059689345,0.5587200361717578,0.9620511005775618,0.8222326213684016,0.5465169040304493,0.24463922976922114,0.14597632570962674,0.07040334431747294,-0.23856841779485782,-0.36031990336288156,-0.16905145471622965,0.00860255034989579,0.2189147117320291,0.18090674051595676,0.1635790073403476,0.1876802484099993,0.10799946473771523,0.013087709810730382,-0.16833419138785868,-0.0018667613397524339,-0.06234420277793642,0.03727798581320337,-0.011022734020945984,0.05006412316385304,-0.0755846604273393,-0.11484790502016302,-0.05448014147569829,-0.1472639617535844,-0.043898743611329116,-0.23933962780500137,-0.35310821218442157,-0.6722699371857536,-0.38598982777798607,-0.030633395868504977,0.46486008346512137,0.5886704440944035,0.48945328196882926,0.2757812648249805,0.1312911041778582,0.04648869821867949,-0.11828465081612302,-0.2795940886005412,-0.3069715298940733,0.057530546070174444,0.28264595847712976,0.6252403967248176,0.41702866331035154,0.2229274950523127,-0.031312897097080475,-0.20896429240194808,-0.005953464961238953,-0.03844637905806699,-0.05066616076967427,-0.10454453808811302,-0.10714589215890047,0.019678050101149175,-0.03324664826660817,-0.14430690413787112,0.10189401592236746,-0.109983485337963,-0.31160873877072787,-0.6796769315960643,-0.6852459891248219,-0.3909897365761578,-0.16566953426714895,0.2868656182590426,-0.014703327183134149,-0.21686807194016056,-0.4366589825563229,-0.19913118152667644,0.03032821941246583,0.005889463229109511,-0.013917351140858313,0.06190271329963289,-0.36963395119238907,-0.5589585197944865,-0.5293709764274583,-0.28510059801947757,-0.25639086893136986,-0.48986359636978233,-0.36821201667278214,-0.4318828078635965,-0.3255862390041203,-0.241461693878315,-0.16070943400213822,-0.2977068681610387,-0.1872180164198191,-0.09406813105724687,-0.3244651648101252,-0.791971907660721,-0.6789665676998243,-0.48913170923816573,-0.1400946213096744,0.1687848689174265,0.3495301577394191,0.4182589003209656,0.02672911726649507,0.16354148944495325,0.5485943748958897,0.5858777168166147,0.3166458467264208,0.13661731129240168,-0.22311987724629703,-0.19174359559692236,0.11438263698892974,0.7106093945125758,0.8762943925691363,0.7818021884748421,0.19284795835884477,-0.11975073342314405,-0.47925859874761534,-0.5717527481790267,-0.08575693236313536,0.1782207394039691,-0.4419464735315282,-0.9226956575568186,-0.8139715405613239,-0.37222045756608235,0.04057909929171368,-0.06903084686779866,-0.07613264644001702,-0.6004212645494228,-0.7596292685597095,-0.9736429364659962,-0.6745533038411937,-0.317798924518058,0.16857257642172635,0.35532954146646,0.20236742679739828,-0.04828725588073436,0.12451758811367647,-0.09045493555780647,-0.2686426639275387,-0.6131293203640504,-0.5569451700445881,-0.3560397308390942,-0.34848399431186877,-0.3173704361409598,-0.30416324995622623,-0.424678107980337,-0.659301755044674,-0.6419897357730104,-0.5189401252976931,-0.5152386563300451,-0.47113319056764336,-0.27020320477593457,-0.15701544928938427,-0.22312953852442188,-0.0689788015475857,0.21072793740637688,0.18128279359888905,-0.013365734043855555,0.22813856252680761,0.2447267974032259,0.27483295841585254,0.30880917812327324,0.37746280213271277,0.22245714711618392,0.050616815494841386,-0.13224086699125734,0.30560792800242276,0.4718843856057514,0.46398122163518535,0.13328872833614425,-0.11318821193514642,-0.2538109531191955,-0.317326756110921,-0.20471963331301737,-0.009994115306309817,0.02330335493561314,0.29708743785972735,0.09616048667476931,-0.07773519324496361,-0.06678471248416078,0.13553866207345303,0.20537202575173433,-0.018543085241320083,-0.15448237093557962,-0.12009760760959759,0.02409608968019005,0.08392591867598305,0.17769595267137248,0.03781453796341836,-0.046842174748258726,-0.05557868549638771,-0.23088488539528423,-0.2875360768032297,-0.3036075687399367,-0.27038569262933476,-0.2928650252898801,-0.2678636917349995,-0.26378274594627843,-0.027373149426966108,-0.021995267124171755,-0.06835481551905784,-0.48394284127230447,-0.4652925098266475,-0.35881163291626084,-0.0419054800185121,-0.010262371649462068
-0.08981837340361301,-0.1813194262641803,0.21490315649402555,0.6115931621114084,0.19394544965743496,0.23871499123908982,-0.44410218970556825,-0.7410196302218163,-1.1823817268597336,-0.7265282760199463,-0.5567429204912537,-0.9325215144512321,-0.6199010771211142,-0.354205475447629,-0.4737127409445436,-0.3367112955761562,0.05448509465665834,-0.03653303365116141,0.16445127446714847,0.3281053445688827,0.08435193210662449,-0.17511672483202545,-0.3554146999188887,-0.8205740242972543,-0.6492167914955296,-1.0702393907768568,-0.8267723826640536,-0.2205860818416473,-0.17949309241055555,-0.18478352581381294,-0.18592711205278026,-0.23549235586029243,0.12681457692119108,0.4927694217330045,-0.5127119903740291,0.34014723520501206,-0.15337125658791337,-0.505705152324911,-0.2039282309657327,-0.48374650020476284,-0.9722984050178931,-0.3457405288424369,-0.12161075328896485,0.07535994754076797,-0.12386876208614694,0.07115314194905194,-0.05755720109809572,-0.05314700932574437,-0.021330769477724366,0.40951187936810657,0.23377048506163087,-0.8735564804471297,0.19093147919341877,-0.34525549128690264,-0.7567191777521262,0.3033261914991577,0.07531221481546081,-0.37891351901055026,0.016597855254313707,0.051313214501696264,-0.2618391789536648,-0.053713628431782394,0.6300352855596686,-0.08264134661818875,0.4305115835001158,-0.3964362996958686,0.19558247682935515,-0.08650235796577983,-0.7417693839529255,-0.2415259299794367,0.11473818406757649,-0.7996717639258993,0.48163749890549684,0.9048159060622146,0.3799482845771159,-0.6251778391465724,0.09542373569749164,0.324698876201029,0.4077950698236461,0.2244901326444195,-0.08152462521996595,0.05962119507344101,-0.4350513401918728,-0.42535079580074686,0.029627025256248014,-0.02945660728048916,0.20706514653575292,0.47354786226383594,-0.12132989022556283,0.5047786805743912,0.5587345793159079,0.5385932567250334,0.45103000011755,0.7679483872709365,0.3230676390701574,0.31073151695571966,-0.005189575451744482,-0.7152250986260739,-0.12319864208689871,-0.05482470673028324,-0.597341120776023,0.5782526494070176,0.7085741420831232,0.6907291503808287,0.8805893800604193,0.3220892744390715,0.34917843258294584,0.3512194956008932,0.40340841658133364,0.42965923062404543,0.5047678734801992,0.2003663990823783,0.04929419016136717,-0.055240342513255075,-0.958217690223499,-0.2339866520801363,0.459857901369531,0.39427567351645837,0.8474590032044886,0.9707455502016131,0.3213321510998891,-0.0013342714555352076,0.08967785907619825,0.8251501377591365,0.6719794185509114,0.11097981789238706,-0.07853050199293866,-0.07981188545287465,-0.24748598861857254,-0.021319084217542635,-0.40094554650096065,-0.8310752243423997,0.047333162707036136,1.3014954152129954,0.25626600520568915,-0.07527156668738796,0.6474651853347162,0.5518667821417746,-0.21553564094349784,-0.31192620926361536,0.5037933237571506,0.9041033558493206,0.9285343197269381,-0.454859138979465,-0.09065427689990334,-0.6432373572335816,-0.341410837632613,0.11772792646984644,0.044423225742387655,-0.5418773968109288,0.71799386117728,0.1741607525613945,0.16761442445457078,0.4039397738551992,0.8546680301309416,-0.026461963695291562,-0.08136638501339576,-0.038231388221482664,0.36431089826375773,0.8475217999729945,-0.010952902469641201,-0.27225777941932,-0.614357326871754,0.08686108104398069,0.6635903839959741,-0.16276653318246265,-0.7249328916328338,0.7753434620131912,0.12113372438053559,-0.33282950763724356,0.18636032701110813,0.5052044669560747,-0.026936915810852904,0.7577784180192275,-0.34811405425215197,-0.3221286032611914,-0.17405003458345988,-0.45776917843358367,-0.35344635391895896,0.33955633840438515,-0.5036794787767361,0.26164986238871557,0.25424214039077236,-0.5299905316970211,-0.2904441257690104,-0.24176813998576044,0.08610148015567823,-0.29240015273583697,-0.11045682397663939,-0.04528315075346669,0.4913438467477611,-0.056439216581410795,-0.04011048470798282,-0.1737801899693356,-0.15708288966123266,0.26103082681780226,-0.0008785002501141373,-0.9896682367789207,-0.20232900152780722,-0.4765701817360842,-0.21922247184177981,0.41715354256715115,-0.9486728194483233,-0.27758303313816446,-0.18202154564269904,0.3131782531850686,-0.07702161398469613,-0.056004374894372315,-0.13822874685447886,0.16108140022684952,0.1585510265694256,-0.2631868224293942,0.038005289954536094,-0.6267287573097009,-0.3873041912361351,-0.3997196693978172,-0.5541695555227368,-0.14455043690505948,0.1604825527913005,-1.0816306599208632,0.3262406119533747,-0.437835498096455,0.03645607286252163,0.07245640475121955,-0.054898856942872366,-0.0526901391980846,-0.10332587758459703,0.023475114183299912,0.24010469090179387,0.05528799594646438,-0.8596646027641074,-0.34704115703202326,-0.31962534115184776,-0.8014948722826559,-0.5928559646268118,0.030763407211686654,-1.1085994292555215,0.19882411647675718,-0.09682110589125041,0.2086204113041582,-0.14692568145344642,0.07070751879514779,0.10261089721022794,-0.6016862441891327,0.0051258492190076705,0.06726456582745816,-0.35288186915968117,-0.7317147970512958,-0.12658634432457153,-0.07872960504445474,-0.5379458476001117,-0.7697191868857576,-0.054513424036798395,-0.28187357117523043,0.3478641746849542,-0.061085624283480494,0.006616451510637882,0.1308548984369778,0.004368505707191509,-0.0354466860973994,-0.09321271481191985,0.3641669694155378,-0.18171131977738664,-0.24709047693343933,-0.5282615744904872,-0.8271530547079726,-1.080394203147168,-0.8344365482673255,-0.7973912133221541,-0.8316587068435182,-0.2737138832821818,-0.1978590262765109,-0.05838401032367286,0.24347486189318093,-0.05649997319686615,-0.17960686946867796,0.3259299997121009,-0.2918840310963664,-0.4379612405530162,-0.18404111601440218,-0.09819950025338625,-0.5139980227805837,-0.21320722303899756,-0.3831973093833397,-1.0929435183007268,-0.7179787855026093,-0.31399302539271406,-0.41374685479751144,-0.14401944254196467,-0.23322454155016803,-0.20731762473108484,0.7051331936815853,-0.47342296795229766,0.04602196144570483,-0.1860041422904977,-0.6685089326699909,-0.4416758449255949,0.48409515831377614,0.19161610722967914,-0.5631922685767332,-0.21441351971730677,-0.040442440988245044,-0.6996274091990594,-0.26659026039051326,0.06813242237370067,-0.4807904404367686,0.19260203160297165,-0.23227055574093766,0.24595112878962372,0.1979777433902192,-0.4607933038200393,-0.4496728856599099,-0.5576782951081548,-0.35230602077257855,-0.182576643712859,0.5512237365182266,0.9608810824053214,0.05456762523166149,-0.23242520898397703,-0.36390365168694333,0.08309487360017205,-0.4767354023071771,-0.23115718047724892,-0.30949439243655275,0.26487238208714403,0.17710163011346972,0.4395506856554163,-0.15426839447140478,-0.0737609593172856,-0.7233195498904619,-0.16014267102706883,0.6420208074510022,0.8404144955873033,0.2614379934127,0.1877106060319402,-0.14293573080229663,-0.10104663455040419,0.4173842904218426,-0.6278150587500785,-0.18819632566959169,0.6259908054564377,0.1798032714416492,0.43492627159330377,1.0043694693382628,0.3574052549079848,-0.17053590521234224,-0.17240383044992896,0.33978587882371003,0.10374130049924853,0.7684904926589969,0.6042701281695938,0.0642270325857534,0.32731664715147896,-0.18230080734846174,-0.20910135730111587,-0.1702085675324236,-0.2898557673689279,0.6990418612013765,0.5929402385257097,0.38485544491719637,0.7998415421384306,0.5832453610464048,0.1977870421056455,-0.4155153441813382,0.4459020537588785,1.0487243664781218,0.5512907310341376,0.019297674309200617,-0.4934313730415102,-0.16842615482130452,-0.4461697183218381,-0.19215699835565306,0.4312778435726779,0.253997664979392,0.16345233542161627,0.5115290942864691,0.45756749446464884,0.9400002984649314,0.622316317275754,0.04499553475310421,-0.10658514937932784,0.11898591439775016,0.5258933247621015,0.47357340983139284,-0.10464365604765592,-0.46549895076698905,-0.4181846856081219,0.28225655304802205,0.032626112025595636,-0.1599977911830615,0.1988337208231646,0.8644178908979514,0.7065750961778908,0.43620065698467614,0.2669178956760647,0.2605402467026977,0.22413778100898754,0.37055990193253346,-0.09446728043458229,-0.5170340071497845,-0.10721484543875393,-0.7068619621082093,-0.42195207668438717,-0.5731277551190868,-0.3273507110425155,0.41579395873831765,1.2840747492449307,-0.015310302279287804,0.033853920541963095,0.027023486770966415,0.5430154012403965,0.5784721907315183,0.732355769914171,0.3423585378279734,-0.1636480985615395,0.11254871248946903,-0.3083802717082963,-0.035498311071344386,-0.4106226723344178,-0.9051309090710311,-0.46061079992057563,0.4586572952442834,-0.33951517242727425,-0.27016503043497225,0.27449468453465226,0.7931111194773129,-0.10642228135071725,-0.30866094990525367,0.4646386909435478,1.11768282180659,0.6037444250057796,0.06901246261215477,0.033354619470516045,0.16174856051038014,-0.13276349552178487,-0.5746906341819892,-0.9909357773107154,-0.2933065036349161,-0.4484791804974018,-0.18074281759035493,0.050777110936486465,-0.06346024477415485,-0.5559455695126129,-0.25947148096189665,0.5921576961454317,-0.16270630180708615,0.9210552593680944,0.22218134558052033,0.23237832573593323,0.2422368036996058,0.1655525904123174,-0.6569555465684883,-0.027051841119321712,-0.3945913877580592,-0.4788208132131955,-0.05369666156337365,-0.38349104554339414,-0.8565664922238185,-0.589595486748309,0.4940079987429784,-1.028664351736968,0.41674932007707016,0.46898802254002764,-0.03873869127055392,-0.008401636702873838,0.10262479945187816,0.0843364136968343,-0.10348135848281209,-0.28394963416848984,-0.5694343526707623,0.08531143864987668,-0.437727001119032,-0.2971375734091759,-0.37719150984021865,0.11703164647670805,-1.2894504201217316,-0.5367104388956947,-0.012334277040795552,0.5695307530589712,0.3960543534265181,-0.02708490764787619,0.08286214333704536,0.44305686833792746,0.5774149866640832,-0.8545186491595387,-0.9859151103640301,-0.7829673171597509,-0.31300180877377975,-0.02812996600697495,-0.11434267148078497,-0.8487948578846405,-0.5910217735656623,-0.5894653125845086,0.5029455033255894,-0.36497972555911506,0.14147584327816692,-0.006125558546538989,-0.03342421693273741,0.3961805092772446,0.3679625351134158,0.03766941675772891,-0.800929266048459,-0.398578258719854,-0.31435596787671494,-0.4365775856363876,-0.3224448515788923,0.01774967106458219,-0.6408201091337841,-0.2044955581126453,-1.0532295975890071,-0.23838675054320502,0.13269770647847876,-0.05044750602889165,0.09196295857261759,0.09916209071514626,0.3112401761014004,-0.18535512027278517,0.06729579631708936,-0.004297782280989811,-0.8608363888767552,-0.3003393312834808,-0.9353142926350463,-0.8364450524762788,-0.9037349195493097,-0.4356469132505514,-0.7861738088217848,-0.31157907587896116,-0.4396224432985359,-0.08500130116333829,0.2868267511999187,-0.29523475214831013,0.5997561131970927,-0.5561428449060801,-0.006066463888753965,-0.15546624516150007,-0.6318857977613576,-0.4741557241452876,-0.4733438493546993,-0.5580388344959861,-0.6214368388520622,-0.4017099476527181,-0.3594525324868311,-0.41375375235329825,-0.3905908347303048,-0.10916388771843201,0.1937272986363259,-0.07958362485681132,0.02310405959321825,-0.23181270714029142,-0.13981885938612792,-0.39442015065899244,-0.3961406558851586,-0.18444631255886995,-0.2542095451441238,-0.28946277957437316,-0.09207111137424658,0.02337648463034691,-0.2552753238801129,-0.16926174504965696,-0.293267045561483,-0.014369890562792278,-0.1558014356144736,0.326505762907593,-0.31521774013062337,-0.17390646850953337,-0.11144398510848644,-0.18951352334705304,-0.5662954632786985,0.04353347680660131,-0.0688763257888678,-0.18786847105465632,0.007949340359010633,0.5693249910991123,-0.2561912053974801,0.1155657124226727,-0.03405742971780727,-0.1078054323366424,-0.2094670403978288,0.44808377851621256,-0.7554117322021651,0.1967263753899672,-0.10761655315909605,-0.05243698113567035,-0.1303344714711541,0.27770364559884403,-0.17053705408800882,0.001466437624728115,0.37487036462151346,0.4737027818368876,-0.17380494718011683,0.39853569755128165,0.17780747137353348,-0.03299042674526986,-0.30556242830342034,0.155233999768819,-0.10186902343679566,-0.15384592054487733,0.1912878585046892,0.5117460709511725,0.09927841297338208,0.58704037334635,-0.006507738971997022,0.4154338286526554,0.42531499858988236,0.4279665101351647,0.19586608283544954,0.3626783911139569,0.3618051085624148,-0.251415477691168,0.05067372184575499,-0.43626550379447726,0.19860010354986601,-0.07383818566729433,0.23768839032986433,0.4492752949762593,0.7772493991157708,0.5465034054484318,0.2010866978400264,0.5197607096531703,0.582445918094383,0.3311967077986147,0.24729634057353855,0.22783306938753423,0.45216813373361436,-0.29275801164684023,-0.16920915812496426,-0.43279837144723066,0.39418455078463216,-0.30496362990301673,0.4477902116504454,0.45325223567669776,0.5589914498008437,0.6868600030067062,0.28189145092154466,0.3684470811083955,0.29217543187621337,0.5377198022650789,0.06989845388745661,0.06611826514527462,0.15414261223729636,-0.3618323460274472,-0.20725247541425018,-0.3187632587550914,0.26512573435492,-0.15697911709396356,-0.047827763092626985,0.795339638818334,0.28642358330286055,0.4521151506171385,0.2395005196674543,0.3727323349567145,0.1926446201179082,0.6303705628356494,-0.0667273902361902,-0.18865910097808614,0.538062612083653,-0.43613530068329653,-0.29087443586768147,-0.21383132028076243,-0.06436155862814696,-0.36259632054639873,0.1435818242246648,0.44765372006870907,0.1349164323520814,0.4665789947913552,0.20154262118522914,0.3559397007361,0.2351537078340741,0.5809276836839479,0.23055816365063345,-0.4095999996846809,0.6394976832063536,-0.38770030747968803,-0.10712172714039593,-0.22960918443149422,-0.12827286415910022,-0.5133887538116437,0.1302961714548985,0.06978581826878213,-0.12358847473748676,0.34915116076449443,-0.06441285767968963,0.01935224537008536,0.4279643481170645,0.5984510531508329,-0.09249611335496268,-0.09548739391881214,0.7573938744383533,-0.3451556015720143,0.3262370336510251,-0.3808574639826001,-0.48099490681412604,-0.06072635236127209,-0.06614251576517548,-0.6659232868999123,-0.15731868988219044,0.1654513647084043,-0.2592024765617374,-0.8266266741771793,0.7481635595698969,-0.051653618830029085,-0.09935298254476314,0.11247404026397546,0.1882317039046966,-0.21310370342119267,0.5616539132446234,-0.25181261644368946,-0.5858606524266127,0.42245359412904604,-0.5927949911174873,-0.41979362234166767,-0.3649297856925169,-0.07649911436536251,-0.6032802728438993,-0.558806540461795,0.14756569339500022,-0.057638699737292264,-0.39131064772126245,0.22904657783329818,-0.0096090006345185,-0.19318463572394234,0.559050494222468,-0.1865053976158148,-0.7973227270907817,0.7667822645634774,-0.7319536537609745,-0.5297653599983608,-0.093569980748018,-0.11434126699589474,-0.7668617791105723,-0.4050679076478737,0.01653770295103681,-0.5845369563315104,0.2064231294545065,-0.41059225950866174,0.28288537221882865,-0.21414072149707472,0.5009729270268686,0.11448065487762171,-0.9040551612233245,0.5316615744235367,-0.461169651889319,-0.6562314918633615,-0.3213837936783298,-0.23732214226512593,-0.9537772042169095,-0.056078396524727236,-0.6401767739218425,-0.09738929838413322,-0.2076114890102467,-0.5039644909802158,0.37135411916478955,-0.24530833449349776,0.3046044341281449,0.2661771314841911,-0.6248917460365846,0.10161164353264145,0.05262870593810946,-0.7323817010480498,-0.24008884804625072,-0.17736612110444755,-0.6657673880991956,-0.3242259399552604,-0.265455715187519,-0.2971375065774209,-0.21856456274319316,-0.5289243081369398,0.2444996849667219,-0.08460019240904798,-0.02921154737832138,0.1338175328362661,0.2792821208920751,0.3863317388704417,0.1425795267160323,-0.12122395129032991,-0.7349827463298377,-0.78842740777212,-0.7443948758540413,-0.45035897016770626,-0.4569094108582055,-0.4324590715699818,-0.4284293117102806,-0.321908512042156,-0.28453607395473907,-0.03722909280128428,0.010861403526593958,-0.12978264512240711,0.0804105106669711,-0.08509149317096111,-0.16071255543915997,-0.4415348528875065,-0.36771692838402265,-0.5323623372392619,-0.5692362049870597,-0.4467156066046331,-0.2531371885861717,-0.2307284541730081,-0.2654226695653763,-0.19458715421365605,-0.16496544787765807,0.10122550189717117,-0.18005380988829825,0.09102628904051116,0.010276928538088188,0.1980463817248567,-0.02792400955701,-0.1539334241404301,-0.5268150564022545,-0.49702745080127386,-0.25143618507101817,-0.1751845998466668,-0.466337763161959,-0.4518764638773928,-0.30739819422709513,-0.14865833537997086,-0.29839062821468204,0.11828235816023064,0.2528942059274517,-0.041713808439230435,0.010267413656913202,-0.08374919628034767,-0.09776605727755168,-0.08101907189072942,-0.2024253037691411,-0.3470033986297155,-0.8297987578110505,-0.6547903502603472,-0.12725954548688745,0.24648154900631622,0.3348353000284916,0.12656185972728026,-0.02534154817238721,-0.02206116314280633,-0.2903196514142745,-0.40241263322628795,-0.3891462159363156,-0.30645622773870224,-0.16057924717587782,-0.11392977466607145,0.19274790519701124,0.454578736864472,0.9497315098920864,0.7092288681116866,0.4173966143536432,0.19937058239355115,0.23692087928611333,0.11874341760280813,0.006791354058255659,0.0680017716725325,-0.07720133379507839,0.0005753842629483577,0.13876691281033968,0.49263341519404374,0.6333531739339792,0.5655774945346008,0.3238260364827569,0.19611934693037975,-0.02485111991312583,0.3837285873500985,0.4455556800475141,0.6605348287199505,0.5707102958208835,0.48775636326304,0.031537269780412894,0.01763277972909786,-0.13962124573751306,-0.4711245894595025,-0.6296463890613505,-0.4984427085604509,-0.17967954694739183,0.21519869410883372,0.2279362122581766,0.07897118469150456,-0.05834148708705561,-0.6092391052037909,-0.6179003708410185,-0.14321828827933145,0.43908207764766144,0.3603435066123686,0.08343101007008732,-0.17119324259350335,-0.5556753342564014,-0.6216166576202508,-0.07672082040555327,0.41684157816247014,0.6611979901572249,0.4738435934059558,0.40650681914864367,0.5072046252878696,0.6202941964714382,1.0106433350454835,0.9798741381127901,0.5878005098427183,0.09022892053341028,-0.020699104210801598,-0.05760944910167348,0.1282661502049186,0.1355395679047992,-0.06791526878375653,-0.1240131513451849,0.16371092610436502,0.377876122687826,0.6632592568133981,0.9080334232312343,1.2405700738458516,0.6935478847591656,-0.012086084235521483,-0.04320260077545788,0.9287248485421834,1.6129973628567944,0.953015649871547,0.0780734272872642,-0.4875533161742959,-0.7289129748294889,-0.8954475047979401,-0.7385702466749001,-0.6704551276562211,0.08645222886745087,0.2997263849455741,0.11415766205564136,-0.505114911100975,-0.11561135019301153,0.21454303121829796,0.06567881813482104,-0.5739105220322139,-0.5698769922519872,-0.0013103082006498332,0.271623527361149,0.20621523731907174,0.07273673160334135,-0.03485375487061783,0.2521910311909382,0.3923133155384126,-0.14082287143564803,-0.5337453308706364,-0.5486155357695829,0.12731493504971422,0.14362635640002147,-0.002023345947875983,-0.1006353150581759,0.4682136676339074,0.5412101760112635,0.11926205549242001,-0.48128831795581534,-0.175935116855113,-0.2344562315847294,-0.19366284610160064,-0.40488006257304365,-0.18093411757799388,0.13367651959964022,0.5536452479851064,0.4298923029330695,0.1595859992527397,0.13405692299835514,-0.1261671561543972,0.037898073118552165,0.0014416320345008605,0.6062264972416348,0.5591754449732367,0.49084293564919557,-0.03878368638695468,-0.1071700738171579,-0.26758948917963005,-0.22608406663245473,-0.4941959260469071,-0.575421114709999,-0.47305165697996787,-0.16096700559586466,-0.02729275053763794,-0.32725333300696396,-0.13445325743092432,-0.37817596236157475,0.1153401723917993,-0.06332525674223195,0.06741543454630126,-0.19082952635429723,0.02477599721234168,-0.025734232353095965,-0.0021242611701476305,-0.16415163419969364,-0.39180877998165303,-0.42338501833246933,-0.5501322569487157,-0.7630631236770089,-0.633014904994285,-0.08270066870664529,-0.4464194255272811,-0.5597312580026326,-0.9831058544423954,-0.006253823899157641,0.25363584883174883,0.48577840006383577,-0.009318949062593907,0.17712392920951867,0.6588489816717118,0.5932179059450323,0.21852096511201985,-0.6833539525361684,-0.7161863188709061,-0.6026823394806673,-0.42590845550863005,-0.7554544726842041,-0.6686182352777892,-0.7410839559734473,0.10137112164284191,0.05558748389174322,0.18530501430568136,-0.3956789519863167,-0.16262205060524845,-0.18789631242652008,-0.3495107467804343,-0.31561577308986266,-0.18558150097101495,0.2324178527467698,0.3217720282865774,0.41329445017424166,0.4016978762669543,0.46779405937242746,0.21174581344207927,-0.004278128873897624,-0.5302522179423703,-0.3044877968023591,-0.2931668937137061,0.21045970031143432
-0.01569074583956717,-0.04460752426096063,0.0058457895845631476,0.07507077071597641,0.09094565556116911,0.14309439806750202,0.2788143512407906,0.28195540100030936,0.17741052473563892,0.3514960130683245,0.2187246028402625,-0.456186289178508,-0.12474935553596112,-0.4931546504266667,-0.1919789705230682,-0.08405776723226135,-0.030396754401351016,0.0009887102671067602,0.09063719201097512,0.19899642968459094,0.28309561540185474,0.564514262259646,0.47627959616616067,0.4014991044471362,0.2706578782387651,0.24745526815372904,-0.20016393057348902,-0.6757459675679709,-0.5720009296806899,0.051653481076991345,-0.14490111962731425,-0.057828860231945535,-0.020622450134146694,0.06669159297155954,0.21345540381995973,0.47124538470747096,0.48540434068635935,0.4074480665345468,0.49525041820820215,0.2619480167696943,0.40925211679571055,0.027840861792697222,-0.29379258448524126,-0.5118278741491016,-0.4292305955409358,0.11873220188297778,0.14162323527193857,-0.04100475790412337,0.06195420015244065,0.2409685365699957,0.4271487742045814,0.38753817792753986,0.7406133110589386,0.5244721314187466,0.1479313737221087,0.06613644062990498,0.10397094402729305,0.10358702754262755,-0.35429732309846057,-0.4233047407189377,-0.0519480962712774,0.035711706467378375,0.1764694974012687,-0.06677743168069288,0.10086335185751816,0.5150973059528836,0.45287199353538404,0.4193928018014832,0.2670424502788869,0.39178865146939024,0.29757161070863647,0.17614548652653692,-0.10922754805073451,-0.17506908250719644,-0.18533978553785285,-0.3782325303133104,0.03408830087291632,0.27868533713080895,-0.002901788375434207,-0.10845963043941943,0.35495584637683547,0.22587725722321828,0.4552408234797317,0.2363855442625232,0.21154352934951084,-0.08361451806580522,-0.6939799926206066,-0.04098773031786215,0.3291234308249563,-0.3177314604022957,-0.469833167502187,-0.1358596863367694,0.13007900170995249,0.38364462792134063,-0.1868777923941832,-0.19382155068065443,0.0825910839810936,0.14635088910202926,-0.06642918738233408,0.42852519252662036,-0.06643242782776139,-0.3535522215426972,-0.14321086699408886,-0.46174542664883417,0.00504355955646346,-0.09918339785624387,-0.363502920794411,-0.014415264569168482,0.14941826461438135,0.16759149081947924,-0.16663280135367756,-0.14828000334108807,-0.016684182666999444,0.07609416817768187,0.08477633361115218,-0.3232697662683984,-0.3559876720800478,-0.4578685048269285,0.08778917125808297,0.1772800529466012,-0.2461579778900061,-0.09574074805541087,-0.32958093176438097,-0.11009473063226365,-0.09345891009460276,-0.18247827260384955,-0.0816775725517825,-0.1433926094559369,0.12007410898278353,-0.13607113191302161,-0.09253030300729859,0.09572800543207372,-0.32399916086861047,-0.40616739493648013,-0.15646929692872646,0.33498239288001436,0.06954807765931215,-0.37519163133027184,-0.5050627674222002,-0.4071924599858503,-0.03571406751438043,-0.25141599650082663,-0.13888054080228976,-0.03883932834723318,0.0928269824464826,0.06810726331632268,-0.47095517791393393,-0.2994171142488719,0.04798128791570858,0.20375525755432397,-0.18114567420380207,-0.22925865198920095,-0.09410356390519102,-0.29413975213891624,-0.9192135098906731,-0.5833320365877199,-0.03856969585627831,0.09468797010959402,-0.09429775866567422,-0.09138768019729893,-0.2322451810298006,0.09742188712501626,0.2801765636497025,-0.7177396996357873,-0.39756061273087306,0.10927071135996273,0.5592703481385287,-0.12176974494666454,-0.5276785858352198,-0.7270280351794954,-0.35495464695830703,-0.24496948711611088,-0.0934139935585582,0.12054531260955467,-0.002338988305308868,-0.06933322874465964,-0.052996608458487346,-0.38825019082310114,-0.08174325672035372,0.1292830201930592,-0.3492005289042174,-0.150133258020196,-0.19512942299063227,0.04449346315871471,-0.19633146877044774,-0.3137248514398502,-0.24171358787912475,0.08428293377890313,0.05722608434431856,0.07457028011324394,0.07195640746601327,-0.043671324752566215,-0.13616726696553802,-0.048895713357549594,-0.26979028235902536,-0.22126347125669196,0.22061481480281364,-0.06004786523559995,-0.030043556987215333,-0.004482017716055149,-0.2547793341242646,-0.27779117694537164,0.010850524506078723,0.043910929598975516,0.11280287066640651,-0.10663184049524443,0.0871182503182478,-0.036656114760871265,-0.04873733919094467,-0.20604992703442795,-0.13516549773144637,0.05195407852106355,0.16036169451654514,0.00977789479001603,-0.2008773507669561,-0.17616887762554329,-0.16958172461198429,-0.12559218197073094,-0.3403076500279756,-0.08464973691586632,-0.010287685896200546,-0.045626898205869376,-0.13872831357933116,-0.07722217190850464,0.11712492555196337,0.1116048924336464,-0.1448862550255858,-0.3073836138433367,-0.14840669531147532,0.26033403100849156,-0.1950282846977506,-0.3262737251720722,-0.4978759562633765,-0.48105127710734435,-0.14632140049021156,-0.3489276871621947,0.0677402394135382,-0.2595492034206004,-0.18816458067693273,-0.09007260370333191,0.029853862873160913,0.06847092678238784,0.028033221990540758,0.08907900755197087,-0.4099869766013831,-0.48332898593991513,-0.15834606091170955,-0.1035356724920885,-0.09020492666937051,-0.3585205548938357,-0.48304492587574005,-0.07131714194031621,-0.10291788220416671,-0.037027024069937686,-0.07864758554968702,0.00378155831857749,0.037741246823017695,0.09492728078880157,0.1657212179122555,0.1347848502175987,0.2548150232785243,0.27552062912736264,0.16478055425099658,0.2814579803010888,0.32002405167975545,-0.050956334960122265,-0.2787156420574783,-0.6217703332705455,-0.05889454404558555,-0.17525324828796604,-0.0176538300143855,-0.08413665731740685,0.025413040943609955,0.2184229983009123,0.23928241061034625,0.27256854107231604,0.32549654393101085,0.15521759401279864,0.17682385966349454,0.4074794988706195,0.3317739909921356,0.052699839573734614,-0.36441556058019026,-0.0020370901483709107,-0.4041212082675871,-0.30421655157710326,-0.0942035615178559,-0.0841901525212779,0.0806605038279225,0.24772535983952146,0.2838210356893558,0.3858098906835234,0.25611459451249524,0.23336858346032865,0.4491985892629833,0.29737526924851665,0.34734534119382654,0.04521692282803455,0.18155200345588102,-0.1836756883688043,-0.3828343904762096,-0.11488306447130969,-0.28440640083890945,-0.13069743149861326,0.24327594869645142,0.19559844122433603,0.34178117120863416,0.3902720243346616,0.36977540491263255,0.1806477565509588,0.20176970785519852,0.3139502550621007,0.3244751815717117,0.156967994012513,-0.13641105498202624,-0.38132851981904525,0.04200881691314692,-0.09741610325609082,-0.13300351180962203,-0.0733928867001153,0.1390355772305226,0.1111889146990862,0.1862497919758339,0.6287443566617692,0.2544660087509087,0.23592558813764666,0.05330786738993,-0.00045754953461535244,0.10772503106357136,0.12267415401100125,-0.08110003518322505,-0.002511280410749374,0.03860039503859484,-0.08877287515619661,0.06970378616093924,-0.04771497448014317,0.01983471411524449,-0.04287643075289312,0.2805560460003014,0.046873286432048265,0.19501269963081994,0.023657369268412172,0.0012550051044430094,0.20641256020738055,-0.20356749529934814,-0.06724499094905036,0.039430906826208895,-0.04055588042453275,-0.24256015462463734,0.0054515947687619245,0.029169474042657278,0.015089738223304006,-0.04340704867777937,0.31507847678673523,-0.0012066572042499838,-0.012513283805788469,-0.30143195767917474,0.003978883642011981,0.3853387475288081,-0.37355186568685034,-0.30998496018039173,-0.039453676641707916,-0.07836536045735015,-0.19856505114102743,-0.02518918800000809,0.07798995122855319,0.08962720375393828,-0.026806339351776162,0.15585142131703883,-0.024071624430796464,-0.15493974633145646,-0.2173053044388066,0.09536221200670707,0.18836503591852302,-0.7107817937331244,-0.4152603905303344,0.1486091501600755,-0.34675810862421547,-0.4536537987395711,-0.09367885473504647,0.03620783241735736,0.2053373170345091,0.07238673089489371,-0.19467903780184992,-0.13257264889301518,-0.22301746285247426,0.16458119475498936,0.013349261479960281,-0.2217857189382598,-0.07412599646257045,-0.07654451028888827,0.13348634234810197,-0.7202905415239479,-0.7974176232809618,-0.07371949187308376,-0.31680279482888934,-0.06307898189623126,0.03908570342743837,0.012297647858513752,-0.0670917254939938,-0.2564041773494789,0.05032239353593064,0.06027519863421416,-0.29980990009826103,-0.10476801677967536,-0.036158034556889665,-0.053409212819341405,-0.12389649175658977,-0.6040269097585947,-0.21195489472425544,-0.5937396470694088,-0.23779442166113418,-0.12006695569983838,-0.21112060071984567,-0.07578242349450326,-0.05332623831116561,0.012093297570664093,-0.15427317874472538,-0.5644326414282902,0.003097928422288715,0.5894988416367282,-0.4484285909327709,-0.004813766857394582,-0.020978870389364055,0.09452106603997583,-0.5531440179763991,-0.5535172362938287,-0.18395230778743862,-0.2707210649599877,-0.12668768495712693,-0.09666771322758796,-0.07550998504318704,0.11762092514041805,-0.28229830399327627,-0.37627372996398223,0.08263826288032294,-0.40774103966002617,0.13131958956847364,0.2919603015062429,0.15124239710450368,-0.01595783988314063,-0.2729160652431687,-0.4195589195976244,-0.3747954241624746,0.0537941510573758,0.17816918824814174,-0.15917712231860925,-0.08819485333305666,0.055104492758701294,0.18198774064197756,-0.15834496400953935,-0.7636072622850819,-0.30831047449922894,0.20276412658530343,0.20252529819119144,-0.06447743585737194,0.005747598433739417,-0.033824485264199726,-0.24644600312677087,-0.2040757056872409,0.2808737046523274,-0.025385489293873856,0.032291184710959264,-0.05037357365317437,0.10803410685606003,-0.05106827783597007,-0.0014098227991368828,0.0028755828145561593,-0.5805383188331258,-0.6647446036630077,-0.3102762551017059,0.02845635982059101,0.20674001768944383,-0.2668992857431157,-0.3961485341126746,0.044166121310969565,-0.04538802308332856,0.19565741149047858,0.16620737561651888,-0.010320302797559442,-0.1268628628559024,0.13268387960260344,0.22811272424524695,-0.10229134296223093,-0.33906858746029517,-0.27056536984235524,-0.4822762832446724,-0.24977899181814975,-0.4612386508552565,-0.39244754834994794,-0.01814144888577331,-0.4362515098544848,-0.10563716592529093,-0.09651201014277469,0.12829767681905516,-0.01251112136912893,-0.052164589332212,0.0014694189017262914,-0.002651775575765453,0.24045389402354217,0.27295809663048426,-0.11133885162552967,-0.34799394380854076,-0.449680942516945,-0.31564172944055635,-0.11114693646615065,-0.5288650776079276,-0.27152086901619177,-0.29455866116120377,-0.07119074905368407,-0.05987296979668201,-0.11398519361950507,0.021360731546291287,0.024372754350203113,0.09087739789643323,0.03662991050601904,0.24680880803060398,0.17526769676039913,0.21651185197792125,0.2701765464170272,0.23085215374968135,0.009864869357333467,-0.3030118486324419,0.015152476763382492,-0.1417521994360927,-0.38583956767176025,-0.3189796999040169,0.2244138605519014,0.017489927941183567,0.15948254498510356,0.10167972606969615,0.22518512786521247,0.36179488421222766,0.22157404544538253,0.37675464822138766,0.37570290134754636,0.33454021050807253,-0.2154828334309842,-0.0834731783047279,-0.11693865050191853,-0.1957268604825021,-0.4073014471076836,-0.34203855289906876,0.23579880805030273,0.08259501010823932,0.1930985870361959,0.1663115372200012,0.3268960076701743,0.4824733352265738,0.26553281889819497,0.42237839311206804,0.3780138935339194,0.29941991534290435,-0.21826468542207061,0.007272286997374847,0.0010578004544714945,-0.2332107761806163,-0.2945428784117758,-0.27410176781250195,0.27567436535040096,0.15031418675237895,0.25621615816949406,0.25410912201391916,0.4689791222965865,0.2978314065718632,0.2979562297618399,0.3670262399074664,0.28059338621962443,0.121436847957981,-0.338722900968835,0.12445752554306547,-0.0067413410661558825,-0.1324003671172482,-0.2718957880038797,-0.10560293603202245,0.30812415965227463,0.1702201760568702,0.20858594419187623,0.39198919776929664,0.38898300816811493,0.18770529561697474,0.35539614929886554,0.0856362696180191,0.26627995470160304,-0.022218832328260947,-0.3217395707516731,0.0915744273173142,0.13839848474953922,-0.08474134573014927,-0.21284001345437156,-0.012540841130841104,0.33231833961569096,0.03707512501472579,0.21452673938173997,0.19160050627478356,0.32863399351630873,-0.20414965754723075,0.17840497458596677,0.07511674493181193,-0.16340811723848284,-0.09144152362256311,-0.26195194012258155,-0.035902171788918406,0.23917542526218177,-0.3046611594231445,-0.0924899972191683,0.019269372220384537,0.1930288624407792,0.0016146265804457794,0.11024223536036346,0.09625782831661134,0.04127549549096459,-0.22004755407368298,0.09296175966609765,-0.10169507462348977,-0.2928000203605981,-0.07709532539612089,-0.17298004388592408,-0.1996370036737739,0.30572414796407044,-0.35219647672704923,-0.04102553804247926,0.13222417765600322,-0.010953728846613553,-0.0476977384394703,-0.009348139851724436,-0.11108369515407074,-0.04921057136947257,-0.29162830623682545,-0.039147597099665865,-0.23217251406906203,-0.19414206507817067,-0.2745496222795758,-0.15405249161331874,-0.181217176716559,0.010217603954961102,-0.24051221686489935,-0.18035155279777326,0.2264719439562139,-0.13660210751539978,-0.10641145407867753,0.01927954835775749,-0.04808412435657381,-0.27146446104530275,0.07252103162868397,0.05395049231084879,-0.432473884439545,0.07262863825348906,-0.5008045257008484,-0.08003871146735869,-0.39052653913205365,-0.2290642257662954,-0.1982843890941328,-0.2960095355101457,0.24391613772644616,-0.20820745053094566,-0.20600782362961087,0.042367616930127305,-0.06738522756391216,-0.3985924774395916,0.22311788545283917,-0.22836872482085785,-0.14461188063253103,-0.014815801667473063,-0.6045441323961095,-0.2065682064184238,-0.33698738501200126,-0.4079551178597678,-0.2902597437437369,-0.24750175610762248,0.16474844592587584,-0.17054113609209115,-0.15243177011335757,-0.047982619949052875,-0.12693282047815194,-0.18781752370027535,0.10680512015182027,-0.20479309885655117,0.1417779000475703,-0.19059584067769578,-0.48892182062785233,-0.08561765866456979,-0.3314000161051395,-0.340533785584162,-0.2984662360964558,-0.12399148574783833,0.18243883027202515,-0.18961063635225586,-0.07617652483760438,-0.23914399045860785,-0.1330583329207041,-0.10595358373301535,-0.0655606305398459,-0.2381494801031653,0.2255071500423388,-0.14514453785006487,-0.2452532928891509,-0.11608499145621488,-0.021955039918531982,-0.18526744709933257,-0.10901422203703906,-0.148158598472233,0.3064371411198915,-0.16714692673802817,0.09639743642233276,-0.3722081611737991,-0.1477297359496248,0.11857414015657126,-0.3435037588264418,-0.033279402601074315,-0.016301140359733093,0.021522927278843626,-0.1155695027487465,-0.05891599834730212,-0.006230446530293188,-0.107007816350416,0.05106400003107214,-0.2475133219832988,0.35818460305737393,-0.13830607452878432,0.04859016102013165,-0.156338930229817,-0.038664643523455326,-0.08817257136611786,-0.3440605780688267,0.059972374877928815,-0.3622850616764718,-0.052954459511114944,-0.23997533863025258,-0.22135397428523598,0.08398548289947179,-0.2654572743190151,0.1193489842572876,-0.35707615597208187,0.3927442115644241,-0.1957313409701916,0.06562711388580907,-0.09530708006813983,-0.012045389090681018,0.11667261468577467,-0.41491484995010713,0.015155430645932774,-0.43199751977017353,-0.20729245880533256,-0.39768708528950397,-0.376698420287264,-0.13984449751511047,-0.3127259350571569,-0.09180419812370397,-0.312226085739172,0.24606020361517442,-0.23003018615844298,0.0039331253838813226,0.001229682913913785,0.046097293239565844,0.04505514238009775,-0.26973247957406016,0.032934774014132424,-0.2894465751106734,-0.19539695272824364,-0.36741277263071004,-0.39245325715178236,-0.021816146674200693,-0.42634270404541996,-0.11709426696174423,-0.22546952385648816,0.11953284443749349,-0.18094790580383502,-0.015391945362788052,0.06635423767139495,0.14659475956987175,0.21250136383945184,0.2009004689232598,0.16336347904511003,0.14033147873665952,0.10454053136692033,0.11502767004296988,0.12958883029891222,-0.12211702887514064,-0.14832630672862268,-0.26127818226032173,-0.03126518565515212,-0.14898648129431816,-0.09459017597643615,0.03918154395294646,0.06031604964058493,0.12172056305028388,0.16312591919040517,0.21568629036780643,0.22107593406977188,0.23900785869070268,0.16262155566035613,0.10085102375854424,-0.15303239733392549,-0.3281630104466458,-0.5012376644707286,-0.2877098122941651,-0.1265002355903454,-0.02947031215259282,-0.10790983140626265,0.0622183434350107,0.17704367745980287,0.331756121538085,0.3626709189801331,0.3338615674469827,0.34938442662968633,0.42581175429437484,0.5247836646080165,0.4833514686300721,0.4769559525839387,0.15935913640776597,-0.12939941279294936,-0.16246844058596474,-0.04559386798930287,0.002344782107860216,-0.09764847573523952,0.15405088813570722,0.2892337168104594,0.29892180410559915,0.4517319389680791,0.4364711418177728,0.30310709682130293,-0.0057986905873316195,-0.06419553069793829,0.05458914819105699,-0.14293077628632395,-0.4748976030899589,-0.6029198193718643,-0.34964258702556444,-0.03638540575259396,-0.06618267346386678,-0.05866499090353042,0.07764437882373641,0.11283996054726285,0.23296188838545484,0.18104857212534067,0.2907873830262211,0.31349892104645116,0.2839072195406016,0.11373196369560595,-0.028578518551164802,-0.0844836404802196,-0.10797937275198313,-0.03489609431669337,0.06707093302476205,0.1313719733710758,-0.023273075753047597,-0.10607169094044559,0.027126906081266423,0.16598962584697788,0.12214400412350519,0.19762847135326386,-0.15667138876585177,-0.3911374829621437,-0.29749144490533946,0.06361262781344999,0.3278737309050194,0.09080325928978387,-0.15052579364033536,-0.16520546007007522,0.006802415373665636,0.02197368363610118,-0.07464797688928128,-0.15676662817449777,0.15993664740377814,0.23685687133395505,0.4305507967257817,0.34884806040675104,0.38466123499286303,0.39415887080231243,0.11415980819703336,-0.11952072108813325,-0.3487427563719617,-0.2639550056886093,-0.23515707511532707,-0.15039747401189096,0.03134014938689307,0.16467672511683262,0.08157274716562543,-0.004393790117491023,0.08717652019024004,-0.014337933035105832,-0.33991594855761426,-0.3469453741129464,-0.30162680557404636,-0.24935616180030695,-0.2671835521168307,-0.17198951663946294,-0.08029709995079372,-0.28506838586871813,-0.46700140474430063,-0.3717602283162275,-0.14500637350230652,-0.0781022215359543,-0.14029700251576235,-0.1605368002711563,-0.1153112661873289,0.01592427829152963,0.20330470970883144,0.17230882572433606,-0.13257907558460266,-0.2907070859675637,0.07262370438190145,0.18831192581280495,-0.21071598757294766,-0.4656776417447127,-0.4598011432400454,-0.06324393745776642,-0.005387647704806567,-0.0077335029436203535,-0.0692250240810584,-0.08201731719188704,0.004885788658797861,-0.12068139385252785,-0.30146510110218705,-0.33657449263460826,-0.0670025269578529,-0.02546153059368839,-0.24922159687575232,-0.46868712926697365,-0.31295518656503124,-0.3189755641084867,-0.35479864096303776,-0.27384418158275387,0.02962243020198548,0.1002365244531213,-0.0011297232736594076,-0.08263184681949004,0.02237906084572093,-0.004152947802668325,-0.18162156608893457,-0.22242787597464883,-0.19335752145249632,0.2514244393222334,0.33926206634475037,0.35618611106741543,-0.12372010621725495,-0.3401494110807756,-0.4046766310117469,-0.22510523865546,-0.13536190903840828,-0.17137163096956629,-0.06648667699584192,-0.07352837491258238,-0.2272286252123152,-0.21481201842130895,-0.04217313722098585,-0.12609114560428664,-0.2209451518675122,-0.46419870411126557,-0.1445317865212644,-0.009603019547716045,-0.01381539911215555,-0.2745684511960556,-0.38336965614737434,-0.18413752575555872,0.14404648951261342,0.15049237649882038,0.07984549308196284,-0.06555172899863523,0.19479260537806975,0.1297647127828113,-0.18196868310050787,-0.27450491679045197,-0.052793728405834496,0.2653153384141727,0.05131117823429328,-0.2855546536570478,-0.5086778396359121,-0.4754129812540889,-0.38157982173080657,-0.16603370228186307,-0.10911210157020092,-0.1246562572764923,-0.13608128501117808,-0.06699095675722973,-0.12171340214504855,-0.12186886133538644,0.014946285229984087,0.08317416529808258,-0.18628115549347435,-0.49140554485353793,-0.482241320238622,-0.07810859348832294,0.005526294370756576,-0.20540749131889044,-0.32036077684110137,-0.2963610853925795,0.07251074839573082,0.018550096843593752,0.0827965001899488,-0.036922503185073154,-0.009104975500944237,-0.0419427456245299,-0.26825847605886655,-0.3718534156085702,-0.1305686683259096,0.22171222306066438,0.22560667936705092,-0.16649225975521012,-0.38753347322936943,-0.2465613358947669,-0.10904421304702411,0.013465824223685561,-0.14563114205647854,-0.11522414765385991,-0.1281054764617996,-0.06008772551078622,0.038297729572088914,0.10674705453802355,0.23343822821753354,0.17996728431374664,-0.09259892575224554,-0.2869633567163543,-0.21566433947975427,0.12660052096429883,0.23756287292321773,-0.012534498073428576,-0.10765959739271092,-0.21081162440018955,0.13189118176918327,0.10005078506861978,0.12017699189637589,0.01203143975022745
