-0.006771325206191784,0.008182627732357063,0.007030966515435342,0.008313337219859766,0.003575242700862919,0.016113187238219744,0.024806643500066273,0.0024740576214044015,-0.012763573050284168,0.004136436033230789,0.001152808125283419,0.004936815792314773,0.01237218530617975,-0.010176198952389899,0.001725164707924336,0.007304570426911995,0.0014391686306519922,-0.0020708570228034364,-0.012628839604978556,0.008231304304931152,-0.015216053015275979,-0.03149534590116765,0.009267612235742203,0.005919641842120702,0.000956230701795938,0.0032289399641326705,0.015988484300507578,-0.0025713032831062178,0.007876103781422714,-0.001070764308836669,-5.4803843680425744e-05,-0.004278446713151648,0.005121784884920733,-0.011265648563944885,0.0014076866666813054,0.01506547372755333,-0.018816704985404803,-0.013135519568991089,-0.006703904873760503,-0.0028225655099323103,0.01841816929738999,0.009645815495055846,-0.002777655381337537,-0.0017882347191212414,-0.0115264281119712,-0.006112051912904251,-0.012032201726324823,-0.011426099425764922,0.002997140647288585,0.0017776201312183703,-0.008946110990873153,0.003424023162674899,0.01115058366609467,0.014549515467185997,-0.018210510632242348,-0.0036982913168528294,-0.006011566637210352,0.007871820557252465,-0.0012127379206679225,0.014118191835072819,0.006513659467166528,-0.00023155046154646028,-0.007928114068800472,0.01608014582416888,0.0058428785204992905,-0.011685499562861556,0.011895238048088555,-0.019305166317588295,0.0004041734037844585,-0.000245440682958746,-0.01834383051984508,-0.004285832298235666,-0.0018593699796626711,-0.0022896609813294303,-0.007674158823980672,0.003366810234421254,0.0037823119091948726,-0.00022531188084333863,0.003299547271200436,0.0014825393138750932,0.001875754850697377,-0.009711032274158274,-0.023771895723520235,0.006490473033612375,0.001500601742686216,-0.0016011833662917148,-0.008260615114595513,0.009096345467473777,-0.013361858449686433,0.007245866756007793,0.001704047870378462,-0.012464396532911681,-0.00055835045010194,-0.014217297211778836,-0.016395500779263026,0.0005099589610697209,0.004951382060306808,-0.030062658407936312,-0.0011340665725757463,0.01904087010366343,0.010538912852549119,-0.0019312489611883743,-0.014111001220743694,0.000688560632894551,-0.0014259179327002903,-0.0008188250270235775,-0.0003151139218020739,-0.0018770113935037043,-0.006374768220884872,0.0060147838830975995,-0.004484969004523639,0.013990005217619002,0.008321879966452412,-1.6977820586823718e-05,0.011571913517473234,0.007653536306182318,-0.00271849838573804,0.007012246491762034,0.009621565864286452,0.009617726419814178,-0.008765379435262293,-0.011164348152093216,-0.0161458798278171,-0.006144796634370311,-0.013081566883341902,0.009338722795735195,0.0025370883776898844,-0.0017831272145915952,-0.0010416941516639096,0.020749630275418304,-0.018378719124093303,0.0021955304536958927,-0.00281834899610225,-0.005605889065898273,0.011995982939627241,0.01630669723868841,0.0064079513671278275,0.005374296413280743,-0.021380747497537676,0.0024833693693774857,0.00038076883013606153,-0.001944560766721012,-0.009789143889724468,0.0028209447812887166,-0.0015453673468877166,0.007751554482661721,0.006317200609384441,-0.0012787180602859913,0.004616538669984816,-0.012896297402821255,0.013519625359157081,-0.004948123375735846,-0.003448817250231319,0.002563813337887411,0.0036787670887934378,0.012971449862866304,-0.010202464198958545,0.011962099682806244,-0.005393762871557176,-0.019141541524130497,0.009058272329076026,-0.013458569806179321,0.009341757646207717,0.0012556002671927108,0.008304391563404609,-0.0011204810064388065,0.008985536402444008,-0.0025360819495171133,0.0011326023613149711,-0.008205944145583358,0.0026379764402174174,0.00456714487353294,-0.003917862860619517,-0.003660346115761246,-0.0008448096503774318,0.013757212679889469,0.009209898502709219,0.004971657347123563,-0.010737020984326922,-0.014956507901051566,0.004766153936252529,-0.004685616814497456,-0.013162862677327214,-0.02382831714328377,0.0007224241617759168,-0.012639970640175077,0.003254732176976188,0.007028321794956036,0.006247420748528881,-0.0003208401969830116,0.010100364781477252,-0.0004773746805219054,-0.007780274981774868,-0.009276540497677566,-0.01345532405005399,-0.008274733226850893,-0.01373758235541116,-0.007423185580476395,0.01567265590525934,-0.008815487668560646,0.011624410527808039,-0.016213592579851267,-0.004765641401620564,0.020318432794553937,-0.008861430242872486,0.003978023487878084,-0.000402007965369012,0.015609190204251255,-0.01684925144373067,-0.007501953126957357,0.009462262939030044,0.00678560400147493,-0.0023413461540694744,0.0036958959793070433,0.013376115305307943,0.013952425648212417,0.006054347468458197,0.0030074114236699877,-0.01046182797491829,-0.0012217078695897258,-0.011661984628269362,-0.004910674629550156,-0.0004364296015810737,0.00662209635215846,-0.011994290182244518,-0.016502402307628422,0.010863391322130427,0.004043818815701452,-0.012149928026452445,-0.0005328274322427331,-0.012994887747631802,-0.0058687168289214475,-0.013022020165225537,0.022957781787547333,0.01149068728558893,0.013395992714439536,0.004335313744179798,0.012355286815101823,0.0001972698806726228,-0.003380492078897693,-0.011637687635861671,-0.005595925703944819,-0.007318038572267124,0.010272212050129067,0.013126640756343897,0.004501233214780422,0.0016457709990652233,-0.002031327742586219,0.003781973313921033,-0.006234301777959182,0.01048572186947857,0.0037273146764581822,-0.0036305669749159566,-0.0036304442269073163,0.013537767687092613,0.0009979005314425763,-0.0010374145305637708,-0.01612150965257188,0.008386246169940041,0.02363098449627587,0.010499403717748925,0.008684287788929042,-0.007708582799392548,-0.003421601874450546,0.023580293459289938,0.008523884525849484,0.0029028303699505475,-0.018371894540285028,0.0017743714098751495,-0.006864730679909015,-0.012784238533204548,0.0011753336324091218,-0.000819117104224069,-0.019991334810793713,0.00919454462026659,-8.110589047552828e-05,0.0005403326640046885,0.016636114831072576,-0.00026974668604622484,0.003792682039059751,-0.0010032466409612053,-0.008668937343541263,0.018849306209779856,0.0069945631981348155,0.0012725704349855762,-0.009698426195771296,-0.004306046331376614,-0.009795687164699285,0.019523121029035306,-0.005400743577950341,-0.004648198936382627,0.013246453081871357,-0.007470873766881784,0.014726789842231911,-0.006201971338287619,0.004894626920859499,0.013835711662968405,0.0027368206666443444,0.001706654378618885,0.014798714825586623,-0.006172930653614806,0.002891389218650838,0.001983399934426001,-0.0030782006552544728,-0.007739066219516801,-0.0014859170212336548,-0.0035095632446879694,-0.0012649031769391443,-0.001390915318670521,0.009721415456041863,0.0025702615804498808,-0.0013927013471714956,-0.011478905093939435,0.001119619510245649,-0.014238724298052783,0.0060926247570097835,0.005290484833326443,0.0036359636033814393,0.010036864826833875,0.0005163429695040081,-0.004459223200213725,0.011822907278020186,-0.024496336510594525,0.003218089065565693,-0.004191906866678806,-0.0059623147023015015,-0.004093158124500198,0.0043053313124749295,-0.0137160509932767,0.0010252128134912548,-0.004457340598396422,0.019857502147512102,-0.0011383610871229573,0.008494166592251492,0.002210532096058709,-0.007992862148661222,-0.016905438527268748,0.004459653462375568,-0.007016954521750336,0.0028889748310711653,0.004033596340674929,-0.01584069713795728,0.005235231983814208,-0.013454072992129874,0.012249608772928872,-0.023001845095671426,-0.006501473059497423,-0.009150566101782939,-0.012714813751744726,-0.009671709892999257,-4.920861738321359e-06,-0.005782078358943859,0.0023136626211915016,-0.00013508663779541235,-0.0033493201287003505,0.0015914564421269065,0.010859452024691428,0.001012005121094176,0.014161095389479579,0.013817580572925758,-0.004983520452216738,-0.002234040682758062,-0.014432130030738979,-0.013298200657861883,0.019446245161426037,0.0030014391259660916,0.010075944730435014,0.0006409985474472098,0.017510548744634057,-0.0026109659756485206,0.00528526927987033,-0.01627067616976371,0.023589559920741292,-0.005345601194434881,0.012084053890689828,0.0025957544209602485,0.0016358368354243077,-0.006643848875906656,-0.014177248600773532,-0.0001447353321895317,-0.017984568454928726,-0.004064947677874792,-0.013821643362108815,-0.0008405961839122498,-0.0017434879513429633,-0.0011808320290464605,0.0060129226539256545,-0.00880420234086277,-0.019069097023475392,0.003674149105125021,0.0026743398498033596,0.0019085953612997947,0.004319866609386025,0.004172689635945053,-0.004769131960912796,0.010332847384242975,0.0016637533340613507,-0.005874904867960125,-0.0027748102188487594,0.0002646322194493504,0.010318444128350295,0.014236546220843535,0.0035883405895233084,0.0008908269835852428,0.011871936001539166,-0.0003266052104785579,0.0025572694609055906,-0.01827181432371666,0.0038048645888623723,0.004106723592348032,-0.01716560176274598,-0.008934714972619695,-0.005365835754864989,-0.017328935090647927,-0.005621013215317303,0.009519819927550103,-0.01614178042041383,0.0004851036424281619,-0.0010077093738193998,-0.0057344283643375165,-0.020085571336260287,-0.0017644039670197413,-0.013339541104192621,-0.0013907255694498924,0.008367770562780647,-0.005911261969904807,-0.0011123784026935708,0.002068621483142477,0.0151029481336625,-0.007794920993265419,-0.0020601864565806343,-0.008536515245255763,0.014109756844248906,-0.02049432237190839,0.0007502515381237638,0.0035803177958839984,0.009126430167885977,-0.009614435792076976,0.009811982999593153,0.0017479871249272852,0.004599103185669386,0.0033734521049604105,-0.002516468564686583,0.0009038889962816145,0.002281091929618413,0.0028513184179953335,-0.006678017712229569,0.007056774667736684,-0.006087865869819822,-0.006299878429421656,-0.0017121634061477062,0.0118727280657982,0.001047804337521138,0.026986381141735807,-0.002306792417142219,-0.018236030937308842,-0.002215938027979959,-0.010138478859243379,-2.9970991868383955e-05,-0.015886934071793462,-0.008652575542569856,0.013255879303681604,-0.004406923080922034,-0.0058733018307559086,-0.015296946626870572,0.008234910965676061,-0.016942002467769304,-0.01672914735935906,-0.010497246879753475,0.0014000193534593097,-0.0008978738682561454,0.00193676200748853,-0.00023417220540530425,-0.0003818692608233542,0.0037364622043165063,0.01281049960476117,0.0011348530207036093,-0.004768813308501656,0.010913873918011656,0.007604647606076063,-0.0020633290817717036,0.03495384609527322,-0.0035951685875911664,0.00860699997282759,0.016938605849223548,-0.00972989123316455,-0.005579016703491004,0.014655692226333726,0.0060975809711996745,0.013953146362262903,-0.007827481220248213,0.011861556475884424,0.011023231300102394,-0.011409287684860275,0.010335233357045786,-0.005930852447258897,0.0055181760540898295,0.016328688544399873,0.005883731123340191,-0.0049031211085136,-0.02389040154541888,0.0029106123309653345,0.0077745152676320485,-0.010719458222752467,-0.004757852857231624,0.0023414458783504633,-0.011916237244143686,-0.004955651353620159,0.0005264722394732353,0.01093336260568117,-0.005487902520164018,0.00875926110591793,0.0004997183267313915,-0.013454285383995455,0.01518791150412433,-0.0015589905799955703,0.011740094408733855,-0.0010696941289939958,0.004988318527685075,-0.01101195025042418,0.0028892662578433193,-0.004113343886088074,-0.0005958925667780842,0.010578785099247366,-0.0060966026934147375,-0.0025848779399215466,0.011730798478358425,0.007151033234015769,0.0014502586840428185,-0.005121955325833375,-0.006100479607370642,0.006626898716964809,0.019271593385807705,-0.01871243678882565,0.007570240243171319,-0.015606882553698902,-0.010111179496372597,-0.005635239373288451,0.0028954070149202404,0.0016745614821335876,3.690449744469084e-05,-0.011516718174120541,0.001425202096581038,-0.01163148937127216,-0.005036816111469671,0.0013990708089392054,0.007673130130183032,-0.012879867276023416,-0.0004015069592871474,0.00393073579983589,-0.006703639642916194,0.0028622549544973404,0.0031416330830595406,0.006086598606341031,-0.0014788586041497424,-0.0019062196112795823,-0.0021534500137936827,-0.0023140008800945433,-0.011546407282005794,0.01112995477400749,-0.015713045982792828,0.0065073419452596525,-0.009505985677998378,-0.007837283156873473,-0.012387029105971026,0.008988127961155265,0.014578704071437845,-0.00013659168352166947,-0.013462324290377099,0.006563918451623101,0.008577581702407357,0.019645974716425398,-0.007527137148606985,0.0005064102356699041,0.018394717158702688,-0.009417383644878728,0.005287688803863953,0.016021191983319655,0.005166088042361893,-0.004874415515139485,-0.0035514959805008723,-0.0023107804119259215,0.008673026665666482,-0.015442321974600283,0.004741866857460062,-0.017698291789802974,-0.0038274639805924594,0.010460150628759775,-0.0045925606938358576,-0.01763817008217664,-0.014940687970170868,-0.009899732377886243,-0.0036736298529585526,0.004930314299023012,0.011529067171922598,-0.006371583915245192,-0.007102166880149784,-0.0013917536606835041,0.004688344154408438,0.0011938112312008967,-0.0019951636701088693,0.005162667009234638,-0.013229228691284484,0.008944658734204447,-0.0022295229530871637,0.005496324935483901,-0.0022783949965989466,-0.003861648122466966,-0.002987850837283156,-0.00035347295026430655,0.0065709687999272485,0.0142756846044282,-0.0005009951702218829,-0.01134992179084576,-0.00016435577294025573,-0.0022699756194850284,-0.0044518833715444855,0.012682564950271702,-0.006821210913550524,0.0001618988424335491,-0.0014862791135714765,-0.004301907373326342,0.0100507904468495,-0.003513670059598035,0.011360135353996173,0.009737091612242907,0.011786926544596113,-0.004447703873257808,-0.006112057100530035,-0.016543204657970677,-0.00639342041265555,0.008877156013896182,0.001834781406019639,-0.02115783592498347,0.011053365956585678,0.001553432902372432,-0.008167729391042685,0.012373784855540165,0.01670263039863932,-0.0049262003941857565,0.010107954779945761,0.008140944574811959,-0.007056078024175537,-0.0056580383840607665,0.004913435319342372,0.011367781125783656,-0.009399125931497424,-0.008380180509678498,0.001321589385365845,0.003210390247218773,0.002365876454889748,-0.003367073517015026,0.01526819637230811,0.0018113833720369804,-0.015846593297182677,0.012681417032458148,0.010233335275424634,0.0009445205282122028,-0.0038693114495762823,-0.016916114437679767,0.008529547873509425,0.015516122721320936,0.011876230352267038,0.0007367373302115754,0.0040679639635857094,-0.013275394870709181,0.0061334380945966965,0.0020520800725644687,-0.005824847598880081,0.0070491079436541225,-0.01317556569707177,0.005097993789828685,-0.005192133468429865,0.00669801654209726,-0.016348376564604323,0.007898623680099776,-0.004149702592064578,-0.004793316557589566,0.008834105481985335,-0.00438466731022221,0.00659579319736863,-0.007142287813050635,-0.005202084360662873,-0.012694718832475502,0.012659758834653596,0.015313366266642193,0.004257003841886501,-0.0044744246648909716,0.016460718668194117,0.004583716360946562,0.0037844915088675324,-0.010439768909971807,-0.01591978494964081,0.0046628184844805685,-0.006337345776965891,5.354539530765916e-05,-0.006211643803439806,-0.014761553110435205,-0.004878284501689648,-0.0009428722351427904,-0.004114325949913697,-0.006200981955105834,0.008935086468668365,0.014396127494956269,-0.01015018526625782,-0.004446006410176098,0.003273508149291183,-0.010467542477044097,-0.005013140973912551,0.009858383543625726,0.005709850725499741,-0.009521641320661047,0.004029934607880325,0.010716286539931048,-0.015184815367316756,0.004798783696230999,-0.0029736828284992827,-0.0023562812386402347,-0.0004324609815030099,-0.008944040745563384,-0.0032877335378249427,-0.002562852267472061,-0.009004004259313173,0.008028225611319433,-0.0017459858715538354,-0.012287882915577869,-0.010259853321080068,-0.005654984395785727,-0.006371887902197262,-0.021194101188699754,-0.005488432799441619,-0.010625083610098283,0.005600917752979294,-0.00594547311567027,-0.004833402986418848,0.02362854386474516,0.0026698454634954223,-0.009019601747667803,-0.0016419547438915932,-0.016038225949339596,-0.00044444587633313195,-0.004379616651412505,0.011745538905712337,0.007156565203149742,0.002751074501997507,-0.023042120471163288,0.0008490852756345048,0.007999269681825554,-0.00973487821367999,-0.007317331943230544,0.023008791895256075,0.009023323619289314,-0.0010176664415380283,-0.02021451038871115,0.011588135522231298,0.0036264039220549487,-0.004920145426929862,-0.0011622771699018207,-0.0043382056616936,0.013507733609143195,0.005262403602397584,0.001767114835770434,0.0031174062072026575,-0.007491032307700235,-0.0029901002136994734,0.0111497216190836,0.018902464007325787,-0.02999301032738613,-0.0004054615339015095,0.004297382961104168,-0.005971693047028068,0.007620997409989775,-0.003094409527964366,-0.01353967371521504,-0.009690871455067408,0.007989536879121193,-0.006047016868243326,0.011021577813941249,-0.010643874391701613,0.00482507476071206,0.010417940572918217,0.006215961109778056,0.005463317242249839,-0.0015944387284942687,0.013116364979760788,0.004714483837009732,-0.006359146395361666,0.014489003448360136,-0.010963905906875729,0.0012445527133743816,-0.0017410540722970292,-0.011965532993265674,-0.00034504531461653957,0.020558719734246056,0.004587918563859852,0.022582381708164134,-0.0033932806125674263,-0.007935640485213368,0.009006432877666318,-0.0006209682576050094,-0.003864495151206816,0.0015400130222810483,0.011268423054594022,0.001876214999966055,-0.0045348308316527745,-0.008034929582018978,-0.017033325921596242,-0.011701823695053862,0.01259760966401489,-0.00010489260362826181,-0.0021221310963572926,0.007165210741844882,-0.009032526839393939,-0.0004382769722336756,-0.003073293137249121,-0.008572427887193678,0.01943010795060542,0.0011283722135729576,-0.002614002056992929,-0.00839464928365589,-0.007271794178080813,0.015028237768339019,0.0018121626408867852,0.008579211421886007,0.009748408413004193,-0.01563407447718736,-0.008454545997743576,-0.0007371371001155724,-0.002840565565225407,0.006044496859486993,-0.0037300984577402856,-0.0029001596689341223,0.009072723665716655,0.011678858463286168,0.007480028964804311,-0.018773668247289023,0.007390773881571726,0.00016236149558511323,-0.015074249630007749,0.008193439782718286,0.0016023990141528976,-0.007654328668775795,-0.0034366380252533763,-0.02039197818163412,0.000515871436524775,-0.011514404764477897,-0.005358538403263969,0.013545806665124442,0.005407121328490861,0.002056390033765547,0.002055179365016461,0.008341845730081107,0.0006045467001354018,0.017676257422319694,0.00041849036461859675,-0.0148564482413831,-0.008724540610650805,-0.0040946529270111925,-0.02487170514272419,0.0043745338477652555,0.007611272247293238,-0.0078060584887256305,0.00271435432473295,-0.003618923770248944,0.002078825857621646,-0.00716140655968374,-0.011169945145465265,0.0019250780334216908,-0.013775739709263672,0.008506471813662512,0.016054032800735165,0.017695696183479936,0.0037273145638264406,0.0027610397501815842,-0.0009356727792246887,-0.004762634628653172,-0.0058461292847157165,0.0018843044093629128,0.015206398223196258,0.001053071160711162,-0.003770297233672742,-0.0027372054013030493,-0.0033497765765267778,0.008846386947680243,-0.0136336366331889,0.0033548359678787134,0.008177034428817875,0.011424934319203512,-0.0052096207060406755,-0.004775087104435943,0.009566154999216456,-0.011680067130746912,-0.008847856332862183,-0.002988123293604524,0.015224243181090412,-0.01986188815881231,-0.005332188609055524,0.0157996532769164,0.00025760987577233183,-0.00041737637647899805,0.003378112387339105,-0.005696235945298024,0.010332555513019526,-0.013303168652774186,-0.0015166910273615556,-0.0029415227601697768,-0.0017579540066023753,0.0008545225328003628,-0.009572957664322949,-0.004297665922164659,-0.01812492644173114,-0.000348457934575989,0.015023410867270433,-0.033433100656972935,-0.0015075492866982352,-0.0028109013099338236,-0.013982607444561413,-0.004826760077277452,-0.004465615415772501,-0.009305924648062859,0.0034047120300136425,0.002539057634041794,0.004904422592012436,-0.010156210572882976,-0.0043795633233136766,0.0023254768567660187,0.014528387227245736,-0.0021693671678982823,-0.007195719560881489,-0.002474371860980566,-0.0038643397195381396,-0.0003770001518368698,-0.0027854070341761035,0.0030397039607093523,-0.006196250349749184,0.003148765543003554,-0.0038617305630798487,0.008584203821446654,0.03297151676665432,0.012110278670043351,0.01948423200987375,-0.00157880970854902,0.0029584123034344747,0.014530610153346356,-0.0043522259983674785,0.006667457018651374,0.016446421816455014,-0.007546452164313251,-0.004568347845216764,-0.0003238723800671269,-0.009735917685645846,-0.0023735822678724776,-0.0020221215785318184,0.00314398988874422,-0.0174238286344388,-0.0025952680334785233,0.006992565970429613,-0.0018666543194575586,0.007588599825532485,0.003573849171470611,-0.02295773342188204,0.003818793683848039,8.020206221299547e-05,0.018435140987728346,0.0032120232187050186,-0.012203357712538195,-0.02131129116487515,-0.006155715637722182,0.001682963403042265,-0.016504687233924415,0.00918506978753087,-0.005236010135358753,-0.0008402176987030716,0.006766286114138617,-0.011978626364639474,-0.0018480462970457251,-0.005994001275922212,0.005035538992308417,0.024789452447361672,0.021892123705522258,-0.008002236605035972,0.0002037817361543903,-0.007593628718052016,0.009888392098867793,0.007199324948343177,-0.011839610625393591,0.00997613109136178,0.006597195548187793,0.006094912300380891,-0.005974382757462506,-0.0015001124726703795,-0.0011384112390977496,0.009024032188790436,0.007140440504080145,0.00871367334763316,0.012191481717514187,-0.004044249783576074,-0.0034422374973808977,0.004065942866879493,-0.006091964186626196,0.01555601584431195,0.011514462856719738,-0.010247784749656612,0.014470140169327562,-0.004881544750250497,0.002692174928253948,-0.0011491280783261966,-0.008979834405259707,0.002745069067567627,-0.005604761224734335,-0.001673341886842133,-0.0023264813583114144,0.01591590856221253,0.003225666356716151,-0.007614034850984813,-0.016001846628691224,0.00253577545402117,-0.007426327563049105,0.004583178501761189,0.01600673152145389,-0.003965135823895787,-0.004966875072563599,0.009121181544266584,0.0016778209644100126
0.01852329659109447,-0.004885045295885189,0.006606724539653426,0.0018175336002013152,-0.019224155579803864,0.005638344671584253,0.01781034985591548,-0.011971653583960193,-0.012358011763146104,-0.009640801565130034,0.00400792357597672,0.006844721830901657,0.014157998686634605,-0.01281546201475164,-0.003935223526391216,-0.016097339734779576,-0.002863511169371968,-0.006991253866213763,0.010349777305327375,-0.004610495112786553,0.005554514795950002,0.011685990256723199,0.0020820732507852015,-0.007190027672293987,0.012979558320806975,-0.005804882740413504,-0.00035178712166821586,-0.001508462975388358,-0.01726970580349893,-0.005286461311709994,-0.007890194551858586,-0.00243155765376885,0.016697057447982565,0.027593379748717166,0.004757119507323936,-0.007004567182472352,0.0007832362237564046,0.0018187819466018898,-0.011443616166456621,-0.0030266811432320185,-0.00464276768021435,0.002580923537104598,-0.0014930872819322047,0.0030613444597990713,0.0047831101401582116,-0.006993844291738175,-0.002279224580169015,-0.007940656846191912,-0.007345850955172936,0.009340544139914333,0.006670763421203512,-0.00795899962094333,-0.006498589996854057,-0.015773176501076864,-0.01649551287539441,0.004646539900812145,0.01886356781725115,-0.000415616390495093,-0.004178548139606307,0.006014344685018665,-0.009212778021786558,-0.006761497448581252,0.010660768468192762,-0.00038739200264272704,0.007167651111532285,0.0030137390479655596,0.010126907897726465,0.008657102722502379,0.0018096635500498084,0.006715249887950076,0.0034550136159814423,-0.0029452340369829954,-0.011926206297438732,0.0061394842043718005,0.008723223405028359,0.009768326918164861,-0.005537076939897213,0.009651289706309319,-0.007211710893646826,-0.00697303267040089,-0.00226282773795295,0.0035595703190970896,0.0015202660360316062,-0.010360528608761672,-0.006567292425167581,-0.008243404255115596,-0.011549290400965818,0.016538044557892685,-0.0024395062954192994,-0.006359835071444708,-0.0076240272602572465,0.004216296294863895,0.014774283457729421,0.009082340379264402,-0.004037403203848446,0.00876581502158362,0.016434388207459377,-0.015003311738603703,0.006738205947456533,-0.011477886988323211,-0.023731778541604003,0.0019204295160149354,-0.0014419367297296612,-0.008491733629325888,0.012099269494512333,-0.00873654668430112,-0.0029392925865173868,-0.00024835293189380233,0.015892878662229246,0.0036939376259474076,-0.002983556249278978,-0.005182842043873353,0.0006067997874532342,0.002847931390316566,-0.005820732173291169,-0.00816498483638829,0.007819395477239997,0.0028058410245516536,-0.023417102585101178,0.006627569137589831,-0.0059652592061002,0.012205547963528057,0.010210306930267738,-0.018117121350898595,-0.0025085677958713005,0.00522630974295191,-0.0005928861289819247,-0.010201090119644518,-0.009455592514358058,-0.008296998230524325,-0.003647389154252413,-0.0044635227945384595,0.010463909299302543,0.005531325129237326,0.014210408896881736,0.021340752765212342,0.01089834711174416,0.0052875712662202624,-0.0020726257721110338,0.0028403234638940712,-0.01966414937667563,-0.005864361622201603,0.011105329208774082,0.004099961673298276,0.004932310598729715,-0.007763217222863481,-0.008286465913137461,-0.016792459453776713,-0.0014002356280684784,0.006276931419864417,0.006760399192721782,0.012296546487487148,0.010616470870423025,7.835476276568529e-05,-0.0050334022339934646,-0.01029325228444622,0.0018836009447485485,-0.0045922487556301905,0.006507517152005276,0.0052310526134272065,-0.00612404168886822,0.012154169230372207,0.0012288150688106686,-0.011694721586101978,0.00667578973454988,-0.011410033986988683,0.020091619068282135,-0.005988247055453917,0.0041495602163353915,-0.01746024410496086,-0.00020581514626442338,0.014727568730788137,-0.007931883477116904,-0.011678421590637946,-0.007862784050644256,0.007234130237232715,0.0035643110329110377,0.014685552568205258,-0.00826282446341483,-0.019433427764822528,-0.011668599022186006,-0.019040059831612558,0.0025156611808758436,0.0021939718821345445,0.004606379385621256,0.001302135864543999,-0.010767290300137056,-0.0018423589037808506,-0.004411827913769606,-0.0034283314839792614,-0.005785843455877372,0.003502104531724719,-0.002001501065280023,0.0007467149209556182,-0.007571334839538677,-0.010661382924043934,-0.015465002890619669,0.024608437707930312,0.0020241314508605015,0.0015414058378594492,-0.00042961746653462834,0.0016723749969498856,0.0003058386171914835,0.007950628751707883,-0.006749105710350635,-0.005366386044336062,0.003394675967434741,0.017130772110377394,0.0066799571799305395,0.01508964556809577,0.0037279658956999146,0.0015585064935309209,-0.012990826331614474,-0.0040814161285811735,0.01190795868353642,0.0036618513038345624,0.010262300565503297,-0.00834250336174602,-0.006783007721724218,-0.010947393817517219,0.013685847156726017,-7.576022889373206e-05,-0.004392133446032284,-0.0038769532494399,0.0003813700622745814,-0.003226398621546326,-0.00016326265545385025,-0.012013622557197377,-0.006503738140610176,-0.010414031082951618,0.008545492556943493,-0.013345046769523146,0.02127568476612029,0.02553749924613442,-0.002074007898345735,0.0077648437801246945,-0.018833531474937472,-0.011262563838372944,0.0010390457520975233,-0.011634413829169507,-0.011502400583928723,-0.006365215150111195,0.007011193967648822,0.006959157347589034,0.0033999946845350688,-0.012459076245709105,0.009172608400346463,0.0028303321265848035,0.0008725910808775035,0.0030212852957083214,-0.0014855879481777533,-0.014328965966301234,0.006447180120098756,-0.0038495095789641606,0.009808446227568952,0.012510599708351468,0.015950810081826746,0.00017426297268129817,-0.011867431169515835,-0.017571360720842488,-0.012563695071625174,-0.008816398158285147,-0.003009730769799335,0.026752770720828947,0.005672929125995753,-0.005034633811220226,-0.008175024013563627,0.006123236115426581,0.007585706853191424,-0.017066032295600303,0.009001335983599364,-0.003960298192128571,0.004595493953900383,-0.0063129884500865985,-0.0013388549619884934,0.0032199392809002625,-0.004868813747162236,0.004694107773666527,-0.009054390812014533,-0.001756547347130228,0.019959425137444812,0.003267201324228933,0.019301683087447254,0.0013324443713098974,-0.006020936951839326,-0.01795843567795804,-0.018126255163925974,-0.007436629390648825,0.01833679078502549,-0.009587375573624197,-0.004028559893085167,-0.014620042444826098,-0.013611337584338818,-0.003651315189771315,-0.001031188824028731,0.01082258036330734,-0.004911294452676588,0.00498936251673544,-0.015013156047410553,0.0036905396776346676,-0.0002819290396028173,-0.0024565915602860035,0.007891438331633617,0.007005460248917176,0.013657861783050044,0.0006481267900929438,0.015644226838401425,0.003155297190340054,-0.00010093540414341472,0.02289115869289291,0.006113068089937714,-0.004459291541514147,0.0005458968465850582,0.0030041731224009693,0.007838160607823653,0.0007651280280352163,-0.004964104512684379,-0.001153888360052028,0.006796829318085598,-0.01319650663201354,-0.00849342150481265,0.0021013768054201722,0.006201410917432669,0.0020051713784636936,0.001768330498290176,0.00486534962449181,-0.014819514915381969,0.010462925854187679,0.0016533518754614973,-0.007438976933319815,-0.014010118955354657,-0.00048771636421356053,-0.006619303211746569,0.011335912547248878,-0.008748320809003639,0.0190681385644769,-0.01832716554262672,1.5663775318534786e-05,0.0215722910431324,0.001855976804780563,0.01422062311251189,1.5912511291035192e-05,0.01223073606250735,0.029419891875435318,-0.010192262468824488,-0.008474987728332321,0.0058712920925433985,-0.001312116091715651,-0.01804361877443152,-0.007299825111974649,0.0183422253468518,-0.007102613508633139,0.00898225953730694,-0.0033897773812292687,-0.00858613303870404,-0.0016062575161137776,0.0016242434575971184,0.0038365027291916306,0.004860919144250138,-0.009047818403099674,-0.004986462299975513,-0.006426553154364904,-0.017851129013622305,-0.00022857805502402243,0.014926528804627373,-0.012371853308062834,0.005224327909485689,0.02035927155687292,-0.0004171692865180992,-0.011365532444403463,0.00690426556548148,0.0009764211533788448,0.021357221179702634,0.015342914903798912,0.002534237777007229,-0.013638520471089393,-0.009362528495591759,-0.005045470052218155,0.01690209350994781,-0.012041443027296072,0.012840279667329405,0.00338687507168114,0.01035218415621139,0.007377037921584483,0.004131062316119037,0.008416378624210687,0.012177173685105624,-0.006462721519042909,-0.012731877685060844,-0.011611916650192233,0.014850961747957596,0.014055777427889113,-0.005009152345504288,0.008815022469099815,-0.0013230150782291737,0.0009769558579650144,0.005123000337727764,0.011587588921886414,-0.003349153118491626,0.001306316229938115,0.007904429146765517,0.009773104279474663,-0.005084668452997109,-0.011276419468236005,-0.008925763054840523,0.0025914014708091587,0.003601330206239872,0.00677138655906934,0.011055538815575635,-0.011044060788421437,-0.016840933814335206,-0.01262191309091115,-0.01276029331994561,-0.0019091054696014043,0.0036234838483378555,-0.004555964125535002,-0.004271114357556197,0.0017798424778979458,-0.007076170826554798,-0.025362988028068006,-0.003298334048715301,0.007435422177478728,0.0037391058501320073,0.003054962061573811,-0.0017273348432215536,0.010310537636374588,-0.00581143622711889,-0.0048537232639064955,0.002811919528395879,0.015784764839192687,0.011863089044342048,0.010326495162287171,-0.009663225264543805,0.019452118526437887,-0.005037662557479988,0.0004840114843218536,-0.005679185501706045,-0.017835764811897463,-0.009241733017221494,-0.012265053433202649,0.012438799073879112,-0.008503771336635216,-0.002464089350848296,0.0012140401979332022,0.004332705160188004,-0.0024396401554839,-0.0022955148428054255,-0.0027891287223078317,-0.02107993483911714,-0.019975617578469617,0.005209140591426417,-0.011865253182486511,-0.008147229939408376,-0.00010078866747207961,0.018492887509474983,0.024436244284023242,-0.028635900427590417,0.005062506229525281,-0.019853659413627395,0.009298517583397857,-0.0027363459418348716,-0.007700450106497467,-0.008898162736076206,-0.003414031619906673,0.002506620410290462,0.01867584741502651,0.017401708971183347,0.0024321441798779908,-0.0015199724611492157,5.488852236361218e-05,-0.003424370813968374,0.004330362898976164,0.019615222076519858,0.015119403577345597,0.008549098370674581,-0.0023193826473470046,0.016474219547551665,0.001262459329407579,-0.029838001625492463,-0.0063787977846046584,-0.0041911124976517465,0.008792199695109599,-0.005897738751560775,-0.00013512252955369397,-0.004526324792315666,0.020391134006537876,0.006440276472396837,-0.0009714948870917727,-0.008427519927123948,0.007036609293340849,-0.0077941316915756025,0.003119713324442376,0.01899992380146142,-0.001733813658614401,0.004038104812499318,0.01021660395137148,0.0047882095301385805,-0.017850633146142846,0.01449907759763477,-0.01423499360479685,0.010309727835627816,0.007213984891355494,0.003950396461744882,-0.008936094075126692,0.010390581008604316,-0.00756289643798036,-0.005191267407587962,0.0006304903332481586,-0.0008241850450927069,0.0021352643154373173,-0.0032030310513624866,0.009093867070181842,0.012951900483123556,-0.007187377956585754,0.02240695303448058,-0.012783419952467146,0.010630769731569154,0.01550820616949893,-0.01620454331955908,-0.01196481215459289,-0.017743062994499674,0.003585949468181754,-0.0027278895467508064,-0.0006727454577489883,-0.007663697879384005,0.010180136020119872,-0.005938927274499743,0.0012346059760258462,0.006452521836858895,-0.010627925797068536,0.011169063137226218,-0.011736687692488826,0.0047562922038786775,0.02289685642433342,-0.00033993812002177065,0.006294440015093847,0.002151254743088207,0.0008178923027355455,-0.01962683757795739,0.006606457698409869,0.006329827077900996,0.0019094162816491597,0.015676068369803585,0.00590272251931639,0.007318750797916531,0.007201503195787288,0.004908466663591038,-0.001806232420844344,-0.004585400375413973,0.0005001382636813207,0.007407794054861063,0.020731061703928445,0.0158828048791436,-0.008751953319513416,-0.010625031936786074,-0.0025081023903374185,-0.007279407214069498,0.014328478772455928,0.00040123925937707376,-0.013991959902786257,0.005467049165932786,0.0023003388489480203,-0.00038830824573163206,0.00945450959326641,0.009727339596438,-0.004254995643639375,0.005520085290894547,-0.015090463060731512,-0.00563353170326041,0.004550324257084155,-0.0020788244778791255,-0.009364831885284874,-0.0049848717603913455,0.010491452155551799,0.0008881063018314749,-0.014037137538105943,0.011042374105159274,0.0022531139314216284,0.014560876900489312,0.003749435088000114,-0.013261634011294052,0.005042428075902624,-0.007808589950401711,-0.0007025792296543771,-0.0038448428776069444,-0.01140653241237315,-0.01928825741855629,-0.017162662246742417,0.010769448877266339,-0.00664941546305289,-0.0014121794945769703,0.016761660266599282,0.005894272334626353,-0.016964214685934526,-0.007932455358216847,0.004461702633369137,-0.01082695284072618,0.008903786440053246,0.008492979147621527,-0.0016184542905738153,0.0035135171105710205,-0.007131317841191699,-0.01068074993558736,-0.0037306239649203634,-0.0015867544533812211,0.0007943274829852362,-0.0067626107470098815,-0.009387769026397578,-0.0030625418011513174,-0.006762126338020945,0.009571023566995114,-0.015873980475827616,-0.01399815775204819,0.001399245398460075,0.013200054889694118,-0.009360263203876106,0.001885460991572387,-0.00858015085632486,-0.005111569756018911,0.0016289567830006315,0.005095680778621927,0.0065205420664010225,0.004331566456244446,-0.00012650055813777608,0.006539860798019266,-0.023614942556694815,-0.0019412640734239937,0.006600547097355349,0.006128605944928807,-0.00978058075743301,-0.016019867066695802,0.01934541551243749,0.002029345402385307,0.002344113535536565,-0.0062439135555211215,0.0003483209541908934,-0.004153773448683781,0.004841264749144121,-0.003203995560285939,-0.010862063348586578,-0.004228370159892042,-0.009623113578996067,-0.001878709438099529,-0.005692489578799304,-0.003949404059277406,-0.0013966933074203874,0.002975376321666356,-0.004024930846138096,0.018305718621124366,0.0021928342459982455,-0.010753585923638597,0.010025001892138358,0.018133681231457144,0.0012232573810178717,-0.012878163479221431,-0.001007631567473872,0.017813775679934484,0.007329308648838655,0.019604937214326337,-0.007740663896323167,-0.0025384205903622526,-0.011556169473312084,0.01163112004615385,-0.013684570588291943,0.0031162529891530246,-0.0007832272064083139,0.01546731885354987,0.006822565749527532,-0.01755831044256531,-0.012378019608036847,-0.009378750844734308,-0.005741095706133792,-0.008246983411354882,0.005979242125417807,0.012908116191137027,0.014267886606974674,0.007685375095877022,0.012815278478682498,0.004967426528096598,-0.0028845810133025463,-0.009672502504316796,0.007575322632806785,-0.015377765546340847,-0.0018230672139023306,-0.012720073106805061,0.0030018314199718754,-0.002776708242017985,-0.0074002685735045735,-0.00396528029510234,0.0056748335008755535,-0.0002245201592429228,-0.013747578558694122,0.0017070230979534902,-0.0091235162872521,0.0024474374115787383,0.010596412468922256,-0.001747057717866691,-0.004329294105715849,0.002240497354544655,0.006069300752669096,-0.0069070758644079475,0.020881860675717245,-0.004494735488440161,-0.017448392805781386,-0.015520093185696431,-0.0042755419644375965,-0.0017476864949028473,0.0005924778053959548,0.006125034947520598,-0.0006802624927037415,0.004023823943039346,0.009950386489617295,-0.012368494419047797,-0.006893269302467935,0.015407842297709248,0.008045731643642612,0.001972353910376481,0.007643502592008913,0.006277461853173578,-0.025234636314489637,-0.0019552614736885426,-0.00286256408245174,-0.01684186630881703,0.0006043948739420301,0.017921479789910214,-0.004844905298940843,-0.0019076906110653683,-0.008979418556127064,0.004082669285754482,0.019559398061221,0.020561194040061095,0.008149958350816434,-0.008261104280954099,-0.005771953699609322,-0.0060110254903191175,0.011836871880298385,-0.0004237444863652458,0.0013813645444170765,0.008026974892882574,0.0016231756993669564,-0.012103377745770706,0.012540626687663245,-0.00635976218323005,-0.002814141522974418,-0.0076749246919804075,-0.012077190345473523,0.0008459736886869013,-0.002748064782972375,0.005052137631531088,-0.018812641927290576,-0.009841883980506555,0.006069072155363671,-0.011457760919629127,0.009917012127484264,-0.001977735845064971,-0.009003590438008887,0.004202168238795111,0.011131146904201509,-0.0054008705814259875,0.002989258582898694,0.001008493010027881,-0.0034487527076595406,0.008396038763003627,-0.009016095303288852,0.014042755197358574,-0.004446065450699813,0.008583469449246303,-0.006798285978395962,-0.004644294298821386,0.009176930039979605,0.010260204333969925,0.020205077874193657,-0.008572137132321007,-0.012613958180803521,-0.011186137121558281,0.0006800094980837973,-0.0021452508096106706,0.0015597054073136546,0.008236874519296474,-0.0016889673052292668,0.025257415840047776,0.0005746892001389632,-0.004860463735016358,0.016925514189450885,-0.008231196727070402,0.011287124894885625,-0.004726944708837749,0.011311337956160815,0.004717387462214672,0.011362810968983204,0.0006305627404638961,-0.0009299445415514867,-0.013258355895701178,0.021065854089513853,0.0020360822937548766,-0.0014147477572383257,-0.011634908452283028,-0.0036567967561705844,-0.010992946036527104,-0.007350917284583714,0.005905264337463821,-0.009988294365960581,0.017260251308924595,-0.007778482394887051,-0.0008739377560949925,0.012585258702539116,0.004554268244419626,-0.029843198971912892,0.003043058309228671,0.01141268796030724,0.0025057467439213977,0.011378432783500854,-0.016694390940252265,-0.013784220623808142,0.0018704221087327696,0.0014846045746716443,0.009286063033246306,0.001309634718089976,-0.010479063816422328,0.0011386505359332756,-0.02297087626837915,0.014787747928616405,-0.008007762991301555,-0.0008251032432182282,0.003325814394720629,0.022322503153702527,0.0039102271845113164,-0.002066824383607216,-0.007354608045291411,0.008582592805742592,0.008830825917501449,0.02590771154258701,-0.009713574563609365,-0.006909352015495061,0.0039728659661690735,0.009054456178696534,-0.0011472051877802329,-0.0023979703403715015,0.005036667586171014,-0.012233670880934378,0.002375855379710111,0.015237954890924162,0.0013939049776545637,0.000275976564445275,0.00016671003273987375,-0.011618703444709168,5.192187184243958e-05,0.014665323522251255,0.005459576539366452,0.0011740721942769645,-0.000947025468921554,0.007764538615116159,0.020213667710037905,-0.001149913024048051,-0.007526699567143182,-0.007588595321670626,0.007947605222305741,-0.01883657620499563,0.008742659300196803,-0.00713500064863196,0.00207131515144979,0.000911356940188549,-0.0008146522225804713,-0.0020626114905977566,0.009911501105767821,0.00991820892004735,-0.006405337214571444,-0.00028551396236787483,-0.0070478987336876076,0.0029707456014859226,-0.0008983488935669467,-0.009575726626502358,0.0048375464843779335,0.015356958244453536,-0.0007973721400563776,-0.006383507744711185,-0.013207284455414019,0.012644191245578869,-0.0019185053224254486,-0.0024584716318300226,-0.00798094889931006,-0.012125648441706858,0.006080691086694043,0.002808833576925205,-0.013902558325101082,0.01402325312605268,0.002962140486858954,0.007272089273519021,-0.011709607209033936,0.003540097811214814,-0.005606432888290296,0.004700823081526435,0.0030471889194894643,-0.01839567281862208,0.003826554471742274,-0.009990567693935607,0.01158923377610976,0.028570299998144075,-0.01082785242374404,0.03241344376422611,-0.008708896440637706,0.003928313496464613,0.010842255275721613,0.003254720781661992,0.0015505601967190133,-0.00818663336799284,-0.0033270035095410723,-0.002089097796442,-0.0041982096675067275,0.004990078289210576,-0.0008926947269866187,0.0005092769317431585,-0.0028985940104165027,0.00015492267554362998,-0.010593173790553346,-0.005143656597127995,-0.008390233599596791,-0.01714877069139746,0.004087720779126332,-0.007392698217344201,-0.0012309605201928796,-0.004319766327793332,-0.009501468022410989,-0.002586210218302938,0.01670882546314328,0.005060294789714814,-0.004336303162755929,-0.0011355046471326184,0.004167429416459255,-0.00098166385926188,-0.011554991932580076,0.006112233475233425,0.01813696781406641,0.004566790147196006,0.0007390885935373777,-0.008175759975617498,0.017290085534215505,0.00560580118085137,-0.012893826102232931,-0.011619010999675562,0.012085700798974282,-0.012248134506106298,0.010107834532836065,0.007136732308401072,0.000949995333883594,0.006722735872418364,0.01241722460528111,-0.020928074647585736,-0.004787870514450828,0.0005586914618200166,-0.0004893579662267282,-0.007116565388113927,-0.011590853741742228,-0.011534776764074706,0.01657780297555886,-0.003726027026558431,0.02137424723839332,-0.0016110798211307314,-0.006622979980291609,-0.002957348270748172,0.0013710695120742985,0.0016353181664044867,-0.0025208934167269483,0.022176509848234695,-0.004019500876900299,-0.012143957452705523,0.0074922751387338105,-0.003240754598839809,-0.015875572360693768,0.008687033826088519,-0.00909853221133207,0.010952817318483498,-0.006329119567001166,0.003947326352758656,-0.0029474362033302453,0.018248407992172713,-0.02205894695853175,-0.010186421935868037,-0.014166815674979185,0.012544724776567096,-0.006112637991061958,-0.015881734580422132,0.016445625091164144,-0.01345743102577361,-0.00841221911300741,-0.013264160023193484,0.011558258473906161,0.007108883116949509,0.006100365709669133,-0.0038229045297791453,-0.004461204102739268,-0.002145000242798836,0.015622073933259022,-0.00013338952879488102,0.027791103847316315,0.011811713484216432,-0.00822001119424804,0.009173255390026641,0.009903392280819405,0.0005567608757363049,0.006927057010683877,-0.002127805103951979,0.007083437108787929,-0.0051266437989843676,-0.013348433896285672,0.0043658006653850105,0.003770097687952135,-0.0074644711742637235,0.0005916725512046161,-0.0027354592793341426,-0.0066645402813876225,0.008987528872102997,0.021307970316086347,0.02468712944392809,0.0032439046285567723,-0.008966785195904398,-0.005625001067972221,0.006830041616350498,0.0025005644292197655,-0.008207571865994018,-0.005485060211208365,-0.007748886660882984,-0.00042475812657457825,0.007049990738106149
-0.003226944741829266,-0.006644391935708358,0.0139871568548429,-0.0030333389471243733,-0.026597422831850175,-0.0014408004175408666,-0.015500746584519661,0.0003839263681672062,0.02132405842339193,-0.006447195520020216,-0.00594896456669079,-0.01082676411720577,0.0057295776832569315,0.012108490060671296,0.0003143390323657836,0.004462913202989996,0.004980847342949082,0.0030845867376593033,0.008785019460504463,-0.021322131682361092,0.0013705642967623542,-0.006127685763808626,-0.008434686064752372,-0.010691285073111699,0.01615000355242974,-0.006152643103356108,-0.0068312196969038865,-0.006420973443683019,-0.006070015331826404,0.001596362905924519,0.0035482042320790046,0.004182413352824117,0.018026052596636432,-0.010565347898736912,0.002989775956527771,0.0032395747428177967,0.00615240746560791,-0.0017716833032728366,0.004522567051094505,0.004870919057819765,0.018630779761873002,0.0034803455553309094,-0.002663952743585447,-0.0023128895908967276,0.008582937623163757,0.004810285832417038,-0.016221754198492356,0.004776856257822294,0.012903988641643762,-0.00819666514485819,0.009883423769460387,-0.002623802602959123,-0.0012139220184275796,-0.006307236758239639,-0.005784254993886233,-0.007168476048486251,8.413962696150267e-05,-0.01567853269579443,-0.016136179769124875,0.01349137382918431,0.0025414582127765545,-0.01873893067274871,-0.0010178709349271584,0.014314616364099591,0.0016425659784916802,0.006454450827674457,0.013163854609759846,0.012155037112847362,-0.0032380487125521083,-0.013055108852333398,-0.019586946526911106,-0.0033863344946112894,0.0005016254010214808,0.011178810887382748,9.230880665746324e-05,-0.014569786019223166,-0.02589885184689068,-0.0015068426798670437,0.006229798954681869,-0.003316410138028542,-0.014629943599916042,0.011737084530342683,-0.0015256147406893438,0.01132282828561265,0.004290948191098752,1.8983958839033607e-05,0.0013505628094278397,0.0034468575345324866,0.004542704772565723,-0.0039393783900619865,-0.0030216360915133003,-0.009761001043285535,0.001858794041010796,0.008050288506457623,0.0017675846142372923,-0.005692598304270355,0.001654448576225654,0.002386808196300889,0.024864811830652162,-0.03432320816954369,0.005485764075633613,0.002934485646712295,0.006015962737098653,-0.009025190708110134,0.011512703480294461,0.0025053732291030256,-0.014713608665279028,0.0030469790150056447,-0.008663060669852727,-0.01792063788288888,0.001258831461226746,-0.00982223958649061,0.007443596260560094,0.005798989729687998,0.005092177955213002,0.0006168484168189837,0.004032314657223574,-0.011444060422847261,0.0014997137837110056,0.0003858961108186327,0.0012494761159432977,0.003651118789108105,-0.0161234768195107,-0.007452293795457921,0.005880879257325444,-0.0015919431148634288,-0.002973101699055381,0.010510332655583472,0.01334071138414936,-0.015042696161436114,-0.004788672176571594,0.009766754394013536,-0.010781240670602552,0.007621630225534788,0.00042685247860385324,-0.005206814545674915,0.016007954198779845,-0.013397870968860127,-0.01663790136275846,0.0076048898707870675,0.006784499596078434,0.020394962510699784,0.001037664203196555,-0.017481760731491842,0.010917873427236349,-0.0322023537158596,-0.00029475969587302816,0.009301836476422883,0.0019454614798057543,0.015722122500404473,-0.004754762647511415,0.0038394739900422404,0.004383216875247517,-0.017950967068645258,0.011835751925605159,-0.004600451698597332,-0.00959342063047358,-0.0004056760933806896,0.011856758834975974,-0.008802168591233898,-0.013342374745288186,0.006658930521905703,0.004318888701613006,0.0007736326534160977,0.012499241526731146,-0.004380866017171449,0.00389107533623992,0.0060885877293221456,0.0012336734910573552,-0.0036290566176989383,0.009896179476193765,0.00909769189351713,0.0031821431188716227,-0.0008317486054270144,0.0021050140419317798,0.005543784240745876,0.004909509930318906,0.0009207292207208227,-0.001996016645653741,0.005779620926611249,0.0003589998149226078,-0.011141273889595458,0.014234866547995523,0.01029325804971258,6.523766881570568e-05,-0.0010247419792759028,-0.014896261549055339,0.006716700120665807,0.009993040522385217,0.003940595594925811,-0.0105188215966028,-0.014229547563600854,0.0013361605441918672,0.004317817309313228,-0.005377968368874821,0.010709361472274305,0.005334851557631094,0.028070361837594114,-0.0038509854488357155,-0.005711286685118609,0.014914385618776295,-0.01319531655965362,-0.008738360907298985,-0.01927738784353829,0.0007511084400885999,-0.012404183851232238,0.0005646732121499667,-0.011565395206182027,0.014775516716080081,-0.013998237788334427,0.0018431112875350372,-0.008089630638389717,-0.014950256319916174,0.01587357594830594,0.0049460304923882835,-0.009396894439128183,0.005155971104828656,0.023248551440781397,-0.01445064103170382,0.003755519111299927,0.007537376065021017,0.00042093092538338605,0.01608930918790043,0.0008351552757008744,-0.005167408725969106,-0.01744800018409852,0.017281099367630174,0.000830553499300548,0.0005999055301908398,0.010980029436175367,0.0026375273313361154,-0.0036015320935898344,0.0020366311676910938,0.011577160036319723,-0.007559962819636354,0.0039180661541238625,-0.0037095367487064153,-0.013624932647507549,0.011012792222238818,-0.000999065300151666,0.014770711943705231,0.0008273101734816604,-0.008624590660449528,-0.021214158085697127,-0.01496118380071465,-0.011298281060619331,-0.0026818977473771727,0.0030184906137844707,0.011344587013883793,0.006564767929860782,0.014354415751513496,0.008461474322152886,-0.0013257766864866283,0.018215661456204332,-0.0049889637210931,0.018273049273477695,-0.004288679256030798,0.010454411506731627,0.007943726916669175,-0.012737053528824243,0.01691758462051695,0.0031830747751185706,-0.007980894615163842,0.006761619979650608,0.014432937109252099,0.0105245503912926,0.021566641622932006,0.0012219784058417032,-0.00793847865718503,0.0055310949907338685,0.021400640160153427,-0.002609901855677151,-0.011006894301920834,0.0012033440449540432,-0.003471785585531534,-0.01958245223162117,0.0046292374210257035,0.028222160888801275,-0.01462881166376055,-0.0006589255905749442,-0.02560428345816623,-0.00231287252861083,-0.0015884208165276284,0.006984670175568077,-0.002536235583131136,0.00529257250954849,-0.00474638000011039,-0.0018936659547649282,0.016773112193588628,-0.006734485759942072,-0.010603048653950415,0.0040421565386618095,-0.013907318343973287,-0.013341085473911806,-0.003603641708966033,0.006924575736314917,-0.010395823716586575,0.022453857870043233,0.0001756658896681849,-0.0027753868939644245,0.0059411687337575,-0.012270177715724051,-0.00031783263176008233,-0.0017337588391784398,0.0026270759528435636,-0.001068160129429153,-0.015685591555161756,-0.007035067874169852,0.012496140172736089,0.011388437049956639,-0.010051050756567459,0.01413795925457166,0.008375105096288214,0.004357005583952261,-0.010602195660686995,0.015057247079688809,-0.020759922239865856,0.010927468764519596,0.02271470494971489,-0.008763046829265335,-0.0067050015582013015,0.0037554253722515574,0.003981260025796023,0.01766877130256995,0.009481872765603193,-0.01421954088298469,-0.01348612783034917,-0.006590398237458751,0.0004356923935636003,-0.004974824323252271,-0.016893322505966805,0.004799089075763118,-0.01203662299009597,0.011163594283210435,0.004006940999298369,-0.014576469664831017,0.00489397807762798,-0.005376890702530151,-0.006360221510702619,-0.004603460196297147,-0.018665461249837433,0.004114620413689133,0.0029861278561694126,-0.00880981211925513,-0.00868030883786627,8.863594803375441e-05,0.0027123665128942383,0.0008950134402191395,0.022118927447739436,0.0037866725158495736,0.001995554283006856,-0.007947250766383088,-0.0036017967951095476,-0.017156882818318137,-0.015541407843820037,0.0019210972954471332,-0.011061573881563756,0.010174628979651448,0.005695289727110016,0.002746009904046227,0.004567612079517332,-0.01763473656847267,-0.005802026182085922,-0.005783306365275364,-0.009316524871800244,-0.00029464594826556493,0.02239204113238191,0.0037805716712245815,0.0007234298546956905,0.015566808529642356,0.013466923523606995,-0.011240612435416894,0.012875374966948048,0.019621552448488934,-0.00438252991275308,-0.002542491381644272,-0.013025075245301472,-0.009022039379261717,-0.006965537350602399,0.003708648863824974,0.003018821477518071,0.006387982691100132,0.012559329187158602,-0.003120136154628509,0.019080230642866434,-0.009327160154889455,-0.001518117880774102,0.021439607908966037,0.0064630107216460024,0.007492440741160336,-0.0028851054962966355,0.01359209182158583,0.009303428580541962,0.002691741526073567,-0.0004433632599547954,0.006799745269548688,-0.0017780580595985513,-0.015605750141236574,0.0038887670691951544,-0.001734320466091064,-0.003943838732342774,0.0075101726381618175,0.0013644329573814697,-0.008998225970914181,-0.0033978066656712488,0.003401720912868052,0.0013378404027190633,-0.004695741578701097,-0.008689429507028395,-0.016956098121773417,-0.009560847523759427,0.006673449323873117,-0.001987051934012638,0.02165161791652839,-0.00221590356011263,0.010577418701677506,-0.005190572066860581,-0.005946850571230234,-0.0006787621112484543,-0.0033302253855446197,-0.003327941095285934,-0.007763627413470046,-0.005791183296045296,-0.031798544825747246,-0.012317483150935987,-0.0016268973943580265,0.00029203534740682944,0.0011905549999723763,-0.004965766658974315,-0.00444656816867786,-0.0020895285542958963,0.007580753737968007,-0.003073085812355903,0.015351870469900702,0.020396366351349293,0.007332641236605324,0.01029005152537679,-0.005549669037497686,-2.6043530504292555e-05,0.012198339765132992,0.0034774040345575915,0.01228743299900516,0.01586340164705782,0.018692207257060948,-0.007662921516426037,-0.020245443223495387,-0.005567645345392412,-0.0052977987721272365,0.007322578084530508,-0.010692698331538684,0.00628082482376856,-0.017164581253286036,-0.017609850330518692,-0.019025287468355384,0.006602196563993317,-0.01962080743620603,0.0074804882564989605,-0.008273750856995284,-0.012203644462967298,-0.006749528811417965,0.014105734209883201,0.01136097687022578,-0.003673797467424283,-0.007805608412075523,-0.0014246434191131907,-0.009213443148068155,-0.01219047247679594,0.011497039617422069,-0.006167375338426784,0.001694882768495192,0.004063290638094419,0.01852444631687166,0.02484214759896316,0.006012025353532894,-0.01363895726879856,0.007974563938002516,-0.013098930339200763,-0.0008239052057245571,-0.0035514827356109757,-0.00031728856069405384,-0.00024249721543931775,0.0028764894222840904,-0.004201152455921618,-0.01830189590602132,-0.005110560966058703,-0.009056649099464026,-0.0027221366158704987,0.012874280241480338,-0.013618707585681174,0.012597712987328393,0.020172124234324813,-0.010016844057014978,0.0031865127340817362,0.0014399785533799692,-0.013132507153307977,0.0019826032652571096,-0.006077487257532913,0.005652961915853115,-0.028231093153639204,-0.009317015215203055,-0.01394672251960398,-0.005421393828913046,-0.00931698840331173,0.004263433238778036,-0.009963282817592215,0.0005093121571134048,-0.005803069005994521,-0.0003461508704317579,-0.0030883914538054023,-0.018453625788519046,-0.0030229952551167434,-0.0056810329101207035,0.008595123137079764,-0.005284660177642452,-0.00593962519720617,-0.01564822351207831,-0.0034077885744612565,-0.0012148910054825546,-0.0012019215899738151,0.00732563353752696,-0.0031500145764944572,0.0022018758926926783,-0.0026246909518944568,0.00023804111826257563,-0.007591068525739495,0.0018829506108605475,-0.011582382337637323,-0.007240303502865539,0.008876761285225467,-0.0012572483587797553,0.002398300040030231,0.007958348067380666,-0.015368824316181308,0.009595182606065848,-0.00296464381922801,-0.0016707934168965852,0.012506106018530128,-0.0194839256499974,0.0009000110092115428,0.009086438730593529,0.004135757646901921,0.006081375710419311,-0.014377597051686406,-0.0008476841487610836,-0.012816757749995512,4.938145653923077e-05,0.02514670313076687,0.012880853150703558,-0.01053430014867541,-0.014987320933893275,-0.004640029724089317,-0.0008269192480896354,0.006383263425541028,0.0006161702253532904,-0.008105385907623622,-0.0017363921844683486,0.0013535799503377444,-0.005066155126148695,0.0030092051926735755,-0.004590921002271479,-0.0021024789676861596,0.009048621045918553,0.0063735820280217525,0.004722290024798231,-0.010224367211408873,-0.0036559288465800505,-0.02540983258836653,0.013783897268634644,-0.002866175254066294,0.006508919305595673,0.0031418606556674568,0.003265882086699933,0.012443641231344742,0.0044842349231713615,0.007930080990356062,-0.008404212930348482,-0.014032449928360769,0.011167028083676827,0.012772818191015913,0.013871417809601168,-0.01731219664016487,0.012672935035835388,-0.011933360307013995,0.007994319537879607,0.0028795278101488597,-0.008674899926241637,0.009337437371720901,-0.004123494096783958,0.008437406278629335,-0.012181119738630702,0.013668632613491492,-0.005172059820121278,-0.004165225605870659,-0.0019044974800384322,0.01073395189915257,0.005955819193429496,0.008792087360823184,-0.0018811457204514202,0.002354821333192401,0.013793219532164874,-0.0003010641973617524,0.014209777271793567,-0.0023395292992325766,0.006415999714506587,0.01999719765059949,0.02263280418848987,-0.007481876757947917,0.007780468702192434,-0.01132834279901433,-0.0012912948641499477,0.007422000775731255,-0.01312759745012222,0.020859016134215747,0.00743083357850004,-0.001464909401213691,-0.00902806845720893,-0.003631013919463541,3.7067656372812015e-05,0.0002186677905529994,0.0062766977025874695,-0.006773282052292811,-0.013707437300043517,0.016333825025558454,0.016819941546354408,-0.0035618176273691567,0.00525558617144116,0.007781000594683686,0.008120749224612131,0.007731272680891908,0.01821552536956205,0.006703324958255756,-0.01629814420009669,-0.008058816305247348,0.00858245172985487,0.008115000776206105,-0.018455366444455758,0.003507753452558247,0.016072351409616888,-0.005096139387264748,0.017731328362546178,-0.00030140024279022137,0.005518721050771917,-0.013817059788640574,0.00969456748766306,0.0018601106094737728,0.0025455396492617207,0.0022598243392182504,-0.004996047470227748,0.004845265337058103,-0.009285905911823801,-0.001873399171156102,-0.00804706964802157,-0.002703657850609122,-0.00015118563168597577,-0.0018935596536821843,-0.024287850345610297,0.009657628401355116,0.0043608037184799725,-0.007637417385473481,-0.014852221300738981,-0.0032213289727513724,0.01845754469027638,-0.013828206595434584,-0.005022168474528403,-0.004390147120977467,-0.008494578487361064,-0.0020689912603856285,0.0006456785231552382,-0.003541900302693166,0.0027178422797767953,-0.018274458498634846,-0.0070721673644101556,-0.015118164766573843,-0.000555439507342647,0.013262120120741292,0.018232522613183474,-0.012133489042009003,0.004992333743512367,0.009409155193883275,-0.002810514227281909,-0.0008782015556526513,0.006581905960556368,-0.004287503150664016,0.003777289781590243,0.0031371688441414382,0.009956537528036592,0.006263723880879443,0.006635830569241873,-0.008002822466880166,-0.001355503388685603,0.019623251624137222,-0.004774523087916785,0.0006483450155281176,0.011117106676246583,-0.0018346044729380278,-0.014707424311263904,0.00014678124516388693,-0.005336554305044402,0.006994854938939928,-0.013998939862131974,0.004305390941970106,-0.0006213087024551853,0.0075071168088163154,-0.015749576255625383,0.0003229492999925704,0.012178792300766466,-0.003972700364097249,-0.006530697049018679,0.004033920755273961,-0.0002435325326111096,-0.0104001438530739,-0.013264493406522731,-0.011780283750941103,-0.008876358989181777,-0.006773138847654603,-0.006531518008562718,-0.012113735159341884,-0.010642211071293414,0.006399303289729516,-0.010889420093601485,0.0028740426558621197,-0.007204917882546702,0.011164991929203581,-0.0018193916789693652,-0.022583207934465947,0.01145423174770296,0.0020142223700874663,-0.0021054887243881428,-0.00385950658633684,-0.01922800844962857,0.0006254920042859715,-0.013940671559488254,-0.00017976185118807783,0.0016598907473690833,0.003739741022063306,0.000982434975183698,-0.010120631762997363,-0.0069251779397636075,-0.010181709005660042,-0.0017466073122682799,0.004077815466665395,-0.011401863861113245,0.007628800161175318,-0.0038050317308627787,-0.007086672500556226,0.005220727074728334,-0.0004557041978609361,-0.0004834325293670528,-0.011964823965169107,0.00404031769548526,-0.001834169599171494,-0.0029946787129652586,-0.021451593990984834,-0.0003439886179662988,-0.0005526867000712748,-0.0157965705981956,-0.017643439811031076,0.01619603551344643,-0.001105838800345446,0.027074080796039457,-0.016173200751836887,-0.00023382033833974612,-0.010217688150027137,0.004277697999283273,-0.00969504601662641,-0.004798485037501555,0.019207418781268408,-0.0037833141265117853,0.004392915914619785,-0.004334610132427311,0.004107722821966978,-0.0030440039318161004,0.011377549354731025,-0.0016892809872347087,-0.010975491796776728,0.0026492676891401172,0.010667360671513105,0.003635714712791891,0.006878319576926071,-0.008641440018579721,-0.0056007402753080505,0.008231534656999025,0.01222660392468436,0.013255254279076444,0.0012077645925475788,-0.002783163415988757,-0.030481892710394316,0.007573562236732429,-0.0013827366656392517,-0.013485108525595717,0.001842902992869895,0.010858467157835061,-0.005391443861462181,-0.011139576885723755,0.0016672304440448157,0.014400025875579052,-0.016799821780226758,-0.01781479212309514,0.016742370095710717,-0.010255166564891118,0.001392343785533813,-0.0012518591473386078,0.013337652190688333,-0.003717208955964488,-0.013914289643634397,0.011659117053079638,-0.013849329278601281,-0.005947716402853574,0.009249957781871735,0.0007217049810908599,-0.004201199408239971,0.016566540492836918,-0.007998375519111697,0.02877592884904486,0.007763805021368275,-0.0009603867192106975,-0.016442855616910206,0.005902915156126393,0.02025850924834124,-0.006666671124145998,-0.0030345263571287897,0.01417999924024268,-0.0005149481644770367,0.00023061882531345235,-0.03099329367377855,0.003921966457878552,0.014476601283062634,0.004912545752237276,-0.012614766360447725,0.001806930505391021,0.013694815757267886,-0.008682391872615663,-0.01553431345080077,-0.0057727067114830485,0.01347235042729147,0.005165741124748365,0.014995744172105235,0.014181455698175095,-0.004853688131535231,-0.01609519839513788,0.011314403542618263,-0.0007236645901560003,-0.012872504235306777,0.01012702344607232,-0.010389216043611515,0.006715937114364383,0.0040718565998411164,-0.004823841943429154,-0.010124715311076673,-0.009235884143661045,0.008412749520710508,-0.010327736382652915,-0.0006838764295369884,0.02462337614873808,0.013580721258377278,0.0030444556823337743,0.030955073472824446,-0.006992259544499181,-0.01168698065428279,0.008511029478263933,-0.004743258293102045,-0.005238110807257144,0.004533905865667217,0.002100952602163059,0.010297911775406773,-0.009405481971134234,-0.0031115305487004405,0.002833641046717857,0.0039482477632602755,-0.012130091212011062,-0.00033368783861329165,0.002012620908207089,0.0071782438349085025,-0.008988023190453163,-0.0005278258144962699,0.00399302179882156,0.004739102638825195,0.01895322685168683,0.019370698328804493,0.0023605366411022133,-0.0069375334606956805,0.01438018450762806,0.01404443387836908,-0.011613227574823977,0.002832858485620698,0.0033341213639668478,-0.014799535238374574,-0.006398916711510854,-0.0018625776227806136,-0.01261018715791143,0.003177173026606406,0.007679603108125504,0.00853410268343185,-0.014460475216801189,-0.0011593129917263907,0.013482511183530919,-0.0015426750511633167,0.004548545525273709,-0.003554177546808346,0.004117109408015189,0.0007807288158016855,0.010710868177892944,-0.030684484091639003,-0.002197095540972159,0.00012170923862241181,-0.007907710973687693,0.0005231576616858232,0.002987708382679094,0.009207249909002796,-0.01594722658847313,-0.007744950893172822,0.0071821829975421735,-0.004361267325886543,0.02433221370771822,-0.0020684515895927243,-0.0001477113676451641,0.00534777305492627,0.0008932402382927146,0.004302124688551219,0.003845851170894998,-0.011635764717391384,0.0017972723433976382,-0.006253938773317879,-0.0029586821190065128,-0.0012258904829383068,-0.013991189718735942,-0.005150496631430413,-0.009248459772413169,-0.001587676821300561,0.001976411386620973,0.0007502534564847069,0.011462429022277641,-0.0015410351998126678,-0.009422574981989673,-0.0012760817144402898,-0.006299752948304863,-0.014627223945394226,-0.01849903089670928,-0.0014921041290650177,0.011319648299382052,0.0072985633780988015,-0.006019251293716468,0.0029918029414264797,-0.0052887020075817704,0.003737440226742481,-0.007834744334235245,-0.01819247488016458,-0.00020494014084146715,0.009278398993898315,-0.012698175080467443,0.0035445327730062276,0.003412254782251697,-0.009914533618350358,0.0013460032232499276,0.007422687931432621,0.013023891778680843,-0.009947185757262209,-0.0049923392537525695,0.008590336648378142,0.0007145766564747515,-0.002202515927215216,0.0009578089350744399,-0.006573950478590915,0.011435112715558266,0.01440315513881588,-0.0012326515509888012,-0.008166112789330078,0.00556687091621777,-0.0031082979567475955,0.0015958226957431523,0.012381425538541227,0.0021887543607315477,0.0036505558110023935,0.014709631976153529,-0.0051241525500038835,0.0028994053993118556,-0.017421846808127927,-0.003690293106548711,0.004127018090107317,-0.0024816982081262034,-0.004256067750947004,-0.0037486635609730416,0.022613167662375245,-0.0075375190528203856,-0.006479617496125485,0.008798376762650429,-0.012408533293083475,0.017821801184540315,-0.0123140020955107,0.015346448937666731,-0.0096754789503841,-0.001366971839858259,0.004501306340376756,0.014788394629595228,0.002921581940628539,0.008249067513566542,0.014762275386981341,0.02731542867622532,-0.0011990139947697072,0.007396480215006167,0.004001345436605928,-0.017100192314155178,0.0033719267271317094,-0.000679286378298321,-0.0004904478527252075,0.007764586758415697,-0.022064271895896624,0.021073247420171744,-0.006800008244366979,-0.01073247388012121,0.012462037190458146,-0.0031252470491766027,0.006263945462115157,-0.0037166421530467186,-0.007784315541545882,0.0027874141961283985,-0.00830398641311777,-0.0019186399058004203,-0.009369958572861886,0.002245996737968406,-0.0085403891247691,0.01732421525678182,-0.00526345361577889,-0.01033877045442333
0.002937925303947999,0.005491367829978563,0.018803430581134716,0.02708118041525355,0.00016016169343041877,0.006279431202433124,-0.01666437787539572,0.00871153338744659,-0.00477723447000268,-0.0025080738956898265,0.0010511881374657768,0.0004041398506262882,-0.01365996000602577,0.006062751579442375,-0.011585241804126543,0.0017420160142366282,0.0059509263641444946,0.014170818617191452,4.178725582606141e-05,-0.005692533939884789,0.004893680378398209,-0.011849643874758859,0.007036187330471494,-0.0032511423047194288,0.004349269696158514,0.00873533522559496,8.273280131649076e-05,0.009533507252028579,0.00399640158274339,0.004713956288541549,0.008299245579931634,-0.00015023890189720134,0.003991949383342831,0.02421522381474707,-0.008174876423302304,-0.0053680675365136285,0.015609207587002601,-0.011647077688187629,-0.00270737215591738,0.004542374060796416,-0.00895197787261978,0.0019216503402382807,0.0018851463001451475,-0.005464947127300209,0.014668287078162444,-0.00037986056747150575,0.005004920442455631,-0.013910250348636508,0.0050700894619856995,-0.01120105181566766,0.013115814916107906,0.024324658395362356,0.007217535681075943,-0.0012727125206192485,-0.0001672749035206858,0.005351591212767295,-0.009774325988668002,-0.006658291991524592,-0.002952443907027987,0.011827531793881945,-0.01360714122212438,0.002494207209430136,3.456869947423163e-05,-0.0027909987964044665,0.007738989063486732,0.011443575104589989,0.00030885411339983803,-0.013368025617064272,5.4982953144815824e-05,-0.022411898783141156,-0.001963791974171617,0.02062033101819798,0.014599718410900393,-0.004783969353135587,0.0037385960068357783,0.003245860823488112,-0.007470483838550071,0.00824255330151092,0.021966077630493932,0.011026799270210474,0.007286606812398749,-0.01143606385714965,-0.013691114908925975,0.007610169335811477,-0.003482490300143974,0.010929353543749019,0.006542596860811585,0.022897039241025662,0.011971051397841053,0.008969484406674177,0.0019768032460419074,-0.006254599743814517,-0.00603590963058246,0.007673617761340845,0.01258004778541547,-0.006501430532703026,-0.01551287166342901,0.005766891465501497,-0.0012610046156024104,0.01028737051237635,-0.023762633126211498,-0.009358033151115174,0.01679394110379366,-0.0028393619076407957,-0.01574440417041771,-0.020642566463880102,-0.01135961664080633,0.0008028888132329135,0.013823664403565056,-0.021016277691335957,-0.003374236537493205,-0.006742040859448563,0.009376088850616356,0.004202966719208725,0.007945136443482414,0.013885523096117843,0.00048574053553143443,0.010776877399111677,-0.009194318244927625,-0.015552933932211133,0.0020258170676549438,-0.003307751665919387,0.003728454476788273,-0.00013366812660472603,0.01929985148961419,-0.005648780724309624,0.0037605478116020242,-0.0006887699983812282,0.00902328577018443,-0.006505381421397307,0.005765162886740251,-0.0018229566668706487,-0.007066099712735281,-0.011616884337579386,0.003996535982910688,-0.002395712222973295,0.008114167045043249,0.0049646214976892065,0.007133223135791448,-0.012130412989002538,0.00523188574457152,0.008131567566778644,0.008751061534033112,0.00884916016492388,0.00839557560144205,-0.010615404153083352,-0.011708157069890177,-0.009699654350356213,0.00031410003664268454,-0.024399127688375776,-0.012622523587523455,-0.004078005419860167,-0.01167847596892796,-0.0017117243558296394,0.002375593920300743,0.006452035023724069,-0.0023964529975053603,0.006721258801107537,0.012673191297678391,-0.004871370889344002,0.0071546159706779916,-0.008555538393126214,-0.010651708434933856,-0.0037991237807268705,0.006019003476679636,-0.014575522894333361,0.005139704787425992,-0.00506816426802876,-0.004561528181801176,-0.007116302395827747,-0.0037503634017709425,0.0002910501134356269,0.0007915473726031107,0.002170584099579285,-0.003665215248971745,-0.015804604194720788,0.008377576348747334,0.008618263804360047,0.006448155714741115,-0.0008806819478095368,-0.003719325628414885,0.003280102203499761,0.006227205213256349,0.000504591657317067,0.02055890956731179,0.007666139345857226,0.00022856139081673388,-0.004292324890423382,0.0010223764854940995,0.001403151675769269,-0.008363533226060225,0.0034618071879212236,0.005092857589842611,7.963514148445034e-05,-0.01152764705958009,0.0021526423428909,0.00375521176872784,-0.008049362475390408,-0.0038778260818386977,0.005457248255354531,-0.005413644878792308,0.0001269402600911633,-0.00882464131672529,0.003158608213628231,0.0046584080423677544,-0.023428719471820958,-0.0019944232790339235,0.0013658434096392247,-0.015685462961580424,-0.003940797908703666,0.0038500848831684387,0.0062954755342448055,-0.006567178643528779,-0.013047229942377364,0.008707715274579957,0.01010389533454665,0.006443060314712351,-0.007494711036392198,-0.013638042196989601,0.011848200786274304,-0.0038070325945221955,-0.001886088137574723,0.024113527468448193,0.0047165303536095,0.008190152128119403,-0.010513835294219254,0.01185157138700141,-0.005857104398861961,-0.012268481060470302,-0.00929891409644302,-0.005465343263714985,0.0014349827959841933,-0.005543871777193379,-0.0013627507408690447,0.006915282876939829,-0.007172705200590738,0.006302314671231953,-0.00339896857564704,0.0024307148854721848,-0.004607724005931312,-0.0028659996675942205,-0.009385971621986813,-0.002010799129874805,-0.019002255163016103,-0.008478251641220935,-0.00030910900157531346,0.006259114717938735,-0.006575437610668473,0.005885695432995326,0.00018669157246301902,0.006594242142761102,-0.0024691388098937884,0.015581736468540885,-0.009708901415039606,0.0019187705582695126,0.008298801267602561,0.01711932738993485,0.00832529353727879,-0.004437499931912964,0.019424328772003913,0.004461877706490959,0.009406814903934912,-0.002167602898815804,0.006962871359359071,0.0007151277000647075,-0.00394939378014457,-0.015834840898577816,-0.0038900885556402203,-0.006241895645631573,-0.019847233735930333,-0.0027930955374206295,-0.0026891913138046503,0.01717087419732858,-0.0011590951926606166,0.0011139111306010337,0.011959209360771083,0.015997705893179517,-0.004708164820803677,0.002833402691794592,-0.003146987576916897,0.026005391911945237,-0.002603800983046759,0.014740589170856536,-0.013595438909217277,-0.014580848774938218,0.003820656252515282,0.013131834545402421,-0.0005238587449232188,0.016349078398679284,-0.0031508255211859905,0.0032920473809312486,-0.0013862775442986608,-0.00855722509180375,-0.004851384002879016,-0.00013044895619300956,0.006516608193796959,-0.0009971974790913979,-0.001479821998265866,-0.005991728101028562,0.0012522928095529517,-0.008993682660759308,0.027480141229770116,0.024367055007761044,0.0077360993960754664,0.006248195880243806,-0.0019784605010850368,0.014420189013905389,-0.002805827837969778,0.005616058352105372,0.02437245909224,0.008062954496196326,-0.0019804319622436133,-0.02162051845142518,0.022427249059943068,0.0013980714039697481,0.01511856111636958,0.004493667960895062,-0.01303301763408218,-0.004291450120244335,-0.005783601874373393,0.027591439128529616,0.0022170722648179905,0.02024274164967257,-0.005474707269129828,0.01753045871651371,-0.0034926309383181324,-0.0048074422017064305,-0.01842447359786658,-0.013293871665274348,0.009785450570738766,-0.00591110330048131,0.004178708928149331,-0.001983129470139324,0.019387368397913603,0.0006705534441989647,0.01630868393116997,-0.0017030041981622437,-0.008586276140354721,-0.021497649412867043,0.005584233793847377,-0.004725923117053178,0.0049762888153847004,-0.022442329932796462,-0.0039097055052910775,0.004192756315210454,-0.004334502111611989,-0.002147470192109817,-0.007560006574974545,3.488191589575875e-05,-0.015470647001276013,0.003761921700410802,7.165269815643785e-05,-0.001954079613660736,0.011494178595242805,-0.008336909192663998,-0.013206796193139754,0.004386244264447076,-0.0045111538453039375,-0.01623913136737365,-0.0014064115071082037,-0.005049414137648647,0.008611821050745944,0.007894629116192103,-0.0009363912291561457,0.0092411692160979,-0.017494552579613267,0.002978162813500089,0.017454308859439754,-0.014256224357953215,0.018378406904873804,-0.015361016901731772,0.013988268304542409,0.0190873925267192,0.002138072236180702,0.007154583010124973,0.009585305040891664,0.018372257452524635,0.0025979043023462082,0.0013690423134796663,0.002684217614453489,0.007001274457669535,0.005895814436440128,0.0029368506294727603,-0.0008568443855227527,0.00045385871291172186,0.003840362064191803,0.012014130383683756,0.0036648995660801195,-0.009482841228170348,0.001807385321536806,-0.004044486101784635,0.0017998834723927874,-0.017601030479952186,0.00993770309245028,-0.00394890250365199,0.002344152293411957,0.002400898041709702,-0.0017030662670029118,-0.00951362588677096,-0.005220044387593366,-0.0034691580657803317,-0.007274912531324361,0.008771197614223344,0.0022416565254760484,0.003587265192506967,0.005481944940756359,0.0014237331177013497,-0.001600056365749829,-0.006799272854433277,-0.00864653497566463,0.004223380487877699,0.017038583642451494,0.012904880452877085,-0.013041262538240426,-0.013757969498690292,-0.004931584168414114,0.0004957580974817647,-0.008820675884100602,-0.003815950347506108,0.00012381711790137798,-0.006786996528248397,0.017908018922071924,0.0024843597594795953,0.0054511710467220606,-0.01195869098644741,-0.00831686767864038,0.01579801244250504,0.010680460395975406,0.007401421774448313,-0.003400973988948192,0.008180204779110793,0.004474040659574697,-0.010167476712515918,-0.0008868676722121706,-0.0005000750723916355,-0.006659802855771175,-0.0022484341661777683,0.01271412781507737,-0.01379091328037352,0.0029327584816504645,-0.017357461050454815,-0.006629975106091189,-0.031202243462776287,-0.021465934013766397,0.01235444040497467,-0.004832067716286888,-0.013625336613462019,0.024943193112359343,-0.0024276510619141317,-0.009462690955031447,-0.0030770845561638132,0.0196429233638926,-0.00765698127785643,0.011206133050926867,-0.01427042310715591,-0.008546937132171858,-0.013921514649807593,-0.003166227071576528,0.007099928816729453,0.006834220113718579,-0.00043993681830995033,-0.010120454146978446,-0.02041694695756695,0.022476291078523593,0.0031796434910595917,-0.0017585496757195418,0.014634885537726546,0.0010189252237596336,0.005224505393713043,0.015561959530193353,0.001215725203142536,0.0003994376403743877,-0.01033231712519228,0.01188498105497622,0.005603897988632154,-0.013192286994654957,0.010979726021817592,-0.01791866587031457,-0.010680498088873317,0.00768283964132188,-0.0093814234568468,-0.006301956301017993,0.00035784133526614527,-0.003230204360806734,0.008032293427985875,0.009627851634625683,0.000538943266217926,0.009000732466714862,0.007803829200103497,0.0016312958501422947,0.017975179607349505,0.00026213729085135945,0.01880383554826143,-0.014192239057642761,-0.007711281288351617,0.014106525517524875,0.005058481600158566,0.0055469362466223915,-0.014436007005225548,0.00021820592902103882,-0.007724313714057399,-0.0003780805327995379,0.011722528315677048,0.007486258743174483,0.00900272293261286,-0.0035216151230573578,-0.010886209608174604,-0.006839257342061668,0.0016592194117007542,-0.0009265257042472484,0.0018554230428794287,-0.00012392998396358585,-0.006783449338720115,-0.0036403989221369566,0.0006052439946372666,0.012117283161760514,0.0012904528333237942,-0.00030421542628238297,0.00872915139900384,0.0056430079749749,-0.001783791254575612,0.005916721241202915,-0.007845363124023726,0.005201766506391848,0.016444000546101317,-0.020420404202714456,0.002887656266606324,0.010003893607835261,0.0053514062408510955,-0.01131587092034701,-0.019228068400959565,0.0318166065576588,0.013199768356337141,-0.0046896695274253695,0.021117420489646592,-0.015279300492096325,-0.00506788928710674,-0.006642189393304112,0.00039398394001476534,0.016474515919006942,-0.000975790123803871,0.00410292275719428,0.010675565835537977,-0.0005490874026688633,-0.0031649825006712707,0.005438111189024277,-0.008465232104855922,-0.011476371293821367,0.003481943093402096,-0.0025007067854227677,0.010821354187210057,0.01358821583601543,-0.02111473397525801,-0.009777394823814935,0.007616882503279884,0.006295425897290047,-0.002509519977296489,-0.0037524950600519138,-0.01094043086558111,0.0225189923703133,-0.02488646869341062,0.009929886523971018,0.010316790639847084,-0.0305522295729639,-0.0046878826112361225,0.0009145640999913021,0.006437115373732154,0.006036891285665833,-0.0039762862989213155,0.0012255855614189176,-0.008791377393118251,0.004588243719105919,-0.01919662522724624,0.001950630509256911,-0.006625857690863065,0.0030309407394799584,-0.0008040405347917967,0.003230481125690104,-0.0009219798078542983,0.00785592650392029,-0.01758409404443501,-0.0018117627962504755,0.00247953279473785,-0.002165348740533509,-0.01148905405226784,-0.013774945702041254,-0.006624223951757868,0.005956764461166594,-0.013016958359028287,-0.01454713443147285,0.00017816231597303836,0.004776086054931914,0.005517711045711089,0.0044603888061923,0.00590871810969555,0.011851535681941167,-0.00010568648437436347,0.0051921907203997,-0.011620937487349256,-0.009037697974981258,-0.005735787015585004,0.0007224402040442263,-0.01010804707117941,0.001609870621573494,-0.009016678774455259,-0.018556951596875475,0.0006780363756562015,0.01829959674645167,0.014809564719141566,0.0022611759446311127,-0.022327277083279744,0.003770609660162767,0.007186786008116615,-0.0058034557732604365,0.001080126068342572,-0.01073279219582147,-0.00079325576728491,-0.008787502685479837,-0.006730205060406667,-0.002678023149404488,0.011662434060561647,0.004583196157777935,0.0034454306181164345,0.003049593908144166,0.009425142266209744,0.012664059379936057,0.013461792615962573,-0.004489450988478754,0.0006913142534020521,0.001039787656190224,-0.0006008961401136577,0.018074364581613482,-0.006255605455986439,-0.016146176292266536,0.005946087210551117,-0.016086821278706386,-0.005092693751555898,0.009706780225952241,0.004668724578984022,0.003072084483518145,-0.004880388181770856,-0.024187817875965734,0.010675700451928576,0.02483636544219128,0.006946932227520094,-0.007255458085128748,-0.0015564398807136792,0.016873801477841767,0.0038673552820537227,0.004188895454696921,0.004501411143659183,-0.008756042325048926,-0.002341773144564421,-0.0013388542574693824,-0.01452708450432074,-0.0059546133106337445,0.01086587235952076,0.004011939400152729,0.002972747327705482,-0.007339421376481664,-0.005906440400768986,0.005586663664496208,-0.01740654668404762,-0.0015233366194847484,0.01735733076968089,-0.0012598828576804713,0.005751731743659247,-0.01844465486953137,-0.0032298729888898974,-0.0017602935215037302,-0.0032474455743534713,-0.0025130413110678812,0.006788819009477306,-0.012032434180100462,0.005003772719640463,-1.6441650905887927e-07,0.007888282599562176,0.012172971494823227,0.002895376871704546,-0.0037162649712118036,-0.00677503511882711,-0.000716426848421605,0.0031175591641319097,-0.0005847753809476148,-0.007487535694055261,-0.0068441550986314175,-0.008261243076508822,0.007730542328791557,0.017359286406694537,-0.014077284670630222,-0.0014625115182220936,-0.020192437745386357,-0.011069766105501812,-0.002812045571885894,-0.01131598353634774,-0.0003709689655937832,-0.021765068565364958,0.019963022651963366,0.010702122871684799,0.013187546525687877,-0.0015745147026256518,0.004259032912583448,0.011814152809852534,0.018405894027309355,-0.005194969137829949,-0.016833577920904893,0.010368039858079282,0.011210623239261683,0.007354870235123853,-0.007475742575827218,-0.002358351359443176,0.005841467043130939,0.005161369180721894,0.0007551018707820684,0.007215700396284679,0.0006779318726240283,0.001732028232057034,0.006074367360202824,0.00481365503318487,0.011539483138690673,0.0009266999848699589,-0.0007451913377278012,0.010807779300814094,0.0032773894901607565,0.004053156188331365,0.006603325123350338,-0.014321739490598962,0.0029435022168562072,-0.015216590279290333,-0.01135623050430316,0.008128859209732147,-0.023134941767213934,0.015845006665331365,0.009400166662490083,-0.010536854625051424,0.002202202905297465,-0.003215964478034123,0.0018347276152211164,-0.0018768347589349491,-0.0016055593182547818,0.018307520240601397,-0.003908826632925276,-0.014645722449064418,-0.01106815947673231,0.007647809908380246,-0.002695141465931735,-0.003929465862808235,0.003986412322607759,0.00821274886648728,-0.0030810656662670654,-0.004326904575706772,-0.0011524250620004036,-0.017482335571983847,0.017606400494757906,0.012640065913200538,0.001344621461842568,-0.020422064875912475,-0.010230052818658438,0.004802480308775263,0.005244467109961599,0.007588499963059388,-0.005553497029637318,0.003488228231384515,-0.011581141724826575,-0.02160982286977819,0.009238322730645263,-0.006552870775939615,-0.00191606539794933,0.0024574921601294283,-0.011604604629050188,-0.010029358322777238,-0.016731733193056157,-0.005915032979742853,0.0042128934521341935,-0.012712655093985373,-0.006510051864627428,-0.002195571111820865,0.01257611164358797,-0.003770018818822502,-0.009647900066119682,0.002613608928830718,0.007029027782239158,-0.001637560196615938,0.0057283789535326314,-0.0038705920266360046,0.0037107497736538087,0.00632740594356668,-0.00030927779633353194,0.01199489955414375,-0.018571480526030585,0.003987298899310462,-0.001637043670023538,-0.002767747853384525,0.004214111632922313,-0.013077769457094464,0.00228756992410899,0.01015328679729619,-0.008122900453707966,0.011699648893856902,0.000142304366123117,-0.009627938544947305,0.013575016943453807,0.009218640829755397,-0.013981811782192233,9.568815540638029e-05,-0.00568325724052813,0.0024999738053131516,-0.008218533382461903,-0.0009228849445612914,0.003835887156590865,0.002536929668811923,0.005769783363515116,0.00990159504783012,0.01422293407070036,-0.0018411888604848042,0.0014424360518314697,-0.008737297741300833,-0.011816327706999212,-0.00248399011413384,-0.006399146519587126,-0.01153576153043577,0.001126739106331823,-0.0015879637697762334,0.008330059972803951,0.015156004966101642,0.0034893755094795027,0.01019451643825522,-0.006795375635045436,-0.0027476851531058853,-0.005798764468840168,0.015597432870406262,0.0011853076872385118,0.006872179298055363,-0.009608798437496166,-0.002721842526749333,-0.017532494869205818,0.006907026327653956,0.0004475149798528338,0.0009269794222751632,0.0056989689896025375,0.02043551394761973,0.016823422678510655,-0.007657833936983873,-0.014746451676452214,-0.004051356661813196,0.006681313410728214,-0.01620452611986381,0.0020831166066587353,0.0050585610902280235,0.01065307267669422,0.013967014924186576,0.005457420541320993,0.0035751910197513686,0.007340557689901224,-0.010864043962813921,0.003917416358565286,-0.005903709271553512,0.011119925253387482,-0.004821282887790968,0.020296177016826563,0.007531421945809844,0.004717844466823395,0.0008806214240720604,0.008224206542061047,0.0015522599924934067,-0.0015663746718120753,0.026321301335144022,0.011480738913360941,-0.008441197339779192,0.0029969843562471107,0.00710315141791037,0.009834477053973367,0.010379935091016944,-0.0016078750266028516,0.01847294157234833,-0.008071216817519542,0.02212700315162004,0.005931164429492708,-0.006868323077842479,0.006406954170783507,-0.012127389147923898,-0.0008431470146742835,0.0016180637284004826,0.0032123028795694665,0.0042413275539119055,-0.0022260218906127857,-0.004701436721796181,0.012903864865691964,0.005741788496632786,-0.0036048608507822724,-0.004199615598739425,0.0031139771018280794,-0.024892048847986948,-0.012081429835273114,-0.004055625135575129,-0.007502896823274318,0.0075964976550172494,-0.015046381936073107,-0.001944523037846974,0.0033323829300734233,-0.006868465196240217,0.007003733240345569,0.014028115754280318,0.011202701966887092,-0.013340597911613362,-0.014021337940718245,-0.0002710281587158835,0.021924803466892597,0.013684986394386178,-0.015643219353332512,0.0019311431429079008,-0.017234465237167474,-0.01486753688746896,-0.0023294649992822154,-0.0026337275084744875,0.011229369028464236,0.017760921068349474,-0.00989924941990457,0.009762394876927247,-0.002197570553584354,0.0022226077402560974,0.0035753462416420767,-0.0024091749028949156,-0.010889267482732253,-0.00332640996318204,-0.024409072804463253,0.0005982494337313256,0.0059176734719037765,-0.006583592164195705,-0.004441531300543556,-0.00022182971927341876,-0.0072608620605190966,-0.007837913969302987,-0.008854057191580136,0.007055043806899618,-0.003258824427137366,-0.013049869356864148,-0.01240367495846854,-0.0029407430695350054,0.0027190472764504546,-0.007877184514923499,0.005293840382412604,0.019035099331299845,0.022274770498726046,0.01006014526249893,0.006478426783751599,0.006572937967036494,0.0019475506489799086,0.004743061049591247,-0.0024329972067779083,-0.0082747449064089,0.006868824593371613,-0.010823038279139482,-0.0030941059033214244,-0.01307202955241989,0.014610510424928036,0.0035449285588733774,0.01855945824906804,0.0005695696922693116,0.015446950740444745,0.000936689102659647,-0.0027655195196290565,0.010836604941108052,0.008440281906643919,-0.013435201793924935,0.0044223593283985434,0.017167172650123897,0.012969825053206294,-0.004032210325208575,-0.011320463345490315,-0.019043034528234356,0.015758184798026816,-0.0035016519762871763,-0.004411667695488379,0.0033507520149257614,-0.009838058255647056,0.0228146929081819,-0.003073323708692248,0.002015350100648247,0.0003608127659454474,0.003692859179197472,-0.003687806259511969,-0.0045168879746443555,0.01022517997504458,-0.01973292949811341,0.00921124681267984,-0.014252297663620581,-0.012869952923720604,0.0041692479405292,-0.019741559548524072,0.014483704240991095,-0.015923433177442985,0.0007236186720101343,0.0013005051896359263,-0.0027315857962814443,-0.0029402523284082914,0.013090537145948307,0.011145868038742792,0.0110494169519159,-0.008463336718570637,0.001021641156159218,-0.003667100888433364,0.02045098655186931,-0.0052488144196624655,-0.0011904216481556692,0.01716130032069929,0.0039110277895987216,0.015741650534406525,-0.0007733929497851786,-0.004745969901013849,-0.010309309506545414,-0.00192269448208094,0.005390180652508609,-0.0004812167327721987,-0.010000080465685124,-0.0010564181488903512,-0.0064742018057926225,-0.008139444098338415,0.0012907854344859381,-0.013203321297870947,0.00723337533624704,0.020825796723122358,0.007273844588253661,-0.0002983075050565325
